tree
version=v4
num_class=1
num_tree_per_iteration=1
label_index=0
max_feature_idx=15
objective=binary sigmoid:1
feature_names=rsi_2 rsi_14 ibs atr_pct bb_percentile sma_20_200_ratio volume_ratio adv_60 sweep_strength don_position near_20d_low down_streak vix spy_ret_5d regime_bull regime_bear
feature_infos=[1.000012141416315:79.993828151025284] [20.00039431985612:79.999363089572881] [4.5924247233042342e-06:0.7999830816209389] [0.010000339717338292:0.049997087112406635] [0.0018448658276715157:99.996590710582467] [0.90000622940604647:1.0999968027489817] [0.50000129711141628:2.9999957871523861] none [0.10000788872086229:1.4999733660349051] [5.3060805346616391e-05:0.99999492983416904] [0:1] [0:4] [10.000024984316855:39.999784514037742] [-0.079503743564831322:0.087583742010979612] [0:1] [0:1]
tree_sizes=2583 2070 2381 3489 3507 4058 4125 3864 4139

Tree=0
num_leaves=23
num_cat=0
split_feature=2 0 2 0 6 4 12 0 11 2 3 4 0 0 0 0 0 0 0 0 0 1
split_gain=35538 4927.15 36.024 57.2644 4.65555 5.66047 2.27587 0.365805 0.409618 0.126143 0.537763 0.179351 3.63798e-12 1.81899e-12 4.54747e-13 2.27374e-13 2.27374e-13 1.13687e-13 1.13687e-13 1.42109e-14 7.10543e-15 7.10543e-15
threshold=0.20031360382438365 25.318895401574419 0.15155421844398512 15.158687690141271 2.6881564376621609 67.404702237762194 19.042906816291225 15.018252106191682 1.5000000000000002 0.14878591902975727 0.045061282643108637 89.448506821446372 19.865703304944869 23.718193217929137 14.232635075652846 17.77007864821006 78.472944292515862 24.805176820437325 19.445803427269997 19.734741691086743 79.000987203581019 58.101430242043541
decision_type=2 2 2 2 2 2 2 2 2 2 2 2 2 2 2 2 2 2 2 2 2 2
left_child=1 2 9 7 6 -6 -5 14 -9 13 11 -11 15 -1 -4 -2 -3 -15 -17 -20 -18 -21
right_child=12 16 3 4 5 -7 -8 8 -10 10 -12 -13 -14 17 -16 18 20 -19 19 21 -22 -23
leaf_value=0.074503884576187313 -0.12553219012033079 -0.12553219012033079 0.074503884576187313 0.049833564416658038 0.030728417260276416 0.059636901702736167 0.057122493452843467 0.054978625264233361 0.074503884576187313 0.074503884576187313 0.058240037351729113 0.064754207417553777 -0.12553219012033079 0.074503884576187313 0.074503884576187313 -0.12553219012033079 -0.12553219012033082 0.074503884576187313 -0.12553219012033079 -0.12553219012033076 -0.12553219012033079 -0.12553219012033079
leaf_weight=3652.3961789906025 206.2128122895956 323.94158148765564 662.43811190128326 152.00451855361462 45.687692135572433 26.905258327722549 362.45661741495132 5.1215710937976819 5.6486970782279968 58.797801405191422 6.1486069262027732 5.1283751279115668 4427.2016136646271 172.79877880215645 42.621987044811249 132.72606463730335 5.4990083277225477 32.865146636962891 18.996574223041534 6.7487829476594943 6.2488730996847153 4.9990984797477722
leaf_count=14225 825 1296 2580 594 179 105 1415 20 22 229 24 20 17712 673 166 531 22 128 76 27 25 20
internal_value=-0.0257895 0.0601597 0.0720761 0.0648714 0.0532963 0.0414428 0.0549689 0.0743642 0.0652191 0.0744657 0.0723633 0.0737217 -0.125532 0.0745039 0.0745039 -0.125532 -0.125532 0.0745039 -0.125532 -0.125532 -0.125532 -0.125532
internal_weight=10363.6 5566.71 5231.02 1302.88 587.054 72.593 514.461 715.83 10.7703 3928.13 70.0748 63.9262 4796.88 3858.06 705.06 369.683 335.689 205.664 163.471 30.7445 11.7479 11.7479
internal_count=40914 21723 20380 5081 2293 284 2009 2788 42 15299 273 249 19191 15026 2746 1479 1343 801 654 123 47 47
is_linear=0
shrinkage=1


Tree=1
num_leaves=18
num_cat=0
split_feature=2 0 8 8 2 0 2 13 2 0 6 12 2 0 0 1 4
split_gain=32158.9 4452.86 497.825 14.4977 46.1018 58.3499 0.980969 0.175627 0.0545632 0.0969396 0.00223852 0.000270579 0.000213912 3.63798e-12 2.27374e-13 5.68434e-14 1.42109e-14
threshold=0.20031360382438365 25.318895401574419 0.30035792729220812 0.49985073937577412 0.15380767289555911 15.018252106191682 0.14878591902975727 -0.018427896422578745 0.15155421844398512 15.158687690141271 2.6881564376621609 19.16297168629028 0.14878591902975727 77.959277226962527 78.472944292515862 34.749671885819019 20.538691418590858
decision_type=2 2 2 2 2 2 2 2 2 2 2 2 2 2 2 2 2
left_child=1 2 7 4 6 -6 -4 -1 12 -10 11 -9 -5 -2 -3 16 -15
right_child=13 14 3 8 5 -7 -8 10 9 -11 -12 -13 -14 15 -16 -17 -18
leaf_value=-0.092415004240772258 -0.094101366417226578 -0.094101366417226578 0.0964101950863962 0.0964101950863962 0.0964101950863962 0.044848884587708797 0.085967976699353535 -0.10255481008783773 0.096414898752256603 0.097393733009394107 -0.10169766781805552 -0.10293927212739935 0.096505873635649456 -0.094101366417226578 -0.094101366417226578 -0.094101366417226578 -0.094101366417226578
leaf_weight=5.0032255202531806 4635.2152007222176 322.72692060470581 642.14885330200195 3211.0007157325745 105.65707969665527 114.14967125654221 23.307378739118576 6.4959660768508973 599.06732904911041 437.79047971963882 5.4983755350112906 15.487363278865812 59.500328660011292 7.9685659408569327 11.703831225633619 108.57171094417572 27.14292773604393
leaf_count=20 18614 1296 2504 12521 412 448 91 26 2336 1706 22 62 232 32 47 436 109
internal_value=0.00101354 0.0827729 0.0940937 0.0953144 0.0894867 0.0696335 0.0960445 -0.101031 0.0965121 0.0968282 -0.1026 -0.102826 0.0964119 -0.0941014 -0.0941014 -0.0941014 -0.0941014
internal_weight=10338.4 5559.54 5225.11 5192.62 885.263 219.807 665.456 32.4849 4307.36 1036.86 27.4817 21.9833 3270.5 4778.9 334.431 143.683 35.1115
internal_count=40914 21723 20380 20250 3455 860 2595 130 16795 4042 110 88 12753 19191 1343 577 141
is_linear=0
shrinkage=0.05


Tree=2
num_leaves=21
num_cat=0
split_feature=2 0 2 0 6 4 9 0 9 2 3 4 2 0 2 1 0 1 0 3
split_gain=29237.6 4043.56 30.2588 48.0672 3.95301 4.79553 2.35631 0.294431 0.425402 0.106281 0.496205 0.151243 0.000121255 6.19653e-05 0.000334219 3.63798e-12 1.81899e-12 2.27374e-13 5.68434e-14 2.84217e-14
threshold=0.20031360382438365 25.318895401574419 0.15155421844398512 15.158687690141271 2.6881564376621609 67.404702237762194 0.05770754472327589 15.018252106191682 0.37950477979023822 0.14878591902975727 0.045061282643108637 89.448506821446372 0.15380767289555911 1.1953619423100992 0.02679749845962837 78.603576143742046 23.871436560771986 74.458375089021956 72.864786279438249 0.02106440654017102
decision_type=2 2 2 2 2 2 2 2 2 2 2 2 2 2 2 2 2 2 2 2
left_child=1 2 9 7 6 -6 -5 12 -9 13 11 -11 -4 14 -1 -2 -15 -3 -17 -19
right_child=15 17 3 4 5 -7 -8 8 -10 10 -12 -13 -14 16 -16 18 -18 19 -20 -21
leaf_value=0.092585661533463273 -0.09014064667318554 -0.09014064667318554 0.092241803239344639 0.060037819659694819 0.051853634058872104 0.078519490267393674 0.075023184953943001 0.073329196515303882 0.093281994273541419 0.092205040960450707 0.076569637161127579 0.083224942963032178 0.092144534515887 0.092144704243967188 0.092144704243967188 -0.09014064667318554 0.092144704243967188 -0.09014064667318554 -0.09014064667318554 -0.09014064667318554
leaf_weight=5.1006243526935569 4626.2342436164618 296.16396273672581 33.658313930034637 27.734628036618233 45.552327901124954 26.767956778407097 484.29678289592266 5.0922404825687391 5.6191042065620422 58.387876927852631 6.1140396893024436 5.0980865210294715 666.41016685962677 3614.7790923416615 27.278465539216995 101.76776701211929 183.55602979660034 10.127374872565268 12.350457161664961 25.441941753029823
leaf_count=20 18729 1199 132 109 179 105 1900 20 22 229 24 20 2614 14179 107 412 720 41 50 103
internal_value=0.00096694 0.0791048 0.0899113 0.0832895 0.072666 0.0617235 0.0742115 0.0920233 0.0837963 0.0921101 0.0901738 0.0914839 0.0921492 0.0921453 0.0922142 -0.0901406 0.0921447 -0.0901406 -0.0901406 -0.0901406
internal_weight=10267.5 5527.18 5195.45 1295.13 584.352 72.3203 512.031 710.78 10.7113 3900.31 69.6 63.486 700.068 3830.71 32.3791 4740.35 3798.34 331.733 114.118 35.5693
internal_count=40914 21723 20380 5081 2293 284 2009 2788 42 15299 273 249 2746 15026 127 19191 14899 1343 462 144
is_linear=0
shrinkage=0.05


Tree=3
num_leaves=31
num_cat=0
split_feature=0 8 8 0 8 4 0 3 0 8 4 0 0 0 8 9 11 9 3 13 3 13 13 10 9 3 3 0 9 3
split_gain=22585.4 3996.28 1216.13 1073 108.718 6.08609 7.53331 6.00622 0.697718 1.4308 0.423272 0.159437 0.119208 0.05106 0.0418813 0.107051 0.0116711 0.0302776 0.0127378 0.0101764 0.00703337 0.00526789 0.0100622 0.0069539 0.000930254 1.79562e-05 1.37345e-05 8.09713e-06 7.03405e-06 3.63798e-12
threshold=24.953779470859562 0.30035792729220812 0.49985073937577412 15.018252106191682 0.50957421768230471 70.878969350680663 24.805176820437325 0.010777018616380245 25.318895401574419 0.43144623557023015 79.998194134560904 15.158687690141271 14.848144774500005 15.018252106191682 0.50957421768230471 0.69340348648888894 1.0000000180025095e-35 0.12596571873704895 0.03524653106838635 0.0077253060190341635 0.035398798632004388 0.011715524656276515 0.01385127244294929 1.0000000180025095e-35 0.078215916547635225 0.045061282643108637 0.045521196329975054 12.896509670154666 0.99577065685632538 0.044919218161742346
decision_type=2 2 2 2 2 2 2 2 2 2 2 2 2 2 2 2 2 2 2 2 2 2 2 2 2 2 2 2 2 2
left_child=1 11 3 12 8 6 -5 -7 9 10 19 -1 27 25 15 -15 17 18 -13 -2 -19 23 -23 -18 -16 28 -27 -3 -4 -10
right_child=4 2 13 5 -6 7 -8 -9 29 -11 -12 16 -14 14 24 -17 21 20 -20 -21 -22 22 -24 -25 -26 26 -28 -29 -30 -31
leaf_value=-0.080486021124281715 -0.08668062870820302 0.088444732414351024 0.088435323279841854 -0.010221331288205848 0.088843703407993302 -0.054055780816267954 0.039362353007655865 0.0017731329898868732 -0.086680628708203089 -0.055795541994421528 -0.071675649942319453 -0.092219037625663247 0.081386144430019736 0.088933596762282741 0.088943215755928381 0.080211584961346505 -0.087818752215694351 -0.088378565726088376 -0.088832146832359626 -0.089100470527268327 -0.087318468981167213 -0.089461155649979043 -0.087806174235850978 -0.087259309906376703 0.088802660648691023 0.088483556900669599 0.088445319094350147 0.08846337179391385 0.088484415935104449 -0.086680628708203089
leaf_weight=7.5793614387512198 13.669439196586618 429.87381067872047 2162.6802641451359 505.70777402818203 8.8456842303276044 4.9291924536228171 7.7781675457954398 212.62364184856415 3724.6780839413404 5.4144855737686148 5.3984682559967032 6.4052228182554227 6.0499376803636542 11.628883987665178 126.90353378653526 5.0439283102750769 111.75714439153671 38.428610309958458 4.8996041119098663 6.3690174221992484 26.391833424568176 10.298995286226271 84.859981998801231 110.43721023201942 1626.6144079864025 25.750095874071121 266.80960893630981 67.400571554899216 7.3211641609668723 526.02931194007397
leaf_count=31 56 1703 8568 2038 35 20 31 855 15259 22 22 26 24 46 502 20 457 157 20 26 108 42 347 452 6437 102 1057 267 29 2155
internal_value=0.000926126 0.0646739 0.0758495 0.0321807 -0.0862645 -0.00650072 -0.00947025 0.000508192 -0.0866263 -0.0791342 -0.084102 -0.087669 0.0883624 0.0885843 0.0887891 0.086295 -0.0878074 -0.0883634 -0.0907511 -0.0874498 -0.0879469 -0.087674 -0.0879853 -0.0875407 0.0888128 0.0884371 0.0884487 0.0884473 0.0884355 -0.0866806
internal_weight=10158.6 5868.17 5467.11 1234.36 4290.4 731.039 513.486 217.553 4281.56 30.8514 25.4369 401.058 503.324 4232.75 1770.19 16.6728 393.479 76.1253 11.3048 20.0385 64.8204 317.353 95.159 222.194 1753.52 2462.56 292.56 497.274 2170 4250.71
internal_count=40914 23339 21699 4938 17575 2944 2069 875 17540 126 104 1640 1994 16761 7005 66 1609 311 46 82 265 1298 389 909 6939 9756 1159 1970 8597 17414
is_linear=0
shrinkage=0.05


Tree=4
num_leaves=31
num_cat=0
split_feature=2 0 8 8 2 0 2 0 8 12 2 0 6 4 3 0 0 8 2 4 0 9 8 0 11 9 13 13 0 1
split_gain=24605.3 3382.67 415.91 8.22048 40.4893 44.8874 0.887248 0.465951 0.58032 0.163369 0.109498 0.189751 0.00572328 0.00399569 0.00266408 0.000757637 0.000505849 0.000991459 0.00042698 0.000292747 0.000170658 0.000158859 5.54671e-05 4.38539e-05 7.93474e-06 2.09453e-05 7.43233e-06 5.02296e-06 1.81899e-12 1.42109e-14
threshold=0.20031360382438365 25.318895401574419 0.30035792729220812 0.49985073937577412 0.15380767289555911 15.018252106191682 0.14878591902975727 24.953779470859562 0.30035792729220812 15.791991783729129 0.15155421844398512 15.158687690141271 2.7081100820609412 71.254215191115051 0.012695173189485166 24.667584055498605 25.318895401574419 0.4125131288503967 0.14878591902975727 76.815925622442691 15.158687690141271 0.30186105585405926 0.49516913601168372 15.60013603330632 1.0000000180025095e-35 0.094170404477363537 0.0065602635886478633 0.011715524656276515 79.481666490747401 32.10631064333424
decision_type=2 2 2 2 2 2 2 2 2 2 2 2 2 2 2 2 2 2 2 2 2 2 2 2 2 2 2 2 2 2
left_child=1 2 9 4 6 -6 -4 8 20 -1 18 -12 21 15 -15 22 17 19 -5 26 -2 -11 -10 -16 25 -22 -9 -26 -18 -30
right_child=7 -3 3 10 5 -7 -8 16 13 12 11 -13 -14 14 23 -17 28 -19 -20 -21 24 -23 -24 -25 27 -27 -28 -29 29 -31
leaf_value=-0.087274624802022749 -0.083844036903402031 -0.083635033033748113 0.08655760621028219 0.085176574031725016 0.085185018661780909 0.039547123956301999 0.076522663698477045 -0.08363503303374803 -0.086306965766322769 -0.096897166105003443 0.08518919060110465 0.086576607679949402 -0.095329028304670993 -0.085553022778521629 -0.086899522269717686 -0.086834510345965912 -0.083635033033748113 -0.084501268837245069 0.085313711546545115 -0.084055311190624149 -0.083491839862730788 -0.097197348210183207 -0.086473187424049136 -0.086745727877495835 -0.083606306416230958 -0.083591590493544032 -0.083561875968740304 -0.08359186330875569 -0.083635033033748113 -0.083635033033748113
leaf_weight=5.4993484616279593 7.2215272486209861 322.89506508409977 627.07797077298164 3118.0719302594662 102.60354846715927 113.45402014255524 22.828887596726418 12.502266108989724 251.74930354952812 6.2434093207120958 581.76311545073986 427.55475601553917 5.7356154769659033 4.8561784029006949 4.8858736753463736 7.0821998715400687 3829.5402804613113 4.8315726071596137 57.811420813202858 4.8200175017118445 5.7654307186603537 14.987422734498976 5.1208917349576941 90.340477824211121 205.7720872759819 60.332185506820679 4.8065090477466574 85.090153485536575 6.972417637705802 27.408814162015915
leaf_count=22 30 1343 2504 12521 412 448 91 52 1033 25 2336 1706 23 20 20 29 15928 20 232 20 24 60 21 370 856 251 20 354 29 114
internal_value=0.000890184 0.0732917 0.0832592 0.0844057 0.0799714 0.0612201 0.0862051 -0.0838538 -0.0850146 -0.0951288 0.0853232 0.0857769 -0.0967305 -0.0864263 -0.0866954 -0.0863243 -0.0836365 -0.0838524 0.0851791 -0.0837107 -0.0836034 -0.0971091 -0.0863103 -0.0867536 -0.0835985 -0.0835829 -0.0836147 -0.0836021 -0.083635 -0.083635
internal_weight=10025.6 5406.53 5083.63 5051.17 865.964 216.058 649.907 4619.1 728.216 32.4658 4185.2 1009.32 26.9664 364.035 100.083 263.952 3890.88 26.9604 3175.88 22.1288 364.181 21.2308 256.87 95.2264 356.96 66.0976 17.3088 290.862 3863.92 34.3812
internal_count=40914 21723 20380 20250 3455 860 2595 19191 3008 130 16795 4042 108 1493 410 1083 16183 112 12753 92 1515 85 1054 390 1485 275 72 1210 16071 143
is_linear=0
shrinkage=0.05


Tree=5
num_leaves=36
num_cat=0
split_feature=2 0 8 8 2 0 0 0 8 2 0 4 4 2 0 8 4 0 4 9 8 8 13 1 0 8 11 9 10 13 2 0 0 2 1
split_gain=22660.5 3141.7 352.679 9.8077 42.2007 49.7369 0.605773 0.367641 0.449985 0.0821364 0.14935 0.00336376 0.000760815 0.000562247 0.000413206 0.00051818 0.000399362 0.000333027 0.000253343 0.000176218 8.22876e-05 0.000118117 8.7298e-05 6.49441e-05 4.29277e-05 3.96952e-05 6.91813e-06 1.77243e-05 4.1902e-06 2.97083e-06 1.00891e-06 1.81899e-12 5.68434e-14 5.68434e-14 2.84217e-14
threshold=0.20031360382438365 25.318895401574419 0.29746329161625429 0.49985073937577412 0.14878591902975727 15.018252106191682 15.018252106191682 24.953779470859562 0.30035792729220812 0.15155421844398512 15.158687690141271 71.254215191115051 62.339589596147277 0.14878591902975727 25.318895401574419 0.39978908763361121 24.397180302592741 24.667584055498605 75.609260411456631 0.56194779861643107 0.42202724288846416 0.39719476897264816 0.016962796014617278 46.330068541427018 15.313574795375088 0.49516913601168372 1.0000000180025095e-35 0.12596571873704895 1.0000000180025095e-35 0.0061270622695388651 0.47041919759908124 77.44835440855887 79.000987203581019 0.49581060680077244 43.003331167653563
decision_type=2 2 2 2 2 2 2 2 2 2 2 2 2 2 2 2 2 2 2 2 2 2 2 2 2 2 2 2 2 2 2 2 2 2 2
left_child=1 2 12 4 6 -6 -4 8 24 13 -11 17 16 -5 15 18 -1 25 29 -18 21 -13 -22 -14 30 -10 27 -26 -28 -9 -2 -16 33 -33 -34
right_child=7 -3 3 9 5 -7 -8 14 11 10 -12 20 23 -15 31 -17 19 -19 -20 -21 22 -23 -24 -25 26 -27 28 -29 -30 -31 -32 32 34 -35 -36
leaf_value=-0.092643858717939218 -0.081028207676508202 -0.080936387881547708 0.082283253143961677 0.082304345668533341 0.082439800085163967 0.03722902238278996 0.085496176832480286 -0.080936387881547639 -0.083307999342269137 0.082315810877797033 0.083548145141145891 -0.083659441679590496 -0.092759118408234351 0.08246133690541968 -0.080936387881547708 -0.081598605929098816 -0.091987504668478492 -0.083667457451954377 -0.081341983724463746 -0.092368257730579634 -0.083679577954242856 -0.083487796512369733 -0.083866106097336024 -0.09301471266241236 -0.080814264907755062 -0.083435662231487254 -0.0809010537432754 -0.080898327989125607 -0.080913231022059981 -0.080888379384125589 -0.080995534152017559 -0.080936387881547708 -0.080936387881547708 -0.080936387881547708 -0.080936387881547708
leaf_weight=7.2036862224340501 4.7258765399456006 320.90127637982368 360.46500462293625 3081.7613244950771 117.15238958597183 126.53841310739517 247.3933921456337 9.2090874016284996 246.92147636413574 595.23397620022297 418.87628184258938 50.73654679954052 4.9694802314043027 58.107094526290894 3624.8384795486927 4.9826777726411811 6.2017571777105314 6.7322668731212607 4.7368896454572669 5.9583391398191452 29.820552289485931 12.490127265453337 7.9436483830213538 4.9716966599225998 7.0772827565670005 6.2429834306240073 140.45975367724895 55.002414554357529 142.12542596459389 4.95692054927349 4.7247097790241241 51.948698163032532 26.210479527711868 52.420959055423737 41.086697638034821
leaf_count=29 20 1359 1472 12582 478 502 992 39 1029 2430 1697 211 20 237 15351 21 25 28 20 24 124 52 33 20 30 26 595 233 602 21 20 220 111 222 174
internal_value=0.00110766 0.070751 0.080419 0.0814315 0.0765433 0.0589637 0.0835909 -0.0811324 -0.082173 0.0824336 0.0828248 -0.0834155 -0.0925314 0.0823073 -0.0809377 -0.081145 -0.0923488 -0.0833204 -0.0810254 -0.0921741 -0.0836604 -0.0836255 -0.0837188 -0.0928869 -0.0809067 -0.0833111 -0.0809039 -0.0808887 -0.0809072 -0.0809196 -0.0810119 -0.0809364 -0.0809364 -0.0809364 -0.0809364
internal_weight=9891.13 5355.73 5034.83 5005.53 851.549 243.691 607.858 4535.39 715.003 4153.98 1014.11 360.888 29.305 3139.87 3820.39 23.8856 19.3638 259.897 18.9029 12.1601 100.991 63.2267 37.7642 9.94118 354.115 253.164 344.665 62.0797 282.585 14.166 9.45059 3796.51 171.667 104.37 67.2972
internal_count=41049 21867 20508 20390 3444 980 2464 19182 3003 16946 4127 1503 118 12819 16179 101 78 1083 80 49 420 263 157 40 1500 1055 1460 263 1197 60 40 16078 727 442 285
is_linear=0
shrinkage=0.05


Tree=6
num_leaves=37
num_cat=0
split_feature=2 0 2 0 5 6 9 0 2 13 3 0 2 0 4 6 3 0 5 0 12 6 1 9 5 13 0 9 0 4 2 5 12 0 0 1
split_gain=20877.1 2891.92 23.5624 37.1563 2.95375 4.00591 2.54133 0.287187 0.255188 0.597662 0.410179 0.188685 0.484697 0.0719208 0.00288645 0.00182349 0.00127234 0.000918462 0.00115474 0.000866534 0.000855958 0.000705788 0.000731805 0.000640423 0.000448828 0.000380658 0.000378646 0.000353619 0.000323374 0.000176922 8.60538e-05 2.18997e-05 1.81899e-12 1.13687e-13 1.13687e-13 7.10543e-15
threshold=0.20031360382438365 25.318895401574419 0.15155421844398512 15.158687690141271 0.9475012468525037 2.6881564376621609 0.90888345977029317 24.953779470859562 0.14878591902975727 -0.021251424850883553 0.045061282643108637 15.018252106191682 0.17681029523902461 15.018252106191682 74.457309174255485 2.8335741379931982 0.011257861818338951 24.548247849848629 1.03848884452894 24.548247849848629 30.33125282544643 2.1910070018069736 78.402671990567669 0.88328030236220345 0.90777866867946455 -0.00019815225557126285 1.1953619423100992 0.48624700727462161 25.318895401574419 79.998194134560904 0.53111742245581284 1.0322700259605362 25.161366014418515 77.959277226962527 75.447567839835401 34.2564779986376
decision_type=2 2 2 2 2 2 2 2 2 2 2 2 2 2 2 2 2 2 2 2 2 2 2 2 2 2 2 2 2 2 2 2 2 2 2 2
left_child=1 2 8 11 6 -6 -5 14 13 -10 -11 24 -13 26 17 16 -16 21 27 -18 -15 22 -2 -23 -4 -17 -1 -19 29 30 31 -9 -30 34 -3 -36
right_child=7 33 3 4 5 -7 -8 28 9 10 -12 12 -14 20 15 25 19 18 -20 -21 -22 23 -24 -25 -26 -27 -28 -29 32 -31 -32 -33 -34 -35 35 -37
leaf_value=0.079931764686091422 -0.079593737849880164 -0.078531159265683992 0.079970256982058202 0.070696821008338545 0.062108959978995737 0.047404500913324162 0.0465693886787601 -0.078509757873577515 0.06459432944286729 0.080159819909355889 0.067309623489426498 0.082534569480440079 0.061370441743375762 0.080230514581031184 -0.079043190505436803 -0.080755656690105135 -0.079774926988311734 -0.080534572527946324 -0.079300893751858503 -0.08043318907866516 0.080149728804351228 -0.079443373891332603 -0.080065116021322699 -0.079750917485116077 0.079761084743989769 -0.080170435026314574 0.079750106405133733 -0.07998481604014368 -0.078531159265683992 -0.078977704086482747 -0.078791148039216205 -0.078649250471673982 -0.078531159265683992 -0.078531159265683992 -0.078531159265683992 -0.078531159265683992
leaf_weight=29.0860855281353 339.19307446479797 286.60033965110779 26.686253696680069 127.94719968736172 365.75162692368031 53.033172696828842 11.93163065612316 7.1693159490823799 8.6762923151254636 52.523799777030945 7.0427076220512381 6.1057466566562635 4.8574368208646774 1025.8641234636307 5.8093089312314978 4.9507342129945755 149.84466111660004 4.7067544013261813 5.1226976215839377 5.1720799058675757 481.91554601490498 144.78087098896503 8.4385635405778867 19.168697789311409 657.6195877045393 6.3332465142011625 2082.9504335969687 7.7272107005119324 1847.2883877754211 5.1102753430604926 6.4922808706760398 4.6313116401433945 1871.8078680038452 12.028424263000487 4.857632875442504 10.871845006942747
leaf_count=121 1453 1239 111 524 1497 216 49 31 36 218 29 25 20 4255 25 21 641 20 22 22 2000 621 36 82 2737 27 8670 33 7986 22 28 20 8092 52 21 47
internal_value=0.001072 0.068517 0.0778707 0.0719498 0.062348 0.0602468 0.0686388 -0.0787063 0.0798838 0.0768547 0.0786405 0.079665 0.0731574 0.0799409 -0.0796349 -0.0798128 -0.0797697 -0.0795771 -0.0799326 -0.0797969 0.0802047 -0.0795648 -0.0796052 -0.0794793 0.0797692 -0.0804272 0.0797526 -0.0801929 -0.0785323 -0.0787176 -0.0786449 -0.0785645 -0.0785312 -0.0785312 -0.0785312 -0.0785312
internal_weight=9700.1 5256.35 4941.99 1253.93 558.664 418.785 139.879 4443.75 3688.06 68.2428 59.5665 695.269 10.9632 3619.82 701.248 172.11 160.826 529.138 17.5567 155.017 1507.78 511.581 347.632 163.95 684.306 11.284 2112.04 12.434 3742.5 23.4032 18.2929 11.8006 3719.1 314.358 302.33 15.7295
internal_count=41049 21867 20508 5179 2286 1713 573 19182 15329 283 247 2893 45 15046 3003 736 688 2267 75 663 6255 2192 1489 703 2848 48 8791 53 16179 101 79 51 16078 1359 1307 68
is_linear=0
shrinkage=0.05


Tree=7
num_leaves=35
num_cat=0
split_feature=0 0 10 0 11 15 1 3 0 13 6 6 12 12 12 3 12 12 1 12 15 13 0 3 1 0 5 5 12 3 6 9 11 1
split_gain=16245.2 972.517 35.4182 26.8948 6.19717 4.93574 3.97679 3.70515 4.1737 4.71824 4.05702 3.53836 2.85715 3.48446 3.05676 2.399 2.35309 1.89014 3.38001 2.47151 1.51748 1.49424 0.215926 0.450844 0.752844 0.000229582 0.00176479 8.31194e-05 0.0020303 3.49685e-05 6.79724e-06 1.93162e-06 5.33975e-07 1.81899e-12
threshold=24.953779470859562 15.018252106191682 1.0000000180025095e-35 25.318895401574419 3.5000000000000004 1.0000000180025095e-35 77.769713604943064 0.015857705849203204 24.667584055498605 -0.0080383460116192802 0.82940196706919578 0.56969136204623194 27.150634259103978 28.789438445114687 20.578367561907424 0.043504989136997456 25.763287445530885 35.771197154055876 25.532139185398517 30.33125282544643 1.0000000180025095e-35 -1.0000000180025095e-35 14.848144774500005 0.036645115670144356 56.447078490041783 1.1953619423100992 0.92602075116171889 0.90777866867946455 38.378000348063686 0.045061282643108637 0.91120649399508358 0.74470950021041349 1.5000000000000002 50.60774416341787
decision_type=2 2 2 2 2 2 2 2 2 2 2 2 2 2 2 2 2 2 2 2 2 2 2 2 2 2 2 2 2 2 2 2 2 2
left_child=1 22 7 4 16 6 11 12 10 -10 -9 -4 14 -14 -3 -8 21 19 -19 -7 -18 -2 25 31 -25 26 -1 28 -27 -29 -28 32 -24 -5
right_child=3 2 5 33 -6 17 15 8 9 -11 -12 -13 13 -15 -16 -17 20 18 -20 -21 -22 -23 23 24 -26 27 30 29 -30 -31 -32 -33 -34 -35
leaf_value=0.078506291976253445 -0.077254894581639796 0.037839892704313149 0.055855670324771435 -0.076376293424363417 0.0046563682774426593 0.043752543948267934 0.060213622695357932 0.035487089314115816 0.018862312158011395 0.060208357617415165 0.025752596935679658 0.03617801631347297 0.070650013814852072 0.038737884083858184 0.020054380136779276 0.023143144816506582 -0.048774959371634986 0.024529986318522639 0.052524112110939172 0.036522422391501733 -0.012763638182472913 -0.044390661810617744 0.077498886836172273 0.077487192277616745 0.052853560783556144 0.077471879170753252 0.077530311779904881 0.077474109634094721 0.07850918617674546 0.077491810387283228 0.077465542583480929 0.077516396609212515 0.077480385587253509 -0.076376293424363417
leaf_weight=4.7228215038776389 5.9147497564554206 54.850576713681221 23.571227893233299 1971.8900384902954 8.5785222798585874 527.52098551392555 28.071671470999718 122.88704173266888 10.581342637538912 19.833171725273132 829.67824845016003 741.69093844294548 9.9066547602415067 62.642459779977798 43.174002885818481 5.1677038222551337 5.0652141422033292 12.181679949164389 93.884586900472641 152.32957246899605 6.9247581958770752 8.329403370618822 6.3492294102907243 6.5835782140493375 5.8644379079341888 97.092069804668427 4.7045171111822119 2281.1290037930012 4.9581135064363471 317.90404269099236 29.149198234081268 8.9375972449779493 10.109771952033041 1970.3074622154236
leaf_count=20 26 233 100 8722 37 2241 119 523 45 84 3535 3155 42 266 184 22 22 52 398 648 30 36 27 28 25 413 20 9703 21 1352 124 38 43 8715
internal_value=0.00103934 0.0565823 0.0354358 -0.0759899 -0.032235 0.0402881 0.0375195 0.028771 0.0275906 0.0458239 0.0270084 0.0367841 0.0355735 0.0430955 0.0300064 0.0544503 -0.0442985 0.0431011 0.049309 0.0421325 -0.0279768 -0.0580372 0.0774279 0.073677 0.0658819 0.0774797 0.0776009 0.077478 0.0775223 0.0774763 0.0774745 0.0774977 0.0774875 -0.0763763
internal_weight=9492.49 5515.48 2737.97 3977.01 34.8126 1584.42 798.502 1153.55 982.98 30.4145 952.565 765.262 170.574 72.5491 98.0246 33.2394 26.2341 785.917 106.066 679.851 11.99 14.2442 2777.5 37.8446 12.448 2739.66 38.5765 2701.08 102.05 2599.03 33.8537 25.3966 16.459 3942.2
internal_count=41049 23461 11647 17588 151 6735 3396 4912 4187 129 4058 3255 725 308 417 141 114 3339 450 2889 52 62 11814 161 53 11653 164 11489 434 11055 144 108 70 17437
is_linear=0
shrinkage=0.05


Tree=8
num_leaves=37
num_cat=0
split_feature=2 0 2 0 10 5 0 5 0 2 1 0 3 12 2 0 10 0 10 15 5 3 12 12 13 0 1 2 12 1 0 3 1 1 0 2
split_gain=18176 2481.75 23.8168 32.9808 4.75644 3.97094 3.46305 3.17898 0.607646 0.46682 0.567267 0.141014 0.469601 0.0414895 0.16261 0.0421033 0.0131491 0.0111328 0.00779983 0.00144933 0.00128954 0.000956533 0.000866877 0.000864308 0.000905696 0.000854557 0.000781651 0.000717076 0.000653203 0.000735829 0.00065261 0.000312003 0.000260955 9.09495e-13 1.13687e-13 5.68434e-14
threshold=0.20031360382438365 25.318895401574419 0.15155421844398512 15.158687690141271 1.0000000180025095e-35 0.92524318487072466 24.953779470859562 0.90320137566813707 15.452849730124322 0.14878591902975727 55.0616470441906 15.018252106191682 0.029998657641967727 10.352729739491609 0.11515349863060843 15.018252106191682 1.0000000180025095e-35 25.318895401574419 1.0000000180025095e-35 1.0000000180025095e-35 1.0432407023479391 0.02434556497874352 36.73747737937807 26.688909332049672 -0.006721247449590813 24.667584055498605 24.361487057470608 0.47521679462422328 39.188006720177476 63.950300547738067 21.915756568111863 0.011751709291826135 47.03926450747651 76.54584067303513 78.472944292515862 0.76900708117167582
decision_type=2 2 2 2 2 2 2 2 2 2 2 2 2 2 2 2 2 2 2 2 2 2 2 2 2 2 2 2 2 2 2 2 2 2 2 2
left_child=1 2 8 11 5 -5 18 -6 13 16 -11 31 -13 14 -1 -15 -10 23 25 21 27 22 -20 24 -8 28 -23 -21 29 -2 -22 -4 -30 -19 -3 -35
right_child=6 34 3 4 7 -7 17 -9 9 10 -12 12 -14 15 -16 -17 -18 33 19 20 30 26 -24 -25 -26 -27 -28 -29 32 -31 -32 -33 -34 35 -36 -37
leaf_value=0.075451069557516737 -0.078181293937391066 -0.074436778670103398 0.075601916922783161 0.070127153054173108 0.024084745903910382 0.050625283157176897 -0.07480893031755019 0.063328658094921872 0.077089989627851893 0.062311521902799843 0.07741017585989278 0.057908357080473177 0.079009979582823117 0.075430312568499358 0.064926788565039043 0.076772407283559163 0.076777017210289927 -0.074436778670103398 -0.078168806269147129 -0.078537782568821671 -0.07822105802854018 -0.077967871738245514 -0.078757457154460114 -0.075938443833355573 -0.075634729530441022 -0.078682383681288645 -0.078491637354584518 -0.078781465215924038 -0.077448638614826884 -0.078010436185885657 -0.078643799233473546 0.075432078731426544 -0.077954759853717637 -0.074436778670103398 -0.074436778670103398 -0.074436778670103398
leaf_weight=18.139528825879101 230.61984284222126 290.19818818569183 28.26302433013916 30.106794685125351 5.2462626546621314 196.25108759105206 5.5397870838642111 315.30065122246742 557.39040422439575 12.226670280098917 12.664494961500166 4.7391922771930677 5.9426194727420807 2035.4572323560715 4.6013379096984854 60.164522379636765 843.42667344212532 3331.5457652807236 62.430269047617912 58.955073535442352 30.886486977338791 7.587306320667266 6.9506772160530081 8.7690670639276487 8.287214398384096 6.9442841857671729 116.46817871928215 61.873467177152634 4.5747615844011289 86.707947015762329 12.960261911153792 625.56018793582916 5.7452525794506073 203.9766900241375 9.4821596443653089 9.9231903254985792
leaf_count=79 1001 1316 123 126 22 817 25 1321 2382 52 54 20 25 8867 20 258 3617 15108 271 255 134 33 30 39 37 30 504 267 20 377 56 2725 25 925 43 45
internal_value=0.00100127 0.0651196 0.0739141 0.0678618 0.058768 0.0532191 -0.0750719 0.0626864 0.0759829 0.0767809 0.0699936 0.0753463 0.0696478 0.0754458 0.0733216 0.0754688 0.0769016 -0.0744438 -0.0783071 -0.0784693 -0.0785783 -0.0783765 -0.0782278 -0.0755501 -0.0753039 -0.0781335 -0.0784596 -0.0786626 -0.0781219 -0.0781346 -0.078346 0.0754394 -0.0777304 -0.0744368 -0.0744368 -0.0744368
internal_weight=9315.91 5055.16 4755.48 1211.41 546.905 226.358 4260.75 320.547 3544.07 1425.71 24.8912 664.505 10.6818 2118.36 22.7409 2095.62 1400.82 3568.04 692.704 358.112 164.675 193.436 69.3809 22.5961 13.827 334.592 124.055 120.829 327.648 317.328 43.8467 653.823 10.32 3545.45 299.68 213.9
internal_count=41049 21867 20508 5179 2286 943 19182 1343 15329 6105 106 2893 45 9224 99 9125 5999 16179 3003 1550 712 838 301 101 62 1453 537 522 1423 1378 190 2848 45 16078 1359 970
is_linear=0
shrinkage=0.05


end of trees

feature_importances:
rsi_2=77
ibs=35
atr_pct=19
sweep_strength=19
rsi_14=18
vix=16
bb_percentile=15
don_position=14
spy_ret_5d=13
volume_ratio=10
sma_20_200_ratio=9
near_20d_low=6
down_streak=6
regime_bear=3

parameters:
[boosting: gbdt]
[objective: binary]
[metric: binary_logloss,auc]
[tree_learner: serial]
[device_type: cpu]
[data_sample_strategy: bagging]
[data: ]
[valid: ]
[num_iterations: 500]
[learning_rate: 0.05]
[num_leaves: 63]
[num_threads: 0]
[seed: 42]
[deterministic: 0]
[force_col_wise: 0]
[force_row_wise: 0]
[histogram_pool_size: -1]
[max_depth: 6]
[min_data_in_leaf: 20]
[min_sum_hessian_in_leaf: 0.001]
[bagging_fraction: 0.8]
[pos_bagging_fraction: 1]
[neg_bagging_fraction: 1]
[bagging_freq: 5]
[bagging_seed: 400]
[bagging_by_query: 0]
[feature_fraction: 0.8]
[feature_fraction_bynode: 1]
[feature_fraction_seed: 30056]
[extra_trees: 0]
[extra_seed: 12879]
[early_stopping_round: 0]
[early_stopping_min_delta: 0]
[first_metric_only: 0]
[max_delta_step: 0]
[lambda_l1: 0]
[lambda_l2: 0]
[linear_lambda: 0]
[min_gain_to_split: 0]
[drop_rate: 0.1]
[max_drop: 50]
[skip_drop: 0.5]
[xgboost_dart_mode: 0]
[uniform_drop: 0]
[drop_seed: 17869]
[top_rate: 0.2]
[other_rate: 0.1]
[min_data_per_group: 100]
[max_cat_threshold: 32]
[cat_l2: 10]
[cat_smooth: 10]
[max_cat_to_onehot: 4]
[top_k: 20]
[monotone_constraints: ]
[monotone_constraints_method: basic]
[monotone_penalty: 0]
[feature_contri: ]
[forcedsplits_filename: ]
[refit_decay_rate: 0.9]
[cegb_tradeoff: 1]
[cegb_penalty_split: 0]
[cegb_penalty_feature_lazy: ]
[cegb_penalty_feature_coupled: ]
[path_smooth: 0]
[interaction_constraints: ]
[verbosity: -1]
[saved_feature_importance_type: 0]
[use_quantized_grad: 0]
[num_grad_quant_bins: 4]
[quant_train_renew_leaf: 0]
[stochastic_rounding: 1]
[linear_tree: 0]
[max_bin: 255]
[max_bin_by_feature: ]
[min_data_in_bin: 3]
[bin_construct_sample_cnt: 200000]
[data_random_seed: 175]
[is_enable_sparse: 1]
[enable_bundle: 1]
[use_missing: 1]
[zero_as_missing: 0]
[feature_pre_filter: 1]
[pre_partition: 0]
[two_round: 0]
[header: 0]
[label_column: ]
[weight_column: ]
[group_column: ]
[ignore_column: ]
[categorical_feature: ]
[forcedbins_filename: ]
[precise_float_parser: 0]
[parser_config_file: ]
[objective_seed: 16083]
[num_class: 1]
[is_unbalance: 0]
[scale_pos_weight: 1.02722]
[sigmoid: 1]
[boost_from_average: 1]
[reg_sqrt: 0]
[alpha: 0.9]
[fair_c: 1]
[poisson_max_delta_step: 0.7]
[tweedie_variance_power: 1.5]
[lambdarank_truncation_level: 30]
[lambdarank_norm: 1]
[label_gain: ]
[lambdarank_position_bias_regularization: 0]
[eval_at: ]
[multi_error_top_k: 1]
[auc_mu_weights: ]
[num_machines: 1]
[local_listen_port: 12400]
[time_out: 120]
[machine_list_filename: ]
[machines: ]
[gpu_platform_id: -1]
[gpu_device_id: -1]
[gpu_use_dp: 0]
[num_gpu: 1]

end of parameters

pandas_categorical:null
