tree
version=v4
num_class=1
num_tree_per_iteration=1
label_index=0
max_feature_idx=83
objective=binary sigmoid:1
feature_names=rsi_2 rsi_7 roc_5 roc_10 atr_7 natr_7 sma_10 sma_10_dist ema_9 ema_21 ema_50 obv vol_sma_10 vol_ratio_10 return_1d return_2d return_3d return_5d return_10d ibs gap_pct gap_filled inside_bar outside_bar higher_high lower_low hh_streak ll_streak body_pct upper_shadow_pct lower_shadow_pct bullish_candle dist_from_5d_high dist_from_5d_low dist_from_10d_high dist_from_10d_low close_lag1 close_lag2 close_lag5 close_lag10 volume_lag1 volume_lag2 volume_lag5 volume_lag10 return_1d_lag1 return_1d_lag2 return_1d_lag5 return_lag1 return_lag2 return_lag5 return_mean_5d return_std_5d return_skew_5d return_mean_10d return_std_10d return_skew_10d volume_vs_avg_10d day_of_week is_day_0 is_day_1 is_day_2 is_day_3 is_day_4 is_monday is_friday month is_january is_may_to_oct quarter is_quarter_end_month day_of_month is_month_end is_month_start day_sin day_cos month_sin month_cos amihud_illiq_5d amihud_illiq_10d kyle_lambda_approx volume_turnover_5d price_impact_ratio cs_spread relative_spread
feature_infos=[0.62553706350746552:95.155770254173575] [15.552657442079905:82.547016256132792] [-16.135821582066679:3.6397916265421548] [-18.113478799586968:8.7702790153127772] [0.082591734368068936:13.052031281977495] [0.47495350231694966:7.7892085151738764] [5.337964344024658:100] [-12.174929898480503:4.9352292999521854] [5.2826234516889921:100] [5.2546993649678235:100] [5.1898759132527266:100] [-100:100] none [0.31653102583073311:2.5279542897024054] [-0.049634400042261606:0.080383432196628579] [-0.050269939043843914:0.094917762769627601] [-0.13454944505311683:0.06435447541177064] [-0.16135821582066678:0.036397916265421548] [-0.18113478799586968:0.087702790153127763] [0.013513826993114883:1] [-0.027874874557168729:0.044284888726750703] [0:1] [0:1] [0:1] [0:1] [0:1] [0:3] [0:6] [0:0.98113519894052503] [0:0.83198576175592232] [0:0.8936169522009999] [0:1] [-0.20534229502658657:-0.00040129725730712862] [0.00017009734162705699:0.10853238154596843] [-0.24666148191012138:-0.00040129725730712862] [0.00017009734162705699:0.10853238154596843] [5.2559561729431152:100] [5.2000432014465332:100] [5.3864245414733887:100] [5.3118696212768564:100] none none none none [-0.044433134271619101:0.050677381506087693] [-0.13725822124209164:-0.00025473947442522515] [-0.058189284710690958:0.039211859032197482] [-0.044433134271619101:0.050677381506087693] [-0.13725822124209164:-0.00025473947442522515] [-0.058189284710690958:0.039211859032197482] [-0.033052389672077596:0.0075812123544531044] [0.0030441240235827703:0.059221340108404727] [-2.0980531441379848:2.1321766484038025] [-0.018774335915611239:0.0086783979643709538] [0.0040653240649694711:0.051057884721438025] [-2.8428647548824681:2.6491352660505454] [0.31653102583073311:2.5279542897024054] [0:4] [0:1] [0:1] [0:1] [0:1] [0:1] [0:1] [0:1] [1:12] [0:1] [0:1] [1:4] [0:1] [1:30] none [0:1] [-0.95105651629515364:0.95105651629515353] [-0.80901699437494734:1] [-1:1] [-1:1] [2.5549402897523728e-07:0.23467890563994409] [2.6188363967663303e-07:0.18309082013186145] [2.9220755878729158e-07:0.00045294242487637113] [3.1413515333008335:8.5353975495975796] [0.0043746459706544786:100] [0:0.053333282470703354] [0.0039132989696719599:0.08791812206697952]
tree_sizes=3246 3216 3241 3352 3253 2817 3778 3680 3047 2709 2176 3243 3153 2629 3160 2700 2508 2610 2607 2406 2197 1963 1971 2187 2413

Tree=0
num_leaves=29
num_cat=0
split_feature=82 46 79 79 17 65 5 79 46 5 34 17 30 1 4 46 0 83 4 82 4 0 14 0 1 0 0 0
split_gain=44.8348 14.1449 13.9422 14.1064 13.1511 8.49619 8.26596 7.92591 7.76792 7.24777 9.74241 5.39676 3.90326 3.79042 3.75059 3.3698 1.77771 1.72108 1.24092 1.09374 0.892349 0.782334 0.641944 0.480981 0.294744 0.159836 0.12474 0.108268
threshold=0.011227649123032656 -0.0027750297850728796 7.7417177176483704e-06 8.3183764415101794e-05 -0.033854011984421055 6.5000000000000009 2.6485319133010057 1.008122434162263e-05 -0.00075185268081273671 1.4884471920909845 -0.018934535201622211 -0.03651161837429711 0.12097480376007654 42.437992679162043 0.59620940177805715 0.0010831981383224722 4.8839842679125463 0.039169366982913068 0.80086719206564549 0.016774638344698535 0.68066608430892572 66.883124764740515 0.0055848931690786205 63.087639479912774 43.818307664258896 40.254174310173475 56.5124361804017 74.907495168031048
decision_type=2 2 2 2 2 2 2 2 2 2 2 2 2 2 2 2 2 2 2 2 2 2 2 2 2 2 2 2
left_child=2 13 6 4 11 7 9 -6 -3 15 12 16 -11 -2 -7 20 -4 19 -8 24 -1 -5 -17 -19 -10 -15 -13 -21
right_child=1 8 3 21 5 14 18 -9 17 10 -12 26 -14 25 -16 22 -18 23 -20 27 -22 -23 -24 -25 -26 -27 -28 -29
leaf_value=-0.056198525588914555 -0.10392276189412339 0.0079169078515724869 -0.026454779993704401 -0.071013548742680399 -0.016666522057886091 -0.090745198396380386 -0.058509143445001389 -0.032099800675622597 -0.05936510683215266 -0.063921239035707608 0.0054502376431092153 0.0084471667515644971 -0.035234739020154338 -0.076700339171773421 -0.046739700220013503 -0.043697007882526895 -0.013018258163449932 -0.031144198270848682 -0.082078417776285634 -0.047781436790627567 -0.074900010775885456 -0.054667347084409665 -0.030245994062563432 -0.046381552088732306 -0.068138399552518963 -0.070125298205066022 0.016895378272742671 -0.053076678124529958
leaf_weight=40.092524647712708 14.332867562770842 5.3949426412582389 34.452360153198242 11.89254289865494 106.62035849690437 6.8062603175640133 15.979194670915605 378.56469517946243 37.025087803602219 12.162034720182417 14.636421412229536 13.617206484079363 474.38579669594765 19.967925846576691 16.777878075838089 36.373285293579102 86.226267874240875 7.3942042589187649 8.5849904119968397 19.316123336553574 7.5853596031665793 19.036839455366135 11.730763733386992 17.287485539913177 12.911757826805113 17.209149062633514 6.4337416887283316 19.296539217233658
leaf_count=158 57 21 135 47 417 27 63 1485 146 48 57 53 1862 79 66 143 337 29 34 76 30 75 46 68 51 68 25 76
internal_value=-0.0360614 -0.0601999 -0.0329071 -0.027962 -0.0263909 -0.0301329 -0.0383208 -0.0287083 -0.0506999 -0.0371512 -0.0347427 -0.0128631 -0.0359518 -0.0820784 -0.0594395 -0.0497536 -0.0168542 -0.0534927 -0.0667464 -0.0567472 -0.0591739 -0.0609526 -0.0404168 -0.0418167 -0.0616335 -0.0736568 0.0111579 -0.0504277
internal_weight=1472.09 170.136 1301.96 680.428 649.499 508.769 621.53 485.185 118.626 596.966 501.184 140.73 486.548 51.5099 23.5841 95.7819 120.679 113.231 24.5642 88.5495 47.6779 30.9294 48.104 24.6817 49.9368 37.1771 20.0509 38.6127
internal_count=5779 671 5108 2667 2545 1995 2441 1902 467 2344 1967 550 1910 204 93 377 472 446 97 349 188 122 189 97 197 147 78 152
is_linear=0
shrinkage=1


Tree=1
num_leaves=29
num_cat=0
split_feature=82 46 55 55 4 5 3 6 75 46 75 4 19 2 1 5 83 82 1 33 1 28 1 2 1 1 3 1
split_gain=40.4829 12.7986 12.6037 15.7789 11.198 11.0027 8.84488 9.53009 8.49103 7.01021 5.46378 3.99061 3.81472 6.00053 3.44139 2.01899 1.55471 0.988563 0.718448 0.51492 0.434126 0.344395 0.26661 0.186343 0.14478 0.0978003 0.0412552 0.0116223
threshold=0.011227649123032656 -0.0027750297850728796 0.14812881602053443 0.026360101508540824 0.59839361501214616 3.4552446685570932 2.4509062615672432 69.588404846191409 -0.5 -0.00075185268081273671 -0.24999999999999994 0.45718932767642789 0.55668894201469132 -1.6081177596707628 42.437992679162043 2.3563816898415024 0.039169366982913068 0.016774638344698535 30.192135879123899 0.0082473437115511538 49.110241010387774 0.49566350536072473 43.818307664258896 -2.5708949635283855 43.383754826149207 59.67015295508893 3.3633692468552749 47.017488894309686
decision_type=2 2 2 2 2 2 2 2 2 2 2 2 2 2 2 2 2 2 2 2 2 2 2 2 2 2 2 2
left_child=2 14 3 4 10 18 7 -6 21 -3 -1 -12 19 23 -2 -15 17 22 -5 -10 -18 -4 -11 -14 -16 -19 -8 -7
right_child=1 9 8 5 6 27 26 -9 12 16 11 -13 13 15 24 -17 20 25 -20 -21 -22 -23 -24 -25 -26 -27 -28 -29
leaf_value=-0.059036878959089129 -0.062362086276492638 0.044017743856049778 -0.050877161824520914 0.044521400538223607 0.019333465650146951 0.011426963623904059 -0.017592481632454485 0.0063072241804743474 0.0092802721666491502 -0.019894412913451003 0.0020169859791653272 -0.021361544148871987 -0.022312587706918699 0.010654637735662213 -0.036393441054334091 -0.0011143966741105431 0.0069249730658865992 -0.0088813287978033641 0.059687711172529793 0.024821821114308928 -0.0075509142112888845 -0.034678786378675101 -0.028241483664758895 -0.015176014615213812 -0.030132678982206337 -0.013914753062834854 -0.022155229031278895 0.0094023133074203485
leaf_weight=5.5316586792469016 14.299517959356306 5.3968506753444663 5.7876169085502607 13.621992930769922 185.62107563018799 15.570533573627472 22.824822962284092 576.47773179411888 8.674050986766817 37.006149038672447 44.577086299657822 30.91087594628334 11.145342230796812 43.378959000110626 19.94595131278038 227.85094749927521 7.3951417505741146 19.312232881784439 18.297422543168068 13.822408333420752 17.284572839736938 7.577528715133667 12.901546001434324 51.012795343995094 17.194358080625534 19.290077537298203 6.3274981677532187 13.011132001876831
leaf_count=22 57 21 23 53 726 61 90 2261 34 146 175 122 44 170 79 895 29 76 71 54 68 30 51 201 68 76 25 51
internal_value=0.00225441 -0.020691 0.00525077 0.00834592 0.00663323 0.0330384 0.00844604 0.00947997 -0.00256797 -0.0116561 -0.011071 -0.00755607 -0.00109863 -0.00244334 -0.0415196 0.000767875 -0.0143106 -0.0174049 0.0532153 0.0188294 -0.00321329 -0.0416933 -0.0220522 -0.0164556 -0.033495 -0.0113966 -0.0185828 0.0105053
internal_weight=1472.05 170.026 1302.02 932.772 872.271 60.5011 791.251 762.099 369.25 118.587 81.0196 75.488 355.885 333.388 51.4398 271.23 113.19 88.51 31.9194 22.4965 24.6797 13.3651 49.9077 62.1581 37.1403 38.6023 29.1523 28.5817
internal_count=5779 671 5108 3657 3421 236 3102 2987 1451 467 319 297 1398 1310 204 1065 446 349 124 88 97 53 197 245 147 152 115 112
is_linear=0
shrinkage=0.05


Tree=2
num_leaves=29
num_cat=0
split_feature=82 79 79 46 2 68 5 79 46 5 34 2 55 33 46 70 51 83 68 82 11 0 29 0 2 0 2 0
split_gain=36.5656 11.6342 11.6619 11.601 10.9519 7.02249 6.92391 6.38829 6.33059 6.01189 8.50379 4.53532 3.14183 2.62095 2.5948 2.49419 2.0691 1.40488 1.08616 0.894138 0.74135 0.67413 0.544979 0.391845 0.241493 0.150141 0.131504 0.0883709
threshold=0.011227649123032656 7.7417177176483704e-06 8.3183764415101794e-05 -0.0027750297850728796 -3.3854011984421057 2.5000000000000004 2.6485319133010057 1.008122434162263e-05 -0.00075185268081273671 1.4884471920909845 -0.018934535201622211 -3.651161837429711 0.056594858300796087 0.026789874672836063 0.0010831981383224722 2.5000000000000004 0.024522387048386 0.039169366982913068 1.5000000000000002 0.016774638344698535 1.0000000180025095e-35 66.883124764740515 0.20265409011563104 63.087639479912774 -2.9576832851187222 56.5124361804017 -2.9576832851187222 74.907495168031048
decision_type=2 2 2 2 2 2 2 2 2 2 2 2 2 2 2 2 2 2 2 2 2 2 2 2 2 2 2 2
left_child=1 6 4 12 11 7 9 -6 -5 14 15 16 26 -7 20 -11 -3 19 -8 24 -1 -4 -16 -19 -10 -13 -2 -21
right_child=3 2 21 8 5 13 18 -9 17 10 -12 25 -14 -15 22 -17 -18 23 -20 27 -22 -23 -24 -25 -26 -27 -28 -29
leaf_value=-0.03299884019191051 -0.034634948096051998 0.014309179023387837 -0.029860248733897948 0.041844953931594903 0.019620920908063944 -0.0407454617150406 -0.018287420511459686 0.0057671460309768842 -0.018913047919851076 -0.021215154461529509 0.040853654509476575 0.042324822668748263 -0.059499756401433415 -0.0062634993809971735 0.0071900600614660491 0.0027233537490497146 0.027688946817172717 0.0065780825684987583 -0.040359980410105349 -0.0084392699252700317 -0.015932626124174131 -0.014675381316561384 -0.0052022805933490159 -0.0071747556679852414 -0.026861343908935732 0.051593732197340141 -0.028663700441565184 -0.013224673283328481
leaf_weight=7.5654278844594947 19.911564528942105 72.815187841653824 11.87054878473282 5.3932976424694052 106.65147154033184 8.7986734807491302 15.962878525257112 378.63187371194363 36.98065347969532 11.136015832424162 14.638404488563536 13.612685650587084 14.239501297473906 14.747424110770226 11.733938872814177 475.45088364183903 47.905092686414719 7.3958509266376522 8.5634596645832044 19.307755663990974 40.050327330827713 19.020664393901825 36.37238872051239 17.281301259994507 12.886577337980269 6.4340066611766806 17.172316819429401 19.282025143504143
leaf_count=30 79 285 47 21 417 35 63 1485 146 44 57 53 57 58 46 1866 187 29 34 76 158 75 143 68 51 25 68 76
internal_value=0.00214186 0.00498838 0.00950529 -0.0196777 0.0109327 0.00751794 4.2562e-05 0.00881181 -0.011079 0.00111231 0.0033051 0.0232759 -0.0395357 -0.0191487 -0.0103697 0.0021755 0.0196186 -0.013602 -0.0259941 -0.0165449 -0.0186442 -0.0205105 -0.00217958 -0.00305297 -0.020967 0.0452997 -0.0318699 -0.0108304
internal_weight=1471.81 1301.96 680.488 169.851 649.596 508.829 621.474 485.283 118.527 596.947 501.225 140.767 51.3234 23.5461 95.7221 486.587 120.72 113.134 24.5263 88.457 47.6158 30.8912 48.1063 24.6772 49.8672 20.0467 37.0839 38.5898
internal_count=5779 5108 2667 671 2545 1995 2441 1902 467 2344 1967 550 204 93 377 1910 472 446 97 349 188 122 189 97 197 78 147 152
is_linear=0
shrinkage=0.05


Tree=3
num_leaves=30
num_cat=0
split_feature=82 55 55 49 33 4 53 6 75 49 75 34 77 4 55 4 83 82 4 6 55 2 2 2 20 2 4 2 2
split_gain=33.0369 10.6084 13.4012 10.5314 9.46423 9.21954 7.11737 7.79665 6.97435 5.72008 4.75551 4.22686 4.35264 3.24743 2.88185 2.63464 1.26983 0.809216 0.735633 0.678275 0.639576 0.353689 0.301029 0.243809 0.218998 0.119724 0.0798711 0.0197944 0.0063472
threshold=0.011227649123032656 0.14812881602053443 0.026360101508540824 -0.0027750297850728796 0.038853283903620063 0.59839361501214616 0.0025202818324230555 69.588404846191409 -0.5 -0.00075185268081273671 -0.24999999999999994 -0.032222228211091504 0.0010599391217897792 0.45718932767642789 0.056594858300796087 0.93975757076266009 0.039169366982913068 0.016774638344698535 5.2850698138815053 87.652866363525405 0.40881304624150189 -1.9237504560475569 -1.1294194871691252 1.0000000180025095e-35 0.0019371809321023408 -2.9576832851187222 2.1843232664145047 -0.12402524526051172 -3.1695444975634532
decision_type=2 2 2 2 2 2 2 2 2 2 2 2 2 2 2 2 2 2 2 2 2 2 2 2 2 2 2 2 2
left_child=1 2 5 14 18 10 7 -7 22 -5 -1 12 20 -12 25 19 17 24 -4 -13 -10 -18 -3 -17 -11 -2 -19 -8 -6
right_child=3 8 4 9 28 6 27 -9 11 16 13 15 -14 -15 -16 23 21 26 -20 -21 -22 -23 -24 -25 -26 -27 -28 -29 -30
leaf_value=-0.054945217325045072 -0.03297935504779647 -0.046598407182685736 0.055633619802235926 0.039814761716930061 0.010138234840979313 0.017485054339286522 -0.019101958096212877 0.0057027000543457464 -0.0038570021278062404 -0.025556851985545921 0.0018324330410467431 0.019463760463364954 0.018189433988151212 -0.019268271638463931 -0.05686254659623266 0.0060424296863189593 0.0062487322239474057 -0.012569711871332687 0.040273183374129592 0.004762185900887039 -0.015411256972344087 -0.0068174635081919071 -0.031415732040522767 -0.00022208272278047907 -0.017982847720999215 -0.027276349205913791 -0.0080194170544579443 -0.015936642210227937 0.0086421500007997018
leaf_weight=5.5028065592050543 19.86671149730682 5.7522235214710236 18.275595784187317 5.3850869536399832 15.573256134986877 185.60536941885948 6.3051477372646358 576.54851885139942 14.252003580331801 12.867605209350584 44.57802851498127 24.804498136043549 12.273564159870146 30.855186119675636 14.156967848539351 16.831043243408203 7.396360099315646 19.272646874189377 13.591358095407488 11.474859923124312 75.031527534127235 17.27773654460907 7.5497277528047544 201.1670745909214 36.949662074446678 17.144169151782993 19.302798181772232 22.796937823295593 13.013550996780396
leaf_count=22 79 23 71 21 61 726 25 2261 56 51 175 97 48 122 57 66 29 76 53 45 296 68 30 790 146 68 76 90 51
internal_value=0.00203517 0.00473958 0.00757921 -0.0187204 0.0303448 0.00600127 0.00764538 0.00857203 -0.00243492 -0.010532 -0.0100721 -0.00110611 -0.00972902 -0.00679859 -0.0376765 0.00233784 -0.0129299 -0.0157294 0.0490823 0.0148138 -0.0135669 -0.00290071 -0.0379812 0.000261583 -0.0199392 -0.0303376 -0.0102928 -0.0166224 0.00945717
internal_weight=1471.4 1301.78 932.646 169.62 60.4538 872.192 791.256 762.154 369.137 118.452 80.936 355.835 101.557 75.4332 51.1678 254.277 113.067 88.3927 31.867 36.2794 89.2835 24.6741 13.302 217.998 49.8173 37.0109 38.5754 29.1021 28.5868
internal_count=5779 5108 3657 671 236 3421 3102 2987 1451 467 319 1398 400 297 204 998 446 349 124 142 352 97 53 856 197 147 152 115 112
is_linear=0
shrinkage=0.05


Tree=4
num_leaves=29
num_cat=0
split_feature=82 79 79 46 2 52 5 13 46 5 34 79 1 70 13 46 11 83 4 82 11 0 3 29 0 1 0 0
split_gain=29.856 9.79697 9.62719 9.57263 9.08925 6.08875 5.77451 5.43042 5.17093 4.94599 7.45202 3.8604 2.65387 2.45122 2.07542 2.00668 1.66827 1.14803 0.959549 0.732727 0.619324 0.590409 0.528873 0.482639 0.319255 0.198791 0.109212 0.0722038
threshold=0.011227649123032656 7.7417177176483704e-06 8.3183764415101794e-05 -0.0027750297850728796 -3.3854011984421057 -1.0613838232076327 2.6485319133010057 0.7150843527971773 -0.00075185268081273671 1.4884471920909845 -0.029956140958334751 9.8405731852779436e-06 42.437992679162043 6.5000000000000009 0.97915805944982814 0.0010831981383224722 1.0000000180025095e-35 0.039169366982913068 0.80086719206564549 0.016774638344698535 1.0000000180025095e-35 66.883124764740515 -2.8678856075138532 0.20265409011563104 63.087639479912774 43.818307664258896 40.254174310173475 74.907495168031048
decision_type=2 2 2 2 2 2 2 2 2 2 2 2 2 2 2 2 2 2 2 2 2 2 2 2 2 2 2 2
left_child=1 6 4 12 11 -6 9 -7 -5 15 13 22 -2 -11 -12 20 -13 19 -8 25 -1 -4 -3 -17 -19 -10 -14 -21
right_child=3 2 21 8 5 7 18 -9 17 10 14 16 26 -15 -16 23 -18 24 -20 27 -22 -23 -24 -25 -26 -27 -28 -29
leaf_value=-0.029920974998102142 -0.054419030463098421 0.041534547416929357 -0.027416341903560765 0.037911752967148021 -0.040272242979295145 0.026834849737582812 -0.016602315472788755 0.0060736675035616867 -0.017100577725140516 -0.021133858157442037 0.014943764763097479 0.010542455939644344 -0.03141730754017806 0.0016584994690712282 0.038103580455490692 0.006535927220994428 0.022905559985227111 0.0059360205425548207 -0.037384387543987839 -0.0076206130690124677 -0.014290572977550934 -0.013188776413387683 0.028085010760053514 -0.0051259971322973044 -0.0064780494669964082 -0.024322256516291729 -0.025964160726036273 -0.011947880221195365
leaf_weight=7.5310193449258795 14.055564522743223 19.978146240115166 11.834348112344744 5.3729264438152304 6.7681861668825141 33.768836483359337 15.937821909785272 468.18016035854816 36.914110377430916 12.116822704672812 28.61565762758255 54.385807111859322 19.813108921051025 445.866743683815 14.613244995474814 11.734377205371855 54.762239590287209 7.3966954350471523 8.5253814458847028 19.297451674938202 39.988932356238365 18.996406272053719 11.526434004306795 36.371155694127083 17.273938685655594 12.845293819904326 17.110925942659378 19.262178122997284
leaf_count=30 57 78 47 21 27 132 63 1836 146 48 112 213 79 1750 57 46 214 29 34 76 158 75 45 143 68 51 68 76
internal_value=0.00193397 0.00450355 0.00864952 -0.0178149 0.00994565 0.0068352 -3.54536e-05 0.00747039 -0.0100131 0.000940445 0.00292857 0.0211956 -0.0359288 0.00105548 0.0227728 -0.00948015 0.0167453 -0.012292 -0.0238448 -0.0149558 -0.0167677 -0.01865 0.0366138 -0.00228131 -0.00275609 -0.0189648 -0.0288903 -0.00978227
internal_weight=1470.84 1301.5 680.201 169.342 649.37 508.717 621.301 501.949 118.363 596.838 501.212 140.653 50.9796 457.984 43.2289 95.6255 109.148 112.99 24.4632 88.319 47.52 30.8308 31.5046 48.1055 24.6706 49.7594 36.924 38.5596
internal_count=5779 5108 2667 671 2545 1995 2441 1968 467 2344 1967 550 204 1798 169 377 427 446 97 349 188 122 123 189 97 197 147 152
is_linear=0
shrinkage=0.05


Tree=5
num_leaves=25
num_cat=0
split_feature=82 5 81 29 52 4 3 52 46 25 20 11 2 4 57 76 5 2 0 70 45 3 0 0
split_gain=20.4576 8.34954 7.9788 6.97793 6.94294 7.52329 6.69335 5.56608 3.43951 2.64709 2.32855 1.81906 1.40381 1.14158 1.04288 0.641712 0.383796 0.189822 0.176259 0.149955 0.124891 0.119443 0.0253288 0.00755288
threshold=0.010292499191296873 1.4884471920909845 45.226788331999394 0.4308441788930264 -0.21657101146267338 0.61710558369740187 1.7923302592083192 0.58003725415889196 -0.021877015800820406 1.0000000180025095e-35 0.00098773008058430207 1.0000000180025095e-35 -3.3854011984421057 0.7162423227169411 3.5000000000000004 0.25000000000000017 1.2101215163219337 -4.0302342109111091 41.057316057959802 16.500000000000004 -0.024389198207310277 -10.13174855442036 92.45257780707361 63.087639479912774
decision_type=2 2 2 2 2 2 2 2 2 2 2 2 2 2 2 2 2 2 2 2 2 2 2 2
left_child=1 11 3 6 5 -5 8 -8 -3 10 14 -1 -13 -6 17 -12 22 -2 -18 21 -17 -11 -14 -22
right_child=9 2 -4 4 13 -7 7 -9 -10 19 15 12 16 -15 -16 20 18 -19 -20 -21 23 -23 -24 -25
leaf_value=-0.030493302964781796 -0.021285314810418385 0.01914220623217092 -0.030344347961036189 -0.01546242057033223 0.014622687800494409 0.038473062855660128 0.035906075698961613 0.0039510114542857799 0.0031183628329855325 -0.023419107312703389 0.010671571859720069 0.0081743995343315553 -0.0018059162330295094 -0.00042868133693579045 -0.0099593877058020558 -0.0027856769792607306 -0.010800283768840013 -0.029367952990058017 -0.0065081493258487347 -0.019861263235972759 -0.0066451061982160803 -0.02943005563970004 -0.0046961036464384411 -0.0079452311514703004
leaf_weight=7.7572429478168479 17.28018119931221 34.74468719959259 15.35363422334194 7.5275121480226508 20.43968154489994 45.824775144457817 30.46694116294384 24.655053794384003 926.72231686115265 20.682328194379803 6.1268773525953284 16.326865866780281 22.409910589456558 32.836150348186493 20.15916720032692 19.304079204797745 55.807038098573685 12.53222866356373 41.860798835754395 15.217224404215811 16.700032919645309 13.764657631516458 11.455705940723417 33.738886266946793
leaf_count=31 69 136 61 30 80 179 119 97 3637 82 24 64 88 129 80 76 220 50 165 60 66 56 45 133
internal_value=0.00179873 0.00397108 0.00545583 0.00594519 0.0181137 0.0308633 0.00466886 0.0216132 0.00369742 -0.0142203 -0.0103627 -0.00689201 -0.00565381 0.00534589 -0.0187433 -0.00484287 -0.00737026 -0.024683 -0.00896066 -0.0239949 -0.00620581 -0.025821 -0.00278358 -0.00751477
internal_weight=1469.69 1294.19 1138.57 1123.22 106.628 53.3523 1016.59 55.122 961.467 175.506 125.841 155.618 147.86 53.2758 49.9716 75.8699 131.533 29.8124 97.6678 49.6642 69.743 34.447 33.8656 50.4389
internal_count=5777 5081 4468 4407 418 209 3989 216 3773 696 498 613 582 209 199 299 518 119 385 198 275 138 133 199
is_linear=0
shrinkage=0.05


Tree=6
num_leaves=34
num_cat=0
split_feature=54 52 29 52 4 3 10 6 45 81 3 46 70 83 76 70 70 79 1 14 65 3 16 83 6 4 1 7 1 3 1 1 1
split_gain=10.5431 9.08981 8.34905 6.88425 6.14081 7.74608 5.19006 4.95859 4.81977 3.68885 3.05339 2.77715 2.67156 2.13224 1.96136 1.92282 1.68218 1.54845 1.29553 0.903865 0.777521 0.707985 0.394063 0.383933 0.166327 0.126438 0.0761205 0.0610099 0.0522327 0.0214459 0.0152852 0.0113804 0.00309084
threshold=0.024431863530395 0.63698686867657939 0.44891125704749524 -0.21657101146267338 0.74894590912265457 1.7923302592083192 57.52222085450628 32.495924758911137 -0.024824322273283569 1.5112125026945873 2.147505863344124 -0.0073849354651311918 4.5000000000000009 0.031659242040994635 0.25000000000000017 16.500000000000004 17.500000000000004 7.5128201483083616e-06 46.494348435479374 0.0076897294075410913 10.500000000000002 -1.3444566499821451 -0.010203798537007645 0.04349274373816512 63.692875289916998 1.8333937140062653 42.624779833690468 -0.88129828324746884 59.67015295508893 -1.0000000180025095e-35 42.437992679162043 68.668144886993488 54.66821057733366
decision_type=2 2 2 2 2 2 2 2 2 2 2 2 2 2 2 2 2 2 2 2 2 2 2 2 2 2 2 2 2 2 2 2 2
left_child=1 2 4 7 11 8 13 -4 -6 15 -7 -1 24 20 -11 21 -9 -13 -14 26 25 27 -20 30 -8 -2 -5 -3 -27 -16 -15 -23 -24
right_child=6 9 3 19 5 10 12 16 -10 14 -12 17 18 23 29 -17 -18 -19 22 -21 -22 31 32 -25 -26 28 -28 -29 -30 -31 -32 -33 -34
leaf_value=-0.025891957059031825 -0.013495516569882949 -0.011509883922514744 -0.01247869531262772 0.0036839340615051823 -0.010931432867849186 0.044579873086131781 0.0083045894448805328 0.055094201189851949 0.004910347948519328 0.01905898089427523 0.016587338803881479 -0.0078243602597825156 -0.020253408552546814 -0.022286849637446454 -0.0063157863408202317 -0.038515605181013012 0.031643681824726939 0.0015731362569773215 -0.0077139830734887635 0.013897018357189241 -0.024600640690567291 -0.019589349775948187 0.0013879626872946478 -0.030828949860132866 0.016672873651642686 -0.0037853647386266939 -0.0012276103417469685 -0.007438653581065862 -0.0076649337740079043 -0.0036877902866338597 -0.020270084737807184 -0.021745752717658356 0.0025004250717995968
leaf_weight=14.505638957023619 6.0293959379196158 20.054198443889614 5.7934228777885428 12.494796335697172 51.16787301003933 13.78836354613304 9.6891361176967621 9.7077917009592039 778.69612795114517 11.504629611968992 33.194143414497375 87.699045419692993 12.681368112564085 20.647312343120575 16.69246843457222 9.1975154578685743 36.029441371560097 87.637372702360153 18.497654408216473 20.431842416524887 7.2317444235086432 13.36967521905899 15.541970357298855 14.961585909128187 15.336765795946121 18.031992509961128 21.399376586079597 17.005229860544208 16.721147447824478 14.512297213077547 17.239429622888565 11.280906200408936 10.436412632465363
leaf_count=58 24 79 23 49 202 54 38 38 3054 45 130 346 50 82 66 37 141 344 73 80 29 53 61 61 60 71 84 67 66 57 69 45 41
internal_value=0.00170933 0.00330721 0.00461566 0.0180088 0.00328654 0.00505176 -0.0095181 0.031101 0.00393357 -0.0101962 0.0248026 -0.00486669 -0.000190941 -0.0171179 0.00141239 -0.0171883 0.0366211 -0.00312726 -0.00615606 0.00559035 -0.00949092 -0.0140096 -0.00213651 -0.0240473 0.013433 -0.00681159 0.000582988 -0.00964174 -0.00565198 -0.00509359 -0.0213692 -0.0205762 0.00183488
internal_weight=1469.21 1286.16 1172.55 105.857 1066.69 876.847 183.046 51.5307 829.864 113.617 46.9825 189.842 82.1833 100.863 42.7094 70.9075 45.7372 175.336 57.1574 54.326 48.0143 61.71 44.476 52.8483 25.0259 40.7825 33.8942 37.0594 34.7531 31.2048 37.8867 24.6506 25.9784
internal_count=5777 5052 4603 415 4188 3440 725 202 3256 449 184 748 323 402 168 281 179 690 225 213 190 244 175 212 98 161 133 146 137 123 151 98 102
is_linear=0
shrinkage=0.05


Tree=7
num_leaves=33
num_cat=0
split_feature=82 29 83 4 45 52 13 30 0 13 70 25 82 33 0 14 65 3 2 2 6 3 73 14 2 70 1 15 13 0 14 0
split_gain=16.6801 5.92956 7.3066 5.97776 5.37842 4.00633 4.73806 3.9407 3.48113 3.11541 2.99513 2.18839 1.9524 1.67688 1.36087 1.33655 1.01609 0.865806 0.400945 0.368683 0.271297 0.270472 0.263473 0.219032 0.166846 0.121537 0.115218 0.101341 0.0931763 0.0471956 0.0311425 0.00382941
threshold=0.010292499191296873 0.44891125704749524 0.019414180598562921 0.85593846416467023 -0.011340553282809361 -1.4103478157052585 0.7150843527971773 0.087745055308292866 75.504684695621748 0.7150843527971773 2.5000000000000004 1.0000000180025095e-35 0.01488805190568805 0.023844854425508728 56.5124361804017 0.0015376672835775154 2.5000000000000004 -2.4289241707648785 -5.8945347753681974 -2.1775722616495292 42.254457664489756 -0.67604720369329174 -1.0000000180025095e-35 -0.0049714832166574676 -4.0302342109111091 16.500000000000004 48.830967755471541 0.029307369870908432 1.1659751843926143 78.623928257727812 -1.0000000180025095e-35 63.087639479912774
decision_type=2 2 2 2 2 2 2 2 2 2 2 2 2 2 2 2 2 2 2 2 2 2 2 2 2 2 2 2 2 2 2 2
left_child=1 4 3 17 5 19 8 26 -7 -4 -8 12 15 20 23 24 29 -3 -18 -1 -9 31 -11 -5 -2 27 30 -13 -15 -14 -6 -17
right_child=11 2 9 14 7 6 10 13 -10 22 -12 25 16 28 -16 21 18 -19 -20 -21 -22 -23 -24 -25 -26 -27 -28 -29 -30 -31 -32 -33
leaf_value=-0.029169946421992818 -0.019305170167418773 -0.0027480796221878464 -0.042383149621792175 0.035577713917138147 -0.022253840757982063 0.0071334023865051392 -0.026341634848588803 -0.0088747310602064391 0.042547430036704116 0.0035683175910763208 0.0039516120236164111 -0.02677137773447924 -0.0035966931006078985 0.0084917589390231338 0.051493022370070356 -0.0060027718988764425 0.001582097671201264 0.013483709344941867 0.020568283722380312 -0.014040579976252941 -0.0022205899684515358 -0.014384088110659896 -0.0090711023211039934 0.027328788826409375 -0.026902958785881805 -0.018052609392932389 -0.027278692073435109 -0.021213060906592068 0.0037640887479936437 -0.0072850240643485865 -0.018638020486703329 -0.0070690448809608737
leaf_weight=5.5412715822458276 17.197137832641602 13.985598549246786 5.0078748017549541 12.156165376305575 10.750315308570864 14.033997654914856 8.2279992848634702 49.632279932498932 13.726236581802368 19.380151003599174 980.17549312114716 13.620113492012022 18.02907906472683 16.589846655726433 9.3894552588462812 16.684942156076431 5.0978980958461761 19.912067845463753 6.1174629479646665 14.732478976249695 22.15588416159153 16.316335082054138 5.2373084425926164 23.808566585183147 12.461768418550493 15.204700037837027 7.6939935386180869 20.608826845884323 28.032360345125198 16.713691413402557 13.349995762109758 16.9997898042202
leaf_count=22 69 55 20 48 43 55 33 196 54 76 3846 56 71 65 37 66 20 78 24 58 87 65 21 93 50 60 31 82 110 66 53 67
internal_value=0.00162455 0.00358483 0.0147514 0.0226707 0.00255854 0.00383252 0.00427162 -0.00635077 0.0246441 -0.00643379 0.00369943 -0.0128607 -0.00935366 -0.00208984 0.0345423 -0.0140883 -0.00114699 0.00678675 0.0119382 -0.0181758 -0.00682107 -0.00910028 0.00087931 0.0301169 -0.0224975 -0.0217724 -0.0219516 -0.0234248 0.00552176 -0.00537104 -0.0202509 -0.00654089
internal_weight=1468.57 1293.52 108.877 79.2519 1184.64 1036.44 1016.16 148.205 27.7602 29.6253 988.403 175.052 125.618 116.41 45.3542 79.66 45.9581 33.8977 11.2154 20.2738 71.7882 50.0011 24.6175 35.9647 29.6589 49.4336 31.7943 34.2289 44.6222 34.7428 24.1003 33.6847
internal_count=5777 5081 428 311 4653 4068 3988 585 109 117 3879 696 498 458 178 317 181 133 44 80 283 198 97 141 119 198 127 138 175 137 96 133
is_linear=0
shrinkage=0.05


Tree=8
num_leaves=27
num_cat=0
split_feature=82 5 81 33 75 3 52 8 25 82 2 11 65 32 45 19 2 2 80 70 36 2 2 3 2 2
split_gain=15.0725 6.53178 6.11301 6.7732 4.62176 7.44477 4.43747 6.42355 1.98522 1.76661 1.38737 0.95832 0.917609 0.882139 0.655291 0.45649 0.362751 0.337837 0.177302 0.112257 0.0944721 0.0738792 0.0515805 0.0426451 0.0034523 0.00144791
threshold=0.010292499191296873 1.4884471920909845 45.226788331999394 0.016754924911208838 -0.24999999999999994 1.7923302592083192 -0.21657101146267338 24.942175741405965 1.0000000180025095e-35 0.01488805190568805 -3.0235128039468813 1.0000000180025095e-35 2.5000000000000004 -0.040758150190755203 -0.024389198207310277 0.29422863589092879 -5.8945347753681974 -3.3854011984421057 4.6129039166924279 16.500000000000004 46.514587402343757 -2.9576832851187222 -1.8549391222375253 7.1071447557461429 -1.9237504560475569 1.0235781156334836
decision_type=2 2 2 2 2 2 2 2 2 2 2 2 2 2 2 2 2 2 2 2 2 2 2 2 2 2
left_child=1 10 3 6 -5 -6 7 -3 9 13 17 -12 23 14 21 -8 -14 -1 25 20 -10 -2 -20 -11 -16 -13
right_child=8 2 -4 4 5 -7 15 -9 19 12 11 18 16 -15 24 -17 -18 -19 22 -21 -22 -23 -24 -25 -26 -27
leaf_value=0.0074656626449332427 -0.018387525719390709 -0.023882767353674571 -0.026713094914169889 -0.030419317435653032 0.0028626641941094737 0.022899996961283517 0.001465594604313232 0.025172659473219706 -0.025571220353449511 -0.003417416398297539 -0.02601816233741034 -0.0046799261880143663 0.0015029985785360994 -0.025646180759742378 -0.0057052512108273397 0.0098100829070627907 0.019568034586843766 -0.0019918048164481619 -0.01026197427881808 -0.017162452716191729 -0.020193891866666033 -0.013686024239062412 -0.007717978150148512 -0.0069239765406696879 -0.0067178593141289005 -0.0039593129049863762
leaf_weight=16.318599015474319 17.153731495141979 7.2170352190732947 15.25979509949684 9.9153122007846815 899.50976678729057 48.875367060303688 41.037312537431717 88.57575286924839 13.548253268003462 18.026191011071205 7.6641839742660514 17.806459069252014 5.0978675484657288 12.419905394315718 16.677484720945358 27.288339391350746 6.1088772565126401 22.410517185926437 38.574951350688934 15.193918555974959 20.567554533481598 16.291772156953815 41.211132004857063 16.706154733896255 16.994187980890274 11.454990684986116
leaf_count=64 69 29 61 40 3530 192 161 348 56 71 31 70 20 50 66 107 24 88 152 60 82 65 163 66 67 45
internal_value=0.00154403 0.00340675 0.00472027 0.00514763 0.00354025 0.0038953 0.0145332 0.0214768 -0.0122369 -0.00889648 -0.00620702 -0.00892812 -0.00109003 -0.0134053 -0.0111402 0.00479827 0.0113504 0.00199312 -0.00772698 -0.0207373 -0.0223294 -0.0160974 -0.00894795 -0.00510406 -0.00621632 -0.00439783
internal_weight=1467.91 1293.12 1137.68 1122.42 958.3 948.385 164.118 95.7928 174.786 125.476 155.441 116.712 45.9391 79.5371 67.1172 68.3257 11.2067 38.7291 109.048 49.3097 34.1158 33.4455 79.7861 34.7323 33.6717 29.2614
internal_count=5777 5081 4468 4407 3762 3722 645 377 696 498 613 461 181 317 267 268 44 152 430 198 138 134 315 137 133 115
is_linear=0
shrinkage=0.05


Tree=9
num_leaves=24
num_cat=0
split_feature=82 81 29 65 52 79 3 82 78 3 46 25 20 69 57 65 4 13 3 70 3 0 0
split_gain=13.6204 5.0689 5.93833 5.90439 6.36436 4.13806 5.29828 3.92312 4.96077 2.49718 2.42073 1.80132 1.609 1.45366 0.716205 0.622768 0.441131 0.381723 0.138277 0.103661 0.0880205 0.0441569 0.00500459
threshold=0.010292499191296873 45.226788331999394 0.44891125704749524 10.500000000000002 -0.21657101146267338 8.202516195961613e-06 1.7923302592083192 0.0077137791314460585 4.8195134421253529e-05 2.147505863344124 -0.021056677488498928 1.0000000180025095e-35 0.00098773008058430207 1.0000000180025095e-35 3.5000000000000004 2.5000000000000004 0.7162423227169411 1.2932602912931792 -4.0580894710459878 16.500000000000004 -10.13174855442036 36.962045596166313 63.087639479912774
decision_type=2 2 2 2 2 2 2 2 2 2 2 2 2 2 2 2 2 2 2 2 2 2 2
left_child=1 2 5 4 13 7 10 8 -1 -8 -7 12 14 -4 18 21 -6 -9 -2 20 -13 -14 -23
right_child=11 -3 3 -5 16 6 9 17 -10 -11 -12 19 15 -15 -16 -17 -18 -19 -20 -21 -22 22 -24
leaf_value=0.0011327919554420017 -0.017514398280899866 -0.025448905870035898 0.027481838745743861 -0.025243433694661949 0.012130975602033467 0.016883998642664332 0.039619844372993623 0.023735959236796601 -0.010292972432280265 0.014239765139396808 0.0032342352761693736 -0.019225876966332919 -0.0032470743943547975 0.049442788834100165 -0.008181755651336298 0.0099049881485533744 0.002670148417065225 0.012310118470912138 -0.024452471940431535 -0.016318134837056433 -0.024426947761931106 -0.0054224442503603212 -0.0064816588347556166
leaf_weight=425.92882665991783 17.109579384326935 15.2180168479681 35.803435906767845 8.4051468521356565 20.403284460306168 34.68079748749733 13.611340358853338 12.761056378483774 122.26978075504303 33.656402319669724 512.1961377710104 20.524094343185421 18.023341417312622 9.5439129024744016 20.070907667279243 7.39334912598133 31.104362398386002 17.1124387383461 12.376037508249285 15.181387335062025 13.475654721260073 16.670123636722565 33.687058955430984
leaf_count=1672 69 61 141 34 80 136 54 50 484 132 2010 82 71 38 80 29 122 67 50 60 56 66 133
internal_value=0.00146746 0.0032375 0.00357923 0.0149554 0.0184439 0.0025577 0.00548798 -0.000454059 -0.0014156 0.0215483 0.00409985 -0.0116441 -0.00846193 0.0321038 -0.0154673 -0.0038804 0.00641779 0.0171909 -0.0204265 -0.0197534 -0.0212873 -0.00537089 -0.00613102
internal_weight=1467.21 1292.69 1277.48 105.26 96.855 1172.22 594.145 578.072 548.199 47.2677 546.877 174.512 125.33 45.3473 49.5565 75.7739 51.5076 29.8735 29.4856 49.1811 33.9997 68.3805 50.3572
internal_count=5777 5081 5020 415 381 4605 2332 2273 2156 186 2146 696 498 179 199 299 202 117 119 198 138 270 199
is_linear=0
shrinkage=0.05


Tree=10
num_leaves=19
num_cat=0
split_feature=5 54 14 0 79 80 29 67 2 52 52 0 35 51 1 0 0 0
split_gain=10.0808 9.76067 7.03876 7.78998 6.50882 5.371 5.34275 5.11773 4.8432 3.68922 1.98067 0.467372 0.454521 0.423948 0.083657 0.07016 0.0587587 0.0292575
threshold=1.4884471920909845 0.045573046367458334 -0.047184654766168725 56.5124361804017 3.4653486907003162e-05 4.538258854772141 0.35168393932182701 1.0000000180025095e-35 -3.0235128039468813 -0.41366966282464385 1.5855042503723433 9.8177687881593574 0.0084514221324654432 0.01618129836659294 35.720963751334907 92.45257780707361 87.711386081426113 41.057316057959802
decision_type=2 2 2 2 2 2 2 2 2 2 2 2 2 2 2 2 2 2
left_child=8 2 -2 4 6 9 -4 -7 11 -5 12 -1 14 -6 -10 17 -12 -14
right_child=1 -3 3 5 13 7 -8 -9 10 -11 16 -13 15 -15 -16 -17 -18 -19
leaf_value=-0.0012111135309161051 0.031189956552036071 -0.033420981143862979 -0.0041729857441824498 0.0096279263883082347 -0.014839264576536766 0.0045143453232209451 0.0073896633583618049 -0.043134607085954173 -0.015800882859183844 0.035717073450700826 -0.034595141287911267 0.0096389160741824093 -0.013272649824899833 -0.027098462399215553 -0.020597342091673937 -0.0071611716172429122 -0.028824880817169218 -0.01089196661600491
leaf_weight=20.631355494260788 20.939132660627365 19.261236444115639 379.00208601355553 33.443835616111755 9.8951130360364896 666.83194303512573 135.66810877621174 5.6832445859909049 21.292308256030083 22.780521050095558 7.1152277290821084 19.126513257622719 18.998004868626595 24.546894371509552 15.863882705569265 10.175435543060301 11.611921042203903 40.242368221282959
leaf_count=81 82 78 1494 131 39 2617 535 23 84 91 29 75 75 101 63 40 47 159
internal_value=0.000452497 0.00191125 0.00243523 0.00196405 -0.00253327 0.00535282 -0.00112505 0.00411168 -0.0111963 0.0201985 -0.0160208 0.00400856 -0.0133856 -0.0235764 -0.0178487 -0.0109966 -0.0310172 -0.0116554
internal_weight=1483.11 1318.05 1298.79 1277.85 549.112 728.74 514.67 672.515 165.057 56.2244 125.299 39.7579 106.572 34.442 37.1562 69.4158 18.7271 59.2404
internal_count=5844 5191 5113 5031 2169 2862 2029 2640 653 222 497 156 421 140 147 274 76 234
is_linear=0
shrinkage=0.05


Tree=11
num_leaves=29
num_cat=0
split_feature=82 5 52 81 2 46 46 44 30 34 68 2 51 30 5 6 6 70 5 51 5 0 0 0 5 0 0 3
split_gain=11.7179 9.63587 6.30113 6.85325 5.82278 5.11154 5.06408 4.68878 4.50487 4.48986 4.24966 3.90404 3.82703 5.69077 2.8567 2.21938 1.7186 0.773995 0.671207 0.662534 0.439315 0.357951 0.349452 0.281743 0.145887 0.0871052 0.0399219 0.00758698
threshold=0.010292499191296873 1.6547009966003294 -0.21657101146267338 30.390376085864631 -3.3017531329146972 -0.0035654765378411164 -0.0085297551055701342 0.0055543175981248591 0.080962990032011281 -0.095071005221037772 2.5000000000000004 -2.7283478952796809 0.014607910689910126 0.24596790733160021 1.9616940436169152 39.235113334655772 24.464005947113041 4.5000000000000009 1.3373760450924677 0.021657686272549267 2.5674146211892919 47.736190291965237 41.057316057959802 63.087639479912774 1.5687440625340254 92.45257780707361 21.300084595493413 2.4509062615672432
decision_type=2 2 2 2 2 2 2 2 2 2 2 2 2 2 2 2 2 2 2 2 2 2 2 2 2 2 2 2
left_child=1 7 3 4 9 8 21 15 -4 -3 22 -6 -8 -14 -7 -1 -16 23 25 -10 -19 -2 26 -15 -20 -17 -9 -24
right_child=6 2 5 -5 11 14 12 10 19 -11 -12 -13 13 17 16 18 -18 20 24 -21 -22 -23 27 -25 -26 -27 -28 -29
leaf_value=-0.015695029811222356 -0.034508557630052332 0.0075883506024351302 0.031133554738756647 -0.023513225918656386 -0.026968314074197055 -0.027167278995413702 -0.030883721856627244 -0.018351800919745441 0.0034688642822991549 0.030465807142433372 -0.047618777146384433 0.0084815328034178652 0.045461268333479028 -0.0049920912901711204 0.025062491326965947 -0.0011505648742630163 -0.0028512955048596365 -0.0029801534743139229 0.0085456940352899892 0.010506635309065523 -0.012227249866024241 -0.023367648394009743 -0.0088750955217930232 0.0027494700295659855 0.0029169303136084125 -0.0068036682383228013 -0.015021067446830863 -0.010268111607539283
leaf_weight=20.472443744540215 18.37260439991951 33.09451250731945 15.693656742572783 13.832874923944471 8.2186478078365308 12.040406882762907 15.968400299549101 15.586456954479216 490.54261952638626 60.934332937002182 9.952426463365553 141.17442183196545 5.3650022596120825 35.681121230125427 5.6188393533229819 20.631205916404724 295.89154234528542 16.272131055593491 30.289800360798836 35.887402251362801 60.969121396541595 11.866418749094011 16.505003809928894 17.525066524744034 18.568217098712921 10.174625277519228 21.278169214725494 23.969970554113388
leaf_count=81 75 130 63 56 33 48 65 62 1924 241 41 554 21 141 22 81 1163 65 119 141 242 50 65 69 73 40 84 95
internal_value=0.000429987 0.00209318 0.0038595 0.010721 0.0126664 0.00179662 -0.011452 -0.008395 0.0047356 0.0224138 -0.0168651 0.00653131 -0.00772944 -0.00500703 -0.00328482 -0.00101131 -0.0023311 -0.00708268 0.0027622 0.00394864 -0.0102792 -0.0301366 -0.0129076 -0.00244217 0.00640651 -0.00301769 -0.0164293 -0.00970006
internal_weight=1482.38 1300.36 1112.93 257.255 243.422 855.674 182.02 187.428 542.124 94.0288 87.292 149.393 151.781 135.812 313.551 100.136 301.51 130.447 79.6638 526.43 77.2413 30.239 77.3396 53.2062 48.858 30.8058 36.8646 40.475
internal_count=5844 5116 4375 1014 958 3361 728 741 2128 371 347 587 603 538 1233 394 1185 517 313 2065 307 125 306 210 192 121 146 160
is_linear=0
shrinkage=0.05


Tree=12
num_leaves=28
num_cat=0
split_feature=82 5 52 81 50 46 46 44 32 65 13 5 51 20 5 4 4 24 5 4 22 0 0 4 0 0 0
split_gain=10.5954 8.7044 5.69878 6.19855 5.28259 4.61905 4.61421 4.244 4.08568 3.90309 3.86904 3.53062 3.48072 3.18876 2.58676 2.00496 1.55261 1.06107 0.646516 0.606007 0.567983 0.325666 0.316367 0.131815 0.0786262 0.0364458 0.0072884
threshold=0.010292499191296873 1.6547009966003294 -0.21657101146267338 30.390376085864631 -0.0066039258184423461 -0.0085297551055701342 -0.0035654765378411164 0.0055543175981248591 -0.064590960561634672 6.5000000000000009 0.81034335573577965 3.5689430716925092 0.014607910689910126 -0.0017153463439027012 1.9616940436169152 0.42777002286100757 0.59839361501214616 1.0000000180025095e-35 3.7762627130439221 0.64016171650030518 1.0000000180025095e-35 47.736190291965237 41.057316057959802 0.64391405477962815 92.45257780707361 21.300084595493413 75.46806783813237
decision_type=2 2 2 2 2 2 2 2 2 2 2 2 2 2 2 2 2 2 2 2 2 2 2 2 2 2 2
left_child=1 7 3 4 8 21 10 15 -3 22 -4 -6 -7 -14 -8 -1 -16 20 -12 24 -15 -2 25 -21 -17 -9 -24
right_child=5 2 6 -5 11 12 14 9 -10 -11 18 -13 13 17 16 19 -18 -19 -20 23 -22 -23 26 -25 -26 -27 -28
leaf_value=-0.014925613832409243 -0.032991738634989991 0.0079361580603505462 0.029680590812135855 -0.022419733301831238 0.0080590668535030982 -0.029496683817833803 -0.025877870324780242 -0.017465478553186069 0.029467013417630819 -0.045681139093434714 0.00348308268044227 -0.025703720627990669 0.03633530476389258 -0.012534152227846103 0.023838085847011227 -0.0010930410785512119 -0.0027088130465258015 0.0048907449471452544 0.013744883632387801 0.002771576539665341 -0.0052245013232492627 -0.022333251928114695 -0.010040297651590591 0.0081228143680500808 -0.0064641464583140131 -0.014280947486602913 -0.008671161891850963
leaf_weight=20.451941892504692 18.259353205561638 35.373681575059891 14.837119400501249 13.783459782600401 141.1469239294529 15.885468274354933 12.009125545620916 15.559259533882139 58.424737229943275 9.8582569211721403 511.36238698661327 8.1925191730260831 4.5617173910140982 42.983566075563431 5.6122361719608298 20.631047934293747 295.88260971009731 18.550713986158371 15.823668256402014 18.565008819103241 69.619153529405594 11.797033637762071 16.241995677351952 30.273788005113602 10.173613369464876 21.262279540300369 24.207950785756111
leaf_count=81 75 139 60 56 554 65 48 62 232 41 2006 33 18 171 22 81 1163 73 62 73 276 50 64 119 40 84 96
internal_value=0.000408671 0.0019896 0.00366827 0.0101986 0.0120478 -0.0109022 0.00170715 -0.00798465 0.0213472 -0.0160533 0.00449978 0.0062069 -0.00735207 -0.00476004 -0.0031211 -0.000961177 -0.00221465 -0.0061894 0.00379109 0.0026248 -0.0080148 -0.0288083 -0.0122734 0.00608866 -0.00286691 -0.0156266 -0.00922092
internal_weight=1481.33 1299.67 1112.45 256.921 243.138 181.657 855.527 187.225 93.7984 87.1297 542.023 149.339 151.601 135.715 313.504 100.095 301.495 131.153 527.186 79.6435 112.603 30.0564 77.2715 48.8388 30.8047 36.8215 40.4499
internal_count=5844 5116 4375 1014 958 728 3361 741 371 347 2128 587 603 538 1233 394 1185 520 2068 313 447 125 306 192 121 146 160
is_linear=0
shrinkage=0.05


Tree=13
num_leaves=23
num_cat=0
split_feature=5 34 77 35 14 1 24 45 52 81 3 14 32 1 75 14 76 19 14 9 1 3
split_gain=7.38087 7.38117 5.38792 5.07072 7.72527 4.55267 4.44939 4.64217 3.46809 3.33454 2.97107 1.50498 1.46837 1.19014 0.996867 0.937626 0.49716 0.398165 0.286844 0.274434 0.0526943 0.0271021
threshold=1.6547009966003294 -0.12130583944647697 0.00038201815074462628 0.0044926066541543259 -0.011093098327103033 25.167234488018533 1.0000000180025095e-35 -0.016838774969288869 -1.9456599006252853 1.8903964547363417 -7.4816441214570135 0.013504668624129136 -0.094991219079728004 31.515939557074159 -0.24999999999999994 -0.0075912994401324254 0.25000000000000017 0.43374686646578209 -0.0036791244574458366 52.302778907176439 39.640231846590744 -3.9065213766734659
decision_type=2 2 2 2 2 2 2 2 2 2 2 2 2 2 2 2 2 2 2 2 2 2
left_child=2 5 9 13 10 15 8 -8 -6 11 -5 14 -7 -3 -1 -2 -12 20 -16 21 -11 -14
right_child=1 3 -4 4 6 12 7 -9 -10 17 16 -13 19 -15 18 -17 -18 -19 -20 -21 -22 -23
leaf_value=-0.029678678598715775 0.012182076930704987 -0.0059758513399485709 -0.037657470277535167 7.9315363397823439e-05 0.017126480440329592 -0.031909166352174841 0.0029071170042083488 0.014031737069575612 -0.0036897706267407359 -0.0010383988941019622 0.042113933820933182 0.0066691918138816241 -0.013199159019791816 -0.030148761687731541 -0.014864151859512479 -0.0045235932152675531 0.025780667058445124 0.0094649421094435641 -0.0094007150338730958 -0.021344175456980929 0.0026334492958279259 -0.0097428525479250714
leaf_weight=7.9252304732799521 15.045742973685263 8.1447429507970828 14.751646891236303 12.47459042072296 21.349612206220627 18.168280631303787 661.86286398768425 109.25568567216396 318.64876085519791 20.630886286497116 5.3219389766454688 11.155804708600042 22.161549732089043 13.584727481007574 36.775982931256294 19.013607144355774 37.399964943528175 19.360078737139702 69.287783950567245 11.728303313255308 18.561886548995972 7.6226137280464199
leaf_count=33 59 32 61 49 84 75 2599 432 1256 81 21 44 89 56 146 75 149 76 274 50 73 30
internal_value=0.000388423 0.00177766 -0.00858465 0.00284345 0.00328932 -0.01173 0.00238234 0.00448331 -0.00238265 -0.00624999 0.0215469 -0.0108579 -0.0200541 -0.0210882 -0.0125732 0.00285615 0.0278153 0.00359847 -0.0112951 -0.0148657 0.000700606 -0.0123146
internal_weight=1480.23 1281.78 198.449 1188.04 1166.31 93.7401 1111.12 771.119 339.998 183.698 55.1965 125.145 59.6807 21.7295 113.989 34.0594 42.7219 58.5529 106.064 41.5125 39.1928 29.7842
internal_count=5844 5056 788 4678 4590 378 4371 3031 1340 727 219 497 244 88 453 134 170 230 420 169 154 119
is_linear=0
shrinkage=0.05


Tree=14
num_leaves=28
num_cat=0
split_feature=82 5 52 81 50 46 46 32 44 65 13 5 20 20 80 4 4 24 5 4 22 0 0 4 0 0 5
split_gain=8.73325 7.17368 4.74456 4.99718 4.64084 3.85384 3.83097 3.54403 3.49092 3.41488 3.38505 3.13581 2.87752 3.09729 2.42048 1.67028 1.29637 0.878281 0.534462 0.484776 0.434551 0.271717 0.261743 0.106048 0.0598432 0.0335446 0.00754668
threshold=0.010292499191296873 1.6547009966003294 -0.21657101146267338 30.390376085864631 -0.0066039258184423461 -0.0035654765378411164 -0.0085297551055701342 -0.064590960561634672 0.0055543175981248591 6.5000000000000009 0.81034335573577965 3.5689430716925092 -0.0049707117225879539 -0.0017153463439027012 6.0520815697902224 0.42777002286100757 0.70627817775200008 1.0000000180025095e-35 3.7762627130439221 0.64016171650030518 1.0000000180025095e-35 47.736190291965237 41.057316057959802 0.64391405477962815 92.45257780707361 21.300084595493413 1.4684556233642712
decision_type=2 2 2 2 2 2 2 2 2 2 2 2 2 2 2 2 2 2 2 2 2 2 2 2 2 2 2
left_child=1 8 3 4 7 10 21 -3 15 22 -4 -6 -8 -14 16 -1 -7 20 -12 24 -15 -2 25 -21 -17 -10 -24
right_child=6 2 5 -5 11 14 12 -9 9 -11 18 -13 13 17 -16 19 -18 -19 -20 23 -22 -23 26 -25 -26 -27 -28
leaf_value=-0.01365499830371981 -0.030193177020663015 0.0072134794726289031 0.02775423852572247 -0.020126555748647336 0.0072257256413648307 0.021959040905427402 0.03259426643609064 0.027297550201549833 -0.015907029407981471 -0.042584957584720341 0.0031515533242972068 -0.024638583562629834 -0.031007430605005333 -0.011060491346836345 -0.022301208431143218 -0.00098648884324771449 -0.0023363077898764469 0.0044689337052570121 0.01248746366988715 0.0025021938615586987 -0.0047711876416336963 -0.020398020015947281 -0.0088745250532065445 0.007303499940700473 -0.0056728443319710564 -0.012847657172270335 -0.0074840662131889406
leaf_weight=20.410691678524017 18.023670569062233 35.345451459288597 14.703691780567167 13.662937581539152 141.05612842738628 5.5956574231386176 4.5200062841176978 58.02330806851387 15.505176723003386 9.6838183999061567 511.33732645213604 8.16823662817478 13.207450211048124 45.381285950541496 15.253185972571371 20.630721062421799 292.58415363729 18.555736675858498 15.803851559758185 18.558855801820755 69.566376462578773 11.660466283559801 23.911293506622314 30.240300476551056 10.17034024000168 21.224673897027969 16.486865237355232
leaf_count=81 75 139 60 56 554 22 18 232 62 41 2006 33 55 181 61 81 1150 73 62 73 276 50 95 119 40 84 65
internal_value=0.000369104 0.00180319 0.00332688 0.0092948 0.0109518 0.00153879 -0.00992275 0.0196946 -0.00726229 -0.0145983 0.00409148 0.00548154 -0.00669924 -0.00790983 -0.00287416 -0.00089447 -0.00188038 -0.00562479 0.00343145 0.00237752 -0.0072542 -0.0263455 -0.0110844 0.00547751 -0.0025339 -0.0141391 -0.00830707
internal_weight=1479.27 1298.36 1111.53 256.256 242.593 855.278 180.915 93.3688 186.823 86.8118 541.845 149.224 151.231 146.711 313.433 100.011 298.18 133.503 527.141 79.6002 114.948 29.6841 77.128 48.7992 30.8011 36.7299 40.3982
internal_count=5844 5116 4375 1014 958 3361 728 371 741 347 2128 587 603 585 1233 394 1172 530 2068 313 457 125 306 192 121 146 160
is_linear=0
shrinkage=0.05


Tree=15
num_leaves=24
num_cat=0
split_feature=82 81 75 19 30 0 2 82 77 0 70 7 2 30 70 0 30 0 1 19 57 0 4
split_gain=9.09375 4.85849 4.46318 4.29425 3.01081 5.37587 5.03224 4.95704 4.05758 4.0388 3.34155 2.48481 1.73289 1.46731 1.33839 0.657079 0.531148 0.449793 0.332915 0.215712 0.187976 0.11974 0.037721
threshold=0.010292499191296873 45.226788331999394 0.68301270189221941 0.44875562728752 0.080962990032011281 45.654344604450735 -2.798840403416158 0.0022518279010262468 0.00018648502613392959 79.828054909853762 24.500000000000004 -5.4463788145267609 -5.1496358611397381 0.27602770831194173 9.5000000000000018 61.194464848883143 0.42207702610525921 11.235451171003399 25.167234488018533 0.89417573478093881 3.5000000000000004 39.100763259826806 1.8333937140062653
decision_type=2 2 2 2 2 2 2 2 2 2 2 2 2 2 2 2 2 2 2 2 2 2 2
left_child=1 4 -2 18 5 14 10 9 -7 -8 12 -5 -6 -9 -1 -10 22 -12 -4 -18 -3 -16 -13
right_child=2 20 3 11 6 8 7 13 15 -11 17 16 -14 -15 21 -17 19 -19 -20 -21 -22 -23 -24
leaf_value=-0.019805586725137082 -0.056910528006393936 -0.016618718453991918 0.0043774259513395418 -0.030507538181975765 0.011058283172737882 0.037022634914897913 -0.010835563621316043 0.022235698161856846 0.01696708650814404 -0.00084156298408341449 0.0092520479600869086 -0.0043857269262175631 0.0021527781029308662 0.004936123480324241 0.0016445634162870135 0.0069731678578761353 -0.01005451847353162 0.022249970630128665 0.015710949934815709 -0.015309334553226717 -0.028292428530057614 -0.005805502787799721 -0.0072995241580917428
leaf_weight=12.176363721489905 5.0458417832851401 4.7876776009798059 21.06430180370808 17.428074657917023 60.743630304932594 18.061408907175064 176.49044422805309 14.479159176349638 25.469986811280251 236.62944133579731 8.934777230024336 17.135636255145073 542.31874904036522 79.873394176363945 22.679385036230091 46.426140561699867 35.851716250181198 26.09515768289566 9.3581611663103086 42.89808489382267 12.328072935342789 7.076101303100585 31.571765035390854
leaf_count=49 21 19 83 73 240 74 699 57 100 929 35 68 2131 314 89 182 143 105 37 178 51 30 125
internal_value=-2.98107e-05 0.00143559 -0.0105484 -0.00921396 0.00179014 0.00894406 0.000966511 -0.00274949 0.015836 -0.00511114 0.00392184 -0.0127999 0.00304979 0.00759088 -0.00584145 0.0105136 -0.0103786 0.0189347 0.0078637 -0.012917 -0.025027 -0.000127124 -0.00627443
internal_weight=1474.92 1294.57 180.354 175.308 1277.45 131.889 1145.56 507.472 89.9575 413.12 638.092 144.885 603.062 94.3526 41.9319 71.8961 127.457 35.0299 30.4225 78.7498 17.1158 29.7555 48.7074
internal_count=5832 5104 728 707 5034 524 4510 1999 356 1628 2511 587 2371 371 168 282 514 140 120 321 70 119 193
is_linear=0
shrinkage=0.05


Tree=16
num_leaves=22
num_cat=0
split_feature=54 52 57 45 30 9 9 2 3 19 0 14 1 83 47 13 81 0 81 52 45
split_gain=5.82776 5.47267 4.83713 4.27424 4.18706 4.54539 3.23141 2.63815 2.29963 1.86045 1.66872 1.55397 1.26143 1.17663 1.12155 0.92973 0.779374 0.775364 0.704859 0.13064 0.070067
threshold=0.045573046367458334 0.60415214199652734 2.5000000000000004 -0.011340553282809361 0.17858426309695749 73.428558276172836 48.45748722715728 -2.1775722616495292 2.4509062615672432 0.40133575479914524 20.830003930107804 0.0064230790713053496 62.906269576912642 0.011715820684401416 0.031329726773985385 1.2428150765785793 27.956465383120698 75.504684695621748 0.60207760797241694 1.5100962273107543 -0.007759199226975765
decision_type=2 2 2 2 2 2 2 2 2 2 2 2 2 2 2 2 2 2 2 2 2
left_child=1 2 4 6 5 13 11 -8 9 -6 -3 -4 -10 -1 15 18 20 -7 -12 -17 -5
right_child=-2 10 3 16 8 17 7 -9 12 -11 14 -13 -14 -15 -16 19 -18 -19 -20 -21 -22
leaf_value=-0.0029193136791573083 -0.027867829871894879 0.0082768093897122117 0.0031753987759916835 -0.013993167342065474 0.014418566768912991 0.01984233636347852 -0.015017412142859411 -0.0011865462581513043 -0.014901090946448091 0.002419638766857799 -0.014052261310879312 0.019089709332976566 0.0045701463415060975 0.010164249284019385 -0.029836168614679016 -0.010998680442077205 -0.026334153746767192 0.035491574491890186 -0.0032121868266258668 -0.015518393642867782 -0.0098642807102902047
leaf_weight=23.896130353212357 18.561649471521378 15.256859779357908 39.244103491306305 26.028168782591816 34.050063952803612 14.18795996904373 39.252851292490959 283.42802245914936 28.675513982772827 630.46114937961102 18.302085757255554 25.182488232851028 11.716527849435804 61.179752364754677 6.2084463238716117 41.282896652817726 12.999912038445471 17.902621254324913 83.01859875023365 26.093408763408661 16.977227076888088
leaf_count=94 78 60 156 103 136 56 158 1113 115 2477 73 101 46 240 25 164 54 74 330 111 68
internal_value=-2.83889e-05 0.000326679 0.00151538 -0.00269561 0.00378519 0.0125377 -0.000827767 -0.00286902 0.00233038 0.00303447 -0.00758195 0.00939584 -0.00925307 0.00648934 -0.00896529 -0.00819719 -0.0156061 0.0285727 -0.00517029 -0.0127491 -0.0123632
internal_weight=1473.91 1455.34 1265.18 443.113 822.07 117.166 387.107 322.681 704.903 664.511 190.162 64.4266 40.392 85.0759 174.905 168.697 56.0053 32.0906 101.321 67.3763 43.0054
internal_count=5832 5754 4991 1753 3238 464 1528 1271 2774 2613 763 257 161 334 703 678 225 130 403 275 171
is_linear=0
shrinkage=0.05


Tree=17
num_leaves=23
num_cat=0
split_feature=82 81 75 19 55 55 33 32 33 7 28 8 1 0 4 0 30 1 15 15 57 3
split_gain=7.50399 4.11791 4.06478 3.56867 2.84907 4.29526 5.24224 3.77869 2.42627 2.09636 1.72873 1.89156 1.00313 0.423805 0.420864 0.408236 0.389705 0.2798 0.202512 0.196417 0.137837 0.0371853
threshold=0.010292499191296873 45.226788331999394 0.68301270189221941 0.44875562728752 0.14812881602053443 0.026360101508540824 0.038853283903620063 -0.0052813639053739632 0.0050161170983661725 -5.4463788145267609 0.088747008422285792 49.699979521046423 43.627100802719305 32.499050771574289 0.86619526363192401 69.76381000472621 0.42207702610525921 25.167234488018533 0.0065501376659401487 0.025319692835987121 3.5000000000000004 -3.7622218896321944
decision_type=2 2 2 2 2 2 2 2 2 2 2 2 2 2 2 2 2 2 2 2 2 2
left_child=1 4 -2 17 5 7 13 8 -1 -5 18 14 -13 -7 -12 -8 21 -4 -6 -18 -3 -11
right_child=2 20 3 9 10 6 15 -9 -10 16 11 12 -14 -15 -16 -17 19 -19 -20 -21 -22 -23
leaf_value=-0.0061912339366490387 -0.054133533306434889 -0.015971350590857414 0.0040358887666138493 -0.028007579296033636 -0.012669698299391933 0.023431120844542689 0.0070392805173846084 -0.017084375358790895 0.0036163565131722311 -0.0040085900107664513 0.021863595729255614 -0.01152272279343414 -0.0017466803422478687 0.035725059383177382 0.0065572448614523819 -0.0048258762859999058 -0.013873378426685524 0.014428990526227993 -0.023196964301283002 -0.0088480170556368039 -0.025988037824170463 -0.0069025723562047272
leaf_weight=68.782521158456802 4.9824461787939063 4.7820513248443612 21.072731494903568 17.18017315864563 13.836231231689455 11.3789289444685 14.48868428170681 24.602283835411072 757.95553256571293 17.124365225434303 5.0542404651641837 29.050055205821991 271.32181487977505 18.258296892046928 40.296486482024193 14.509059518575668 42.617596194148064 9.3488712608814222 6.820178508758544 35.758599907159805 12.187550604343414 31.551325798034668
leaf_count=272 21 19 83 73 55 47 57 99 2981 68 20 116 1068 76 158 57 178 37 28 143 51 125
internal_value=-2.70227e-05 0.00130301 -0.00960288 -0.00833252 0.00162833 0.00312728 0.0162168 0.00222575 0.00280039 -0.0116149 -0.0020946 -0.00125508 -0.00269216 0.0310049 0.0082631 0.00110253 -0.00939831 0.0072298 -0.0161455 -0.0115806 -0.0231653 -0.00588445
internal_weight=1472.96 1293.32 179.636 174.654 1276.35 909.975 58.635 851.34 826.738 144.232 366.379 345.723 300.372 29.6372 45.3507 28.9977 127.052 30.4216 20.6564 78.3762 16.9696 48.6757
internal_count=5832 5104 728 707 5034 3589 237 3352 3253 587 1445 1362 1184 123 178 114 514 120 83 321 70 193
is_linear=0
shrinkage=0.05


Tree=18
num_leaves=23
num_cat=0
split_feature=82 81 75 19 55 55 5 32 33 7 28 8 1 0 4 0 13 1 29 15 57 0
split_gain=6.78695 3.73332 3.72385 3.22867 2.57258 3.90071 4.7934 3.4164 2.18991 1.91985 1.56476 1.70778 0.907092 0.392889 0.381578 0.368561 0.355039 0.253111 0.193863 0.185337 0.127543 0.0250481
threshold=0.010292499191296873 45.226788331999394 0.68301270189221941 0.44875562728752 0.14812881602053443 0.026360101508540824 3.4552446685570932 -0.0052813639053739632 0.0050161170983661725 -5.4463788145267609 0.088747008422285792 49.699979521046423 43.627100802719305 32.499050771574289 0.86619526363192401 69.76381000472621 1.296778385447791 25.167234488018533 0.020564304070811185 0.0065501376659401487 3.5000000000000004 87.711386081426113
decision_type=2 2 2 2 2 2 2 2 2 2 2 2 2 2 2 2 2 2 2 2 2 2
left_child=1 4 -2 17 5 7 13 8 -1 -5 19 14 -13 -7 -12 -8 18 -4 -11 -6 -3 -18
right_child=2 20 3 9 10 6 15 -9 -10 16 11 12 -14 -15 -16 -17 21 -19 -20 -21 -22 -23
leaf_value=-0.0058822702841803964 -0.052002777169297076 -0.015195330412948273 0.0038332019176654433 -0.026811065147485325 -0.012051192136592125 0.022392092614464613 0.0066908609848761085 -0.016267518963829063 0.0034358311500962144 -0.010571219778495844 0.020820512724128458 -0.010961100103168555 -0.0016593803653281445 0.034271940919461029 0.0062306878199136443 -0.0045842727400086788 -0.015736820225648707 0.013721185504298506 -0.0059859095187952396 -0.022139431285814831 -0.024844044148644877 -0.012626084596872948
leaf_weight=68.77570278942585 4.9286409169435492 4.7751346379518518 21.077507808804516 17.052839875221252 13.819470942020418 11.313288912177088 14.481199875473976 24.547208815813065 757.89249412715435 35.610188856720924 5.0423853993415824 29.012564241886139 271.31613059341908 18.085288599133492 40.288256943225861 14.510009676218033 12.818013176321983 9.339808836579321 65.362112134695053 6.7894578874111167 12.113241210579872 13.069505646824837
leaf_count=272 21 19 83 73 55 47 57 99 2981 144 20 116 1068 76 158 57 56 37 259 28 51 55
internal_value=-2.57676e-05 0.00123848 -0.00914314 -0.00793142 0.00154761 0.00297231 0.0154739 0.00211475 0.0026606 -0.0110597 -0.00199055 -0.00119255 -0.00255795 0.0297003 0.0078536 0.00104769 -0.00894236 0.00686936 -0.00760302 -0.0153747 -0.0221159 -0.0141663
internal_weight=1472.02 1292.76 179.259 174.33 1275.87 909.605 58.3898 851.215 826.668 143.913 366.268 345.659 300.329 29.3986 45.3306 28.9912 126.86 30.4173 100.972 20.6089 16.8884 25.8875
internal_count=5832 5104 728 707 5034 3589 237 3352 3253 587 1445 1362 1184 123 178 114 514 120 403 83 70 111
is_linear=0
shrinkage=0.05


Tree=19
num_leaves=21
num_cat=0
split_feature=82 75 81 19 55 20 55 5 56 7 20 55 6 30 1 15 7 3 2 2
split_gain=6.13873 3.41536 3.38475 2.92114 2.32293 3.65617 3.72166 4.0017 2.87878 1.75813 1.24525 1.18371 1.26943 0.325739 0.228986 0.165461 0.117989 0.0336175 0.0318391 0.0282862
threshold=0.010292499191296873 0.68301270189221941 45.226788331999394 0.44875562728752 0.14812881602053443 0.0090998648573902517 0.026360101508540824 3.4552446685570932 1.6963482435582244 -5.4463788145267609 -0.0052457789735060488 1.7583408887875585 50.054626846313489 0.42207702610525921 25.167234488018533 0.025319692835987121 -1.9835383591119429 -3.7622218896321944 -1.7886767496420317 -2.5708949635283855
decision_type=2 2 2 2 2 2 2 2 2 2 2 2 2 2 2 2 2 2 2 2
left_child=2 -2 4 14 5 6 8 -8 -1 -5 19 12 -12 17 -3 -15 -4 -11 -13 -6
right_child=1 3 16 9 10 -7 7 -9 -10 13 11 18 -14 15 -16 -17 -18 -19 -20 -21
leaf_value=0.0030102179238172553 -0.049997578597350455 0.0036407672188527606 -0.023751074955741473 -0.025666269036079117 -0.0097215135811739972 -0.028898265282755627 0.028453257036849085 0.0020429893098821545 -0.0097719947814470694 -0.0035122797433177139 0.0074645394552060283 -0.015760800516833779 -0.0015764465117989132 -0.012623540943221549 0.013048720108318125 -0.0080020020750065646 -0.014457714561776653 -0.0062652612263068693 -0.011463049345590434 -0.012932055757280979
leaf_weight=796.22318102419376 4.8714571297168723 21.081887975335125 12.039057150483133 16.926069691777229 10.870670914649965 8.9927583783864957 29.159170255064964 28.227740466594696 46.628577023744583 17.108807310461998 45.309668347239494 6.2656901776790628 271.31034536659718 42.354846239089966 9.3303245157003385 35.683564960956573 4.7680037766695014 31.517231464385986 13.802529364824295 18.59747052192688
leaf_count=3133 21 83 51 73 44 37 123 111 185 68 178 26 1068 178 37 143 19 125 55 74
internal_value=-2.45748e-05 -0.00870584 0.00117714 -0.00754982 0.0014709 0.00282504 0.00314194 0.0154625 0.00230308 -0.0105313 -0.00189166 -0.00102903 -0.000282643 -0.0085088 0.00652708 -0.0105103 -0.0211146 -0.00529664 -0.0128049 -0.0117477
internal_weight=1471.07 178.874 1292.19 174.003 1275.39 909.231 900.239 57.3869 842.852 143.591 366.156 336.688 316.62 126.664 30.4122 78.0384 16.8071 48.626 20.0682 29.4681
internal_count=5832 728 5104 707 5034 3589 3552 234 3318 587 1445 1327 1246 514 120 321 70 193 81 118
is_linear=0
shrinkage=0.05


Tree=20
num_leaves=19
num_cat=0
split_feature=82 81 13 54 75 13 20 13 72 32 1 80 14 46 16 1 1 1
split_gain=9.6074 4.0487 3.19551 2.88754 3.58526 2.72075 4.62203 3.34133 2.77348 0.963169 0.616052 0.482677 0.400723 0.295948 0.0965053 0.0560704 0.0119076 0.00830172
threshold=0.010292499191296873 45.226788331999394 0.5486391776577455 0.030131350040492198 0.68301270189221941 0.70576998314048278 0.0039291699356171781 0.7150843527971773 1.0000000180025095e-35 -0.020852490932435377 26.375305796720202 4.9776930331537885 -0.034765243717798981 1.0000000180025095e-35 -0.06564930188093758 42.437992679162043 38.976205751789351 68.668144886993488
decision_type=2 2 2 2 2 2 2 2 2 2 2 2 2 2 2 2 2 2
left_child=1 2 -1 4 -2 6 9 -7 -9 -4 -5 -6 -3 14 -13 16 -12 -15
right_child=3 12 5 10 11 7 -8 8 -10 -11 15 13 -14 17 -16 -17 -18 -19
leaf_value=0.034768939548549239 -0.042698782119624738 -0.016153866025153521 0.0040030135153560605 -0.0087903899634845292 0.0056760442939400892 0.02907510113735437 -0.050388564588689233 0.0046444689530167069 -0.011688235801198314 -0.0093982050899084329 -0.019433091214142471 -0.0046491628583109571 -0.033643637256860058 -0.0079043989329092585 0.00014683895916061174 -0.017020268480860301 -0.021369052821512524 -0.0061743923053875788
leaf_weight=8.5218859165906888 5.5197756290435782 10.784475266933439 30.060901030898094 19.262376606464386 19.777502954006195 13.744699120521544 5.4223483353853217 1168.6498985290527 26.583771049976349 24.202383235096931 13.827343598008154 13.630448982119558 4.7033594399690619 16.32863050699234 45.510096594691277 17.283326834440231 18.663488462567329 12.053241014480593
leaf_count=35 24 46 118 76 78 59 22 4603 107 96 61 54 19 65 182 75 76 51
internal_value=0.00243165 0.00394544 0.00425358 -0.0083287 -0.00340017 0.00404861 -0.00637254 0.00456308 0.00428121 -0.00197417 -0.0163829 -0.00137856 -0.0214652 -0.00297269 -0.000958522 -0.0193212 -0.0205452 -0.0071697
internal_weight=1474.53 1292.67 1277.19 181.856 112.82 1268.66 59.6856 1208.98 1195.23 54.2633 69.0365 107.3 15.4878 87.5224 59.1405 49.7742 32.4908 28.3819
internal_count=5847 5105 5040 742 454 5005 236 4769 4710 214 288 430 65 352 236 212 137 116
is_linear=0
shrinkage=0.05


Tree=21
num_leaves=17
num_cat=0
split_feature=34 79 51 70 13 52 1 52 0 19 2 13 0 0 0 0
split_gain=9.36985 3.02644 2.64897 3.4959 2.57111 2.57313 1.38376 0.488956 0.444881 0.178402 0.110913 0.110314 0.106823 0.040084 0.01662 0.00227675
threshold=-0.1239078578460356 8.3183764415101794e-05 0.0070641364191254665 1.5000000000000002 1.6963482435582244 0.37322666829780232 26.375305796720202 0.39474955351580349 1.384666062196054 0.48241356215065373 -2.4888989075064365 0.8759783763473955 8.4139301048839403 87.711386081426113 47.736190291965237 92.45257780707361
decision_type=2 2 2 2 2 2 2 2 2 2 2 2 2 2 2 2
left_child=6 2 7 -4 5 -5 12 -2 -3 -6 -10 -8 -1 -9 -13 -15
right_child=1 8 3 4 9 -7 11 13 10 -11 -12 14 -14 15 -16 -17
leaf_value=-0.0025765326900900275 -0.014240179748675509 0.00037922245246716359 -0.029125000553846172 0.0070681064948343378 -0.0037879990886276077 0.0025036602228185093 -0.022117478866928025 -0.0022789718255310015 -0.017885112533701848 -0.0095433418514487885 -0.011471179427984592 -0.016254228717757623 -0.0083549099488662761 -0.0058753401549282653 -0.01855307522105739 -0.004859023906944121
leaf_weight=13.682100951671599 16.125385329127312 6.6257673949003211 7.8562231063842765 621.69785326719284 31.565912306308746 613.41228578984737 19.083285868167877 18.947035193443298 11.189644530415533 23.480614796280861 16.950784534215931 17.195269465446472 19.253298938274384 12.033909678459167 14.485714182257654 10.16563868522644
leaf_count=54 65 26 33 2462 124 2415 78 75 48 94 67 75 76 51 64 40
internal_value=0.0023112 0.0032895 0.00366316 0.00412749 0.00432998 0.00480119 -0.013936 -0.00686036 -0.0112771 -0.00624299 -0.0140216 -0.0191143 -0.00595444 -0.00396821 -0.0173053 -0.00540995
internal_weight=1473.75 1390.05 1355.28 1298.01 1290.16 1235.11 83.6997 57.272 34.7662 55.0465 28.1404 50.7643 32.9354 41.1466 31.681 22.1995
internal_count=5847 5500 5359 5128 5095 4877 347 231 141 218 115 217 130 166 139 91
is_linear=0
shrinkage=0.05


Tree=22
num_leaves=17
num_cat=0
split_feature=34 79 51 70 56 52 7 52 0 19 2 46 0 0 0 0
split_gain=8.47595 2.73482 2.39175 3.17197 2.32088 2.32377 1.2645 0.442848 0.403292 0.161574 0.102402 0.0989456 0.0965576 0.0362646 0.0153165 0.00208763
threshold=-0.1239078578460356 8.3183764415101794e-05 0.0070641364191254665 1.5000000000000002 1.6963482435582244 0.37322666829780232 -8.2766683754207051 0.39474955351580349 1.384666062196054 0.48241356215065373 -2.4888989075064365 -0.014214094294560329 8.4139301048839403 87.711386081426113 47.736190291965237 92.45257780707361
decision_type=2 2 2 2 2 2 2 2 2 2 2 2 2 2 2 2
left_child=6 2 7 -4 5 -5 12 -2 -3 -6 -10 14 -1 -9 -8 -15
right_child=1 8 3 4 9 -7 11 13 10 -11 -12 -13 -14 15 -16 -17
leaf_value=-0.0024471795571531399 -0.013555385259422684 0.00036026169274637926 -0.027859644287584435 0.0067163252229996001 -0.0035982673012705749 0.0023784439204398915 -0.015520964331994229 -0.0021654256959631581 -0.017079047330661047 -0.0090771953615659297 -0.010905836432963528 -0.021100237516206145 -0.0079411048743866473 -0.0055904238230689461 -0.017733938700881802 -0.0046168465769666272
leaf_weight=13.684962749481199 16.093833431601524 6.6257284581661215 7.8037518560886374 621.5513997823 31.568764805793762 613.42116080224514 17.109494805335999 18.943625420331955 11.13333225250244 23.452826499938965 16.938335925340656 19.005156219005585 19.243987739086151 12.015344887971878 14.399323657155039 10.163978606462479
leaf_count=54 65 26 33 2462 124 2415 75 75 48 94 67 78 76 51 64 40
internal_value=0.0021964 0.00312574 0.00348067 0.00392175 0.00411401 0.00456166 -0.0132813 -0.00652388 -0.0107353 -0.00593365 -0.0133542 -0.0182509 -0.00565788 -0.00377204 -0.0165323 -0.00514427
internal_weight=1473.16 1389.71 1355.01 1297.8 1289.99 1234.97 83.4429 57.2168 34.6974 55.0216 28.0717 50.514 32.929 41.1229 31.5088 22.1793
internal_count=5847 5500 5359 5128 5095 4877 347 231 141 218 115 217 130 166 139 91
is_linear=0
shrinkage=0.05


Tree=23
num_leaves=19
num_cat=0
split_feature=34 79 82 65 28 32 34 80 0 1 2 5 0 57 2 13 0 0
split_gain=7.66715 2.47128 2.28392 2.71837 2.32016 2.00635 3.20571 1.82844 1.36464 1.15528 0.647508 0.490977 0.365575 0.316194 0.0944737 0.08885 0.087278 0.0141106
threshold=-0.1239078578460356 8.3183764415101794e-05 0.010292499191296873 4.5000000000000009 0.086307112536960121 -0.0052813639053739632 -0.028350151897924131 5.2316322949712317 49.234246280737786 26.375305796720202 -0.95067308267390838 4.2438047733174775 1.384666062196054 3.5000000000000004 -2.4888989075064365 0.8759783763473955 8.4139301048839403 47.736190291965237
decision_type=2 2 2 2 2 2 2 2 2 2 2 2 2 2 2 2 2 2
left_child=9 2 4 11 8 6 -6 -7 10 16 -2 13 -3 -4 -14 -11 -1 -17
right_child=1 12 3 -5 5 7 -8 -9 -10 15 -12 -13 14 -15 -16 17 -18 -19
leaf_value=-0.0023243562953329808 0.014768195502657986 0.00034225377540601012 -0.0066368303163682925 -0.038955332619965456 0.0046948306941790481 -0.0085214337000794425 0.016400797433156967 0.0024550881930293241 -0.01800257071743749 -0.020130422855292589 -0.0034159555621873778 0.005144685612513006 -0.016307801683066732 -0.00038855881713245269 -0.010368619518172612 -0.014819034651316461 -0.0075478566129228708 -0.016948863649647369
leaf_weight=13.687639355659483 5.6214031726121894 6.6256906837224951 42.201834484934807 5.209458276629447 860.88890609145164 45.88077400624752 62.748538941144943 219.19279380142689 16.369127839803696 18.926761344075203 37.912300571799278 19.790099635720253 11.078304052352903 38.921206772327423 16.925481528043751 17.026092931628227 19.234522879123688 14.315182536840441
leaf_count=54 23 26 171 23 3396 184 253 860 66 78 149 78 48 156 67 75 76 64
internal_value=0.00208732 0.00297015 0.0033073 -0.00373466 0.00390581 0.00438965 0.00549009 0.000555196 -0.00569548 -0.012657 -0.00106788 -0.00191646 -0.0102193 -0.00363904 -0.0127182 -0.0174254 -0.00537615 -0.0157918
internal_weight=1472.56 1389.37 1354.74 106.123 1248.61 1188.71 923.637 265.074 59.9028 83.1902 43.5337 100.913 34.6295 81.123 28.0038 50.268 32.9222 31.3413
internal_count=5847 5500 5359 428 4931 4693 3649 1044 238 347 172 405 141 327 115 217 130 139
is_linear=0
shrinkage=0.05


Tree=24
num_leaves=21
num_cat=0
split_feature=34 52 8 56 18 46 26 18 1 2 5 4 23 20 26 46 1 1 5 20
split_gain=6.93552 2.32325 2.28565 3.81761 2.58946 2.41159 3.00747 2.40124 1.05524 1.0464 1.01435 0.995158 0.883801 0.794759 0.347825 0.0798651 0.0788899 0.0221155 0.0129944 0.00490641
threshold=-0.1239078578460356 1.1041397754309046 31.432754084568991 0.5486391776577455 0.024509062615672431 -0.0064152695821232944 1.0000000180025095e-35 0.017923302592083194 26.375305796720202 -0.12402524526051172 3.5314772102663952 2.2905959501177029 1.0000000180025095e-35 -0.0051378025932120363 1.0000000180025095e-35 -0.014214094294560329 24.211905136129676 48.830967755471541 5.5942057851869533 -1.0000000180025095e-35
decision_type=2 2 2 2 2 2 2 2 2 2 2 2 2 2 2 2 2 2 2 2
left_child=8 2 5 -4 7 12 13 -5 16 -6 -8 14 -2 -7 -3 18 -1 -16 -10 -19
right_child=1 11 3 4 9 6 10 -9 15 -11 -12 -13 -14 -15 17 -17 -18 19 -20 -21
leaf_value=-0.0071741213597849964 -0.038491822255391904 0.0030261601261387769 0.044033784863807199 0.0038733766658353035 -0.027214724735444413 -0.018959989940258288 0.027425880506556657 0.018653789637699987 -0.014147115583447643 -0.0052322343878096651 0.0067579513987093545 -0.015671198798022062 -0.013062576716382477 -0.0042574298378300172 -0.007024472515431545 -0.019205360451892247 -0.0022077231019552892 -0.00499634145203901 -0.01619638536362903 -0.0033180934590516529
leaf_weight=19.224970996379852 5.0468691438436482 18.910827234387398 5.9282664060592642 1106.8207982331514 6.5246387720108023 10.607292145490645 7.0839216262102118 28.178675442934036 16.945130378007889 31.790883332490921 36.652099639177322 19.336746349930763 10.579374000430107 68.867565542459488 13.741678699851034 18.848517715930939 13.690144866704939 11.97618545591831 14.233379498124124 6.8436689525842693
leaf_count=76 22 75 25 4358 27 43 28 118 75 127 145 78 46 274 54 78 54 51 64 29
internal_value=0.00198382 0.00282257 0.00329655 0.00401097 0.00380875 -0.00277155 -0.000424776 0.00424033 -0.0120613 -0.00897557 0.0101055 -0.0060003 -0.0212756 -0.00621974 -0.00236721 -0.0166359 -0.00510848 -0.00549953 -0.0150826 -0.00438606
internal_weight=1471.83 1388.89 1318.08 1179.24 1173.31 138.837 123.211 1135 82.9421 38.3155 43.736 70.8091 15.6262 79.4749 51.4724 50.027 32.9151 32.5615 31.1785 18.8199
internal_count=5847 5500 5213 4655 4630 558 490 4476 347 154 173 287 68 317 209 217 130 134 139 80
is_linear=0
shrinkage=0.05


end of trees

feature_importances:
rsi_2=68
rsi_7=38
roc_5=38
natr_7=31
atr_7=29
cs_spread=27
return_1d_lag5=24
roc_10=23
return_skew_5d=21
vol_ratio_10=16
day_of_month=15
kyle_lambda_approx=15
price_impact_ratio=15
return_skew_10d=14
return_1d=12
ibs=11
gap_pct=11
dist_from_10d_high=11
month_sin=11
lower_shadow_pct=10
sma_10=9
month=9
relative_spread=9
upper_shadow_pct=8
dist_from_5d_high=8
dist_from_5d_low=8
sma_10_dist=7
return_1d_lag2=7
return_std_5d=7
day_of_week=7
obv=5
return_2d=5
volume_turnover_5d=5
ema_9=4
lower_low=4
body_pct=4
return_std_10d=4
ema_21=3
higher_high=3
return_1d_lag1=3
volume_vs_avg_10d=3
quarter=3
month_cos=3
amihud_illiq_5d=3
return_3d=2
return_5d=2
return_10d=2
inside_bar=2
hh_streak=2
dist_from_10d_low=2
return_lag5=2
return_mean_5d=2
ema_50=1
outside_bar=1
close_lag1=1
return_lag1=1
return_mean_10d=1
is_may_to_oct=1
is_quarter_end_month=1
is_month_start=1
day_sin=1
amihud_illiq_10d=1

parameters:
[boosting: gbdt]
[objective: binary]
[metric: binary_logloss,auc]
[tree_learner: serial]
[device_type: cpu]
[data_sample_strategy: bagging]
[data: ]
[valid: ]
[num_iterations: 300]
[learning_rate: 0.05]
[num_leaves: 63]
[num_threads: 0]
[seed: 42]
[deterministic: 0]
[force_col_wise: 0]
[force_row_wise: 0]
[histogram_pool_size: -1]
[max_depth: 6]
[min_data_in_leaf: 20]
[min_sum_hessian_in_leaf: 0.001]
[bagging_fraction: 0.8]
[pos_bagging_fraction: 1]
[neg_bagging_fraction: 1]
[bagging_freq: 5]
[bagging_seed: 400]
[bagging_by_query: 0]
[feature_fraction: 0.8]
[feature_fraction_bynode: 1]
[feature_fraction_seed: 30056]
[extra_trees: 0]
[extra_seed: 12879]
[early_stopping_round: 0]
[early_stopping_min_delta: 0]
[first_metric_only: 0]
[max_delta_step: 0]
[lambda_l1: 0]
[lambda_l2: 0]
[linear_lambda: 0]
[min_gain_to_split: 0]
[drop_rate: 0.1]
[max_drop: 50]
[skip_drop: 0.5]
[xgboost_dart_mode: 0]
[uniform_drop: 0]
[drop_seed: 17869]
[top_rate: 0.2]
[other_rate: 0.1]
[min_data_per_group: 100]
[max_cat_threshold: 32]
[cat_l2: 10]
[cat_smooth: 10]
[max_cat_to_onehot: 4]
[top_k: 20]
[monotone_constraints: ]
[monotone_constraints_method: basic]
[monotone_penalty: 0]
[feature_contri: ]
[forcedsplits_filename: ]
[refit_decay_rate: 0.9]
[cegb_tradeoff: 1]
[cegb_penalty_split: 0]
[cegb_penalty_feature_lazy: ]
[cegb_penalty_feature_coupled: ]
[path_smooth: 0]
[interaction_constraints: ]
[verbosity: -1]
[saved_feature_importance_type: 0]
[use_quantized_grad: 0]
[num_grad_quant_bins: 4]
[quant_train_renew_leaf: 0]
[stochastic_rounding: 1]
[linear_tree: 0]
[max_bin: 255]
[max_bin_by_feature: ]
[min_data_in_bin: 3]
[bin_construct_sample_cnt: 200000]
[data_random_seed: 175]
[is_enable_sparse: 1]
[enable_bundle: 1]
[use_missing: 1]
[zero_as_missing: 0]
[feature_pre_filter: 1]
[pre_partition: 0]
[two_round: 0]
[header: 0]
[label_column: ]
[weight_column: ]
[group_column: ]
[ignore_column: ]
[categorical_feature: ]
[forcedbins_filename: ]
[precise_float_parser: 0]
[parser_config_file: ]
[objective_seed: 16083]
[num_class: 1]
[is_unbalance: 0]
[scale_pos_weight: 1.03918]
[sigmoid: 1]
[boost_from_average: 1]
[reg_sqrt: 0]
[alpha: 0.9]
[fair_c: 1]
[poisson_max_delta_step: 0.7]
[tweedie_variance_power: 1.5]
[lambdarank_truncation_level: 30]
[lambdarank_norm: 1]
[label_gain: ]
[lambdarank_position_bias_regularization: 0]
[eval_at: ]
[multi_error_top_k: 1]
[auc_mu_weights: ]
[num_machines: 1]
[local_listen_port: 12400]
[time_out: 120]
[machine_list_filename: ]
[machines: ]
[gpu_platform_id: -1]
[gpu_device_id: -1]
[gpu_use_dp: 0]
[num_gpu: 1]

end of parameters

pandas_categorical:null
