{"learner":{"attributes":{"best_iteration":"0","best_score":"0.9999524869747647"},"feature_names":["rsi_2","rsi_14","ibs","atr_pct","bb_percentile","sma_20_200_ratio","volume_ratio","adv_60","sweep_strength","don_position","near_20d_low","down_streak","vix","spy_ret_5d","regime_bull","regime_bear"],"feature_types":[],"gradient_booster":{"model":{"cats":{"enc":[],"feature_segments":[],"sorted_idx":[]},"gbtree_model_param":{"num_parallel_tree":"1","num_trees":"51"},"iteration_indptr":[0,1,2,3,4,5,6,7,8,9,10,11,12,13,14,15,16,17,18,19,20,21,22,23,24,25,26,27,28,29,30,31,32,33,34,35,36,37,38,39,40,41,42,43,44,45,46,47,48,49,50,51],"tree_info":[0,0,0,0,0,0,0,0,0,0,0,0,0,0,0,0,0,0,0,0,0,0,0,0,0,0,0,0,0,0,0,0,0,0,0,0,0,0,0,0,0,0,0,0,0,0,0,0,0,0,0],"trees":[{"base_weights":[1.0803914E-9,1.7175026E0,-1.9935316E0,1.952875E0,-9.976048E-2,-1.998473E0,8.816197E-2,-9.748428E-2,1.9762979E0,5.621767E-2,-9.996631E-2,1.8590066E0,9.998163E-2,9.969172E-2,1.4747732E0,9.929698E-2,4.870267E-2],"categories":[],"categories_nodes":[],"categories_segments":[],"categories_sizes":[],"default_left":[0,0,0,0,0,0,0,0,0,0,0,0,0,0,0,0,0],"id":0,"left_children":[1,3,5,7,-1,9,-1,-1,11,-1,-1,13,-1,-1,15,-1,-1],"loss_changes":[4.4582547E4,6.1164043E3,1.15396484E2,6.05166E2,0E0,1.828125E1,0E0,0E0,1.41796875E1,0E0,0E0,5.4011475E1,0E0,0E0,7.213751E1,0E0,0E0],"parents":[2147483647,0,0,1,1,2,2,3,3,5,5,8,8,11,11,14,14],"right_children":[2,4,6,8,-1,10,-1,-1,12,-1,-1,14,-1,-1,16,-1,-1],"split_conditions":[1.9967794E-1,2.5204159E1,5.065192E-1,2.9829535E-1,-9.976048E-2,8.975058E0,8.816197E-2,-9.748428E-2,4.9927032E-1,5.621767E-2,-9.996631E-2,1.5161183E-1,9.998163E-2,9.969172E-2,1.5056756E1,9.929698E-2,4.870267E-2],"split_indices":[2,0,8,8,0,0,0,0,8,0,0,2,0,0,0,0,0],"split_type":[0,0,0,0,0,0,0,0,0,0,0,0,0,0,0,0,0],"sum_hessian":[1.3019E4,6.993755E3,6.025245E3,6.577255E3,4.165E2,6.017798E3,7.447353E0,3.875E1,6.538505E3,1.2840264E0,6.0165137E3,1.0983422E3,5.440163E3,8.099434E2,2.8839874E2,1.412429E2,1.4715585E2],"tree_param":{"num_deleted":"0","num_feature":"16","num_nodes":"17","size_leaf_vector":"1"}},{"base_weights":[1.4575895E-5,1.6357288E0,-1.8986635E0,1.8599044E0,-9.5024005E-2,-1.9033858E0,8.4422655E-2,-9.295138E-2,1.8822277E0,5.466214E-2,-9.521042E-2,1.7702893E0,9.522517E-2,9.495263E-2,1.4036996E0,9.460225E-2,4.6311725E-2],"categories":[],"categories_nodes":[],"categories_segments":[],"categories_sizes":[],"default_left":[0,0,0,0,0,0,0,0,0,0,0,0,0,0,0,0,0],"id":1,"left_children":[1,3,5,7,-1,9,-1,-1,11,-1,-1,13,-1,-1,15,-1,-1],"loss_changes":[4.033936E4,5.534908E3,1.0503711E2,5.4828125E2,0E0,1.6882812E1,0E0,0E0,1.2894531E1,0E0,0E0,4.9111572E1,0E0,0E0,6.562457E1,0E0,0E0],"parents":[2147483647,0,0,1,1,2,2,3,3,5,5,8,8,11,11,14,14],"right_children":[2,4,6,8,-1,10,-1,-1,12,-1,-1,14,-1,-1,16,-1,-1],"split_conditions":[1.9967794E-1,2.5204159E1,5.065192E-1,2.9829535E-1,-9.5024005E-2,8.975058E0,8.4422655E-2,-9.295138E-2,4.9927032E-1,5.466214E-2,-9.521042E-2,1.5161183E-1,9.522517E-2,9.495263E-2,1.5056756E1,9.460225E-2,4.6311725E-2],"split_indices":[2,0,8,8,0,0,0,0,8,0,0,2,0,0,0,0,0],"split_type":[0,0,0,0,0,0,0,0,0,0,0,0,0,0,0,0,0],"sum_hessian":[1.2986835E4,6.976612E3,6.0102236E3,6.561146E3,4.1546542E2,6.002791E3,7.4329004E0,3.8658085E1,6.5224883E3,1.2830124E0,6.001508E3,1.0958983E3,5.42659E3,8.079344E2,2.8796393E2,1.4089531E2,1.4706862E2],"tree_param":{"num_deleted":"0","num_feature":"16","num_nodes":"17","size_leaf_vector":"1"}},{"base_weights":[2.6987269E-5,1.5649596E0,-1.816705E0,1.7794389E0,-9.09302E-2,-1.8212408E0,8.11029E-2,-8.9011975E-2,1.8008126E0,5.3195883E-2,-9.1101944E-2,1.6927903E0,9.111631E-2,9.0856165E-2,1.3398006E0,9.0539984E-2,4.4086248E-2],"categories":[],"categories_nodes":[],"categories_segments":[],"categories_sizes":[],"default_left":[0,0,0,0,0,0,0,0,0,0,0,0,0,0,0,0,0],"id":2,"left_children":[1,3,5,7,-1,9,-1,-1,11,-1,-1,13,-1,-1,15,-1,-1],"loss_changes":[3.6672555E4,5.0321543E3,9.605859E1,4.9905078E2,0E0,1.5666016E1,0E0,0E0,1.1974609E1,0E0,0E0,4.5406006E1,0E0,0E0,6.04859E1,0E0,0E0],"parents":[2147483647,0,0,1,1,2,2,3,3,5,5,8,8,11,11,14,14],"right_children":[2,4,6,8,-1,10,-1,-1,12,-1,-1,14,-1,-1,16,-1,-1],"split_conditions":[1.9967794E-1,2.5204159E1,5.065192E-1,2.9829535E-1,-9.09302E-2,8.975058E0,8.11029E-2,-8.9011975E-2,4.9927032E-1,5.3195883E-2,-9.1101944E-2,1.5161183E-1,9.111631E-2,9.0856165E-2,1.5056756E1,9.0539984E-2,4.4086248E-2],"split_indices":[2,0,8,8,0,0,0,0,8,0,0,2,0,0,0,0,0],"split_type":[0,0,0,0,0,0,0,0,0,0,0,0,0,0,0,0,0],"sum_hessian":[1.2896958E4,6.928708E3,5.9682495E3,6.516134E3,4.1257422E2,5.9608574E3,7.392171E0,3.840079E1,6.477733E3,1.2800878E0,5.9595776E3,1.0890679E3,5.388665E3,8.023201E2,2.8674783E2,1.399236E2,1.4682422E2],"tree_param":{"num_deleted":"0","num_feature":"16","num_nodes":"17","size_leaf_vector":"1"}},{"base_weights":[3.7990452E-5,1.503154E0,-1.7452534E0,1.7091593E0,-8.735979E-2,-1.7496295E0,7.8135304E-2,-8.555871E-2,1.7297055E0,5.181117E-2,-8.752039E-2,1.6244652E0,8.753458E-2,8.728292E-2,1.2818906E0,8.699336E-2,4.2006873E-2],"categories":[],"categories_nodes":[],"categories_segments":[],"categories_sizes":[],"default_left":[0,0,0,0,0,0,0,0,0,0,0,0,0,0,0,0,0],"id":3,"left_children":[1,3,5,7,-1,9,-1,-1,11,-1,-1,13,-1,-1,15,-1,-1],"loss_changes":[3.3475137E4,4.5935693E3,8.820703E1,4.560703E2,0E0,1.46015625E1,0E0,0E0,1.13125E1,0E0,0E0,4.2581787E1,0E0,0E0,5.6373505E1,0E0,0E0],"parents":[2147483647,0,0,1,1,2,2,3,3,5,5,8,8,11,11,14,14],"right_children":[2,4,6,8,-1,10,-1,-1,12,-1,-1,14,-1,-1,16,-1,-1],"split_conditions":[1.9967794E-1,2.5204159E1,5.065192E-1,2.9829535E-1,-8.735979E-2,8.975058E0,7.8135304E-2,-8.555871E-2,4.9927032E-1,5.181117E-2,-8.752039E-2,1.5161183E-1,8.753458E-2,8.728292E-2,1.5056756E1,8.699336E-2,4.2006873E-2],"split_indices":[2,0,8,8,0,0,0,0,8,0,0,2,0,0,0,0,0],"split_type":[0,0,0,0,0,0,0,0,0,0,0,0,0,0,0,0,0],"sum_hessian":[1.2758331E4,6.85482E3,5.903511E3,6.4467056E3,4.081143E2,5.896182E3,7.328804E0,3.800323E1,6.408702E3,1.2754233E0,5.8949067E3,1.0785308E3,5.3301714E3,7.9366034E2,2.8487045E2,1.3842413E2,1.464463E2],"tree_param":{"num_deleted":"0","num_feature":"16","num_nodes":"17","size_leaf_vector":"1"}},{"base_weights":[4.7639583E-5,1.4487458E0,-1.6824706E0,1.6472862E0,-8.422137E-2,-1.6867086E0,7.546596E-2,-8.2508646E-2,1.6671054E0,5.0501045E-2,-8.437356E-2,1.563734E0,8.438768E-2,8.433114E-2,1.2388897E0,8.390283E-2,4.0585518E-2],"categories":[],"categories_nodes":[],"categories_segments":[],"categories_sizes":[],"default_left":[0,0,0,0,0,0,0,0,0,0,0,0,0,0,0,0,0],"id":4,"left_children":[1,3,5,7,-1,9,-1,-1,11,-1,-1,13,-1,-1,15,-1,-1],"loss_changes":[3.0665164E4,4.2079834E3,8.12793E1,4.1825195E2,0E0,1.3662109E1,0E0,0E0,1.08515625E1,0E0,0E0,4.046045E1,0E0,0E0,5.4227966E1,0E0,0E0],"parents":[2147483647,0,0,1,1,2,2,3,3,5,5,8,8,11,11,14,14],"right_children":[2,4,6,8,-1,10,-1,-1,12,-1,-1,14,-1,-1,16,-1,-1],"split_conditions":[1.9967794E-1,2.5204159E1,5.065192E-1,2.9829535E-1,-8.422137E-2,8.975058E0,7.546596E-2,-8.2508646E-2,4.9927032E-1,5.0501045E-2,-8.437356E-2,1.4885153E-1,8.438768E-2,8.433114E-2,1.5056756E1,8.390283E-2,4.0585518E-2],"split_indices":[2,0,8,8,0,0,0,0,8,0,0,2,0,0,0,0,0],"split_type":[0,0,0,0,0,0,0,0,0,0,0,0,0,0,0,0,0],"sum_hessian":[1.257878E4,6.759118E3,5.8196626E3,6.356781E3,4.023371E2,5.8124165E3,7.2460566E0,3.7487465E1,6.3192935E3,1.2691807E0,5.811147E3,1.0648806E3,5.254413E3,7.695628E2,2.9531772E2,1.4417189E2,1.5114583E2],"tree_param":{"num_deleted":"0","num_feature":"16","num_nodes":"17","size_leaf_vector":"1"}},{"base_weights":[5.637575E-5,1.4005135E0,-1.6269245E0,1.5924312E0,-8.1443705E-2,-1.6310426E0,7.3051155E-2,-7.9796635E-2,1.6116076E0,4.9259312E-2,-8.158965E-2,1.5093464E0,8.160381E-2,8.136418E-2,1.1802038E0,8.110723E-2,3.820011E-2],"categories":[],"categories_nodes":[],"categories_segments":[],"categories_sizes":[],"default_left":[0,0,0,0,0,0,0,0,0,0,0,0,0,0,0,0,0],"id":5,"left_children":[1,3,5,7,-1,9,-1,-1,11,-1,-1,13,-1,-1,15,-1,-1],"loss_changes":[2.817877E4,3.8666826E3,7.513281E1,3.8475E2,0E0,1.2822266E1,0E0,0E0,1.0543945E1,0E0,0E0,3.8824707E1,0E0,0E0,5.0360413E1,0E0,0E0],"parents":[2147483647,0,0,1,1,2,2,3,3,5,5,8,8,11,11,14,14],"right_children":[2,4,6,8,-1,10,-1,-1,12,-1,-1,14,-1,-1,16,-1,-1],"split_conditions":[1.9967794E-1,2.5204159E1,5.065192E-1,2.9829535E-1,-8.1443705E-2,8.975058E0,7.3051155E-2,-7.9796635E-2,4.9927032E-1,4.9259312E-2,-8.158965E-2,1.5161183E-1,8.160381E-2,8.136418E-2,1.5056756E1,8.110723E-2,3.820011E-2],"split_indices":[2,0,8,8,0,0,0,0,8,0,0,2,0,0,0,0,0],"split_type":[0,0,0,0,0,0,0,0,0,0,0,0,0,0,0,0,0],"sum_hessian":[1.2365153E4,6.645254E3,5.7198994E3,6.2497915E3,3.9546246E2,5.7127524E3,7.146846E0,3.6872852E1,6.212919E3,1.2615137E0,5.711491E3,1.0486431E3,5.164276E3,7.69113E2,2.7953012E2,1.3416765E2,1.4536246E2],"tree_param":{"num_deleted":"0","num_feature":"16","num_nodes":"17","size_leaf_vector":"1"}},{"base_weights":[6.4254426E-5,1.3574926E0,-1.5774829E0,1.5434986E0,-7.897047E-2,-1.5814966E0,7.08551E-2,-7.737077E-2,1.5621029E0,4.8080366E-2,-7.911186E-2,1.4603275E0,7.912617E-2,7.9075135E-2,1.1447148E0,7.8672595E-2,3.6954124E-2],"categories":[],"categories_nodes":[],"categories_segments":[],"categories_sizes":[],"default_left":[0,0,0,0,0,0,0,0,0,0,0,0,0,0,0,0,0],"id":6,"left_children":[1,3,5,7,-1,9,-1,-1,11,-1,-1,13,-1,-1,15,-1,-1],"loss_changes":[2.5965457E4,3.5627754E3,6.964453E1,3.5490137E2,0E0,1.20703125E1,0E0,0E0,1.0353516E1,0E0,0E0,3.762964E1,0E0,0E0,4.922159E1,0E0,0E0],"parents":[2147483647,0,0,1,1,2,2,3,3,5,5,8,8,11,11,14,14],"right_children":[2,4,6,8,-1,10,-1,-1,12,-1,-1,14,-1,-1,16,-1,-1],"split_conditions":[1.9967794E-1,2.5204159E1,5.065192E-1,2.9829535E-1,-7.897047E-2,8.975058E0,7.08551E-2,-7.737077E-2,4.9927032E-1,4.8080366E-2,-7.911186E-2,1.4885153E-1,7.912617E-2,7.9075135E-2,1.5056756E1,7.8672595E-2,3.6954124E-2],"split_indices":[2,0,8,8,0,0,0,0,8,0,0,2,0,0,0,0,0],"split_type":[0,0,0,0,0,0,0,0,0,0,0,0,0,0,0,0,0],"sum_hessian":[1.2123418E4,6.5164033E3,5.6070146E3,6.1287207E3,3.8768274E2,5.599981E3,7.0337725E0,3.6176403E1,6.0925444E3,1.2525672E0,5.5987285E3,1.0302606E3,5.0622837E3,7.4154407E2,2.8871658E2,1.3896121E2,1.4975539E2],"tree_param":{"num_deleted":"0","num_feature":"16","num_nodes":"17","size_leaf_vector":"1"}},{"base_weights":[7.17419E-5,1.3189058E0,-1.5332388E0,1.499605E0,-7.6756455E-2,-1.537161E0,6.884825E-2,-7.518919E-2,1.5176973E0,4.6959206E-2,-7.689472E-2,1.4158653E0,7.690927E-2,7.685713E-2,1.10285E0,7.64641E-2,3.530707E-2],"categories":[],"categories_nodes":[],"categories_segments":[],"categories_sizes":[],"default_left":[0,0,0,0,0,0,0,0,0,0,0,0,0,0,0,0,0],"id":7,"left_children":[1,3,5,7,-1,9,-1,-1,11,-1,-1,13,-1,-1,15,-1,-1],"loss_changes":[2.3984727E4,3.2907295E3,6.471777E1,3.2816113E2,0E0,1.1390625E1,0E0,0E0,1.0259766E1,0E0,0E0,3.6689453E1,0E0,0E0,4.728598E1,0E0,0E0],"parents":[2147483647,0,0,1,1,2,2,3,3,5,5,8,8,11,11,14,14],"right_children":[2,4,6,8,-1,10,-1,-1,12,-1,-1,14,-1,-1,16,-1,-1],"split_conditions":[1.9967794E-1,2.5204159E1,5.065192E-1,2.9829535E-1,-7.6756455E-2,8.975058E0,6.884825E-2,-7.518919E-2,4.9927032E-1,4.6959206E-2,-7.689472E-2,1.4885153E-1,7.690927E-2,7.685713E-2,1.5056756E1,7.64641E-2,3.530707E-2],"split_indices":[2,0,8,8,0,0,0,0,8,0,0,2,0,0,0,0,0],"split_type":[0,0,0,0,0,0,0,0,0,0,0,0,0,0,0,0,0],"sum_hessian":[1.18588125E4,6.375363E3,5.4834497E3,5.996197E3,3.7916602E2,5.476541E3,6.909154E0,3.541304E1,5.9607837E3,1.242477E0,5.4752983E3,1.0101404E3,4.9506436E3,7.252378E2,2.849026E2,1.359315E2,1.489711E2],"tree_param":{"num_deleted":"0","num_feature":"16","num_nodes":"17","size_leaf_vector":"1"}},{"base_weights":[7.855671E-5,1.284124E0,-1.4934559E0,1.460035E0,-7.476501E-2,-1.4972979E0,6.7005955E-2,-7.321774E-2,1.4776673E0,4.5891277E-2,-7.4901305E-2,1.3753132E0,7.4916154E-2,7.467999E-2,1.0541657E0,7.4446574E-2,3.325149E-2],"categories":[],"categories_nodes":[],"categories_segments":[],"categories_sizes":[],"default_left":[0,0,0,0,0,0,0,0,0,0,0,0,0,0,0,0,0],"id":8,"left_children":[1,3,5,7,-1,9,-1,-1,11,-1,-1,13,-1,-1,15,-1,-1],"loss_changes":[2.2203701E4,3.0460547E3,6.0276367E1,3.040957E2,0E0,1.0776367E1,0E0,0E0,1.0245117E1,0E0,0E0,3.6018677E1,0E0,0E0,4.4652893E1,0E0,0E0],"parents":[2147483647,0,0,1,1,2,2,3,3,5,5,8,8,11,11,14,14],"right_children":[2,4,6,8,-1,10,-1,-1,12,-1,-1,14,-1,-1,16,-1,-1],"split_conditions":[1.9967794E-1,2.5204159E1,5.065192E-1,2.9829535E-1,-7.476501E-2,8.975058E0,6.7005955E-2,-7.321774E-2,4.9927032E-1,4.5891277E-2,-7.4901305E-2,1.5161183E-1,7.4916154E-2,7.467999E-2,1.5056756E1,7.4446574E-2,3.325149E-2],"split_indices":[2,0,8,8,0,0,0,0,8,0,0,2,0,0,0,0,0],"split_type":[0,0,0,0,0,0,0,0,0,0,0,0,0,0,0,0,0],"sum_hessian":[1.1575899E4,6.2245605E3,5.351339E3,5.854501E3,3.7005927E2,5.3445635E3,6.7750483E0,3.4595848E1,5.8199053E3,1.2313707E0,5.343332E3,9.886237E2,4.8312817E3,7.198384E2,2.6878534E2,1.256148E2,1.4317053E2],"tree_param":{"num_deleted":"0","num_feature":"16","num_nodes":"17","size_leaf_vector":"1"}},{"base_weights":[8.506497E-5,1.2526298E0,-1.4575306E0,1.4242008E0,-7.296605E-2,-1.4613023E0,6.530749E-2,-7.1428224E-2,1.4414178E0,4.4872515E-2,-7.3101364E-2,1.3381304E0,7.3116586E-2,7.306574E-2,1.0267726E0,7.267841E-2,3.2232672E-2],"categories":[],"categories_nodes":[],"categories_segments":[],"categories_sizes":[],"default_left":[0,0,0,0,0,0,0,0,0,0,0,0,0,0,0,0,0],"id":9,"left_children":[1,3,5,7,-1,9,-1,-1,11,-1,-1,13,-1,-1,15,-1,-1],"loss_changes":[2.0595438E4,2.8250635E3,5.6251953E1,2.823457E2,0E0,1.0214844E1,0E0,0E0,1.0297852E1,0E0,0E0,3.5588745E1,0E0,0E0,4.431839E1,0E0,0E0],"parents":[2147483647,0,0,1,1,2,2,3,3,5,5,8,8,11,11,14,14],"right_children":[2,4,6,8,-1,10,-1,-1,12,-1,-1,14,-1,-1,16,-1,-1],"split_conditions":[1.9967794E-1,2.5204159E1,5.065192E-1,2.9829535E-1,-7.296605E-2,8.975058E0,6.530749E-2,-7.1428224E-2,4.9927032E-1,4.4872515E-2,-7.3101364E-2,1.4885153E-1,7.3116586E-2,7.306574E-2,1.5056756E1,7.267841E-2,3.2232672E-2],"split_indices":[2,0,8,8,0,0,0,0,8,0,0,2,0,0,0,0,0],"split_type":[0,0,0,0,0,0,0,0,0,0,0,0,0,0,0,0,0],"sum_hessian":[1.1278665E4,6.0661226E3,5.212543E3,5.7056313E3,3.6049084E2,5.2059097E3,6.633284E0,3.3736286E1,5.6718955E3,1.2193663E0,5.2046904E3,9.660137E2,4.705882E3,6.895208E2,2.7649286E2,1.2928653E2,1.4720633E2],"tree_param":{"num_deleted":"0","num_feature":"16","num_nodes":"17","size_leaf_vector":"1"}},{"base_weights":[9.143119E-5,1.2239945E0,-1.424964E0,1.3916152E0,-7.133466E-2,-1.4286737E0,6.373533E-2,-6.979723E-2,1.4084557E0,4.3899223E-2,-7.146985E-2,1.3038665E0,7.148551E-2,7.143249E-2,9.9220616E-1,7.104644E-2,3.082642E-2],"categories":[],"categories_nodes":[],"categories_segments":[],"categories_sizes":[],"default_left":[0,0,0,0,0,0,0,0,0,0,0,0,0,0,0,0,0],"id":10,"left_children":[1,3,5,7,-1,9,-1,-1,11,-1,-1,13,-1,-1,15,-1,-1],"loss_changes":[1.9137617E4,2.6247031E3,5.2594727E1,2.626162E2,0E0,9.702148E0,0E0,0E0,1.040625E1,0E0,0E0,3.5278076E1,0E0,0E0,4.310193E1,0E0,0E0],"parents":[2147483647,0,0,1,1,2,2,3,3,5,5,8,8,11,11,14,14],"right_children":[2,4,6,8,-1,10,-1,-1,12,-1,-1,14,-1,-1,16,-1,-1],"split_conditions":[1.9967794E-1,2.5204159E1,5.065192E-1,2.9829535E-1,-7.133466E-2,8.975058E0,6.373533E-2,-6.979723E-2,4.9927032E-1,4.3899223E-2,-7.146985E-2,1.4885153E-1,7.148551E-2,7.143249E-2,1.5056756E1,7.104644E-2,3.082642E-2],"split_indices":[2,0,8,8,0,0,0,0,8,0,0,2,0,0,0,0,0],"split_type":[0,0,0,0,0,0,0,0,0,0,0,0,0,0,0,0,0],"sum_hessian":[1.0970587E4,5.901903E3,5.068684E3,5.5513306E3,3.5057257E2,5.0621987E3,6.485476E0,3.2844364E1,5.518486E3,1.2065744E0,5.060992E3,9.425768E2,4.575909E3,6.705261E2,2.720507E2,1.2575596E2,1.4629472E2],"tree_param":{"num_deleted":"0","num_feature":"16","num_nodes":"17","size_leaf_vector":"1"}},{"base_weights":[9.777207E-5,1.1978599E0,-1.3953384E0,1.3618706E0,-6.985005E-2,-1.3989938E0,6.2274545E-2,-6.83051E-2,1.378369E0,4.2968065E-2,-6.998585E-2,1.2721443E0,7.000201E-2,6.994667E-2,9.594968E-1,6.955972E-2,2.948744E-2],"categories":[],"categories_nodes":[],"categories_segments":[],"categories_sizes":[],"default_left":[0,0,0,0,0,0,0,0,0,0,0,0,0,0,0,0,0],"id":11,"left_children":[1,3,5,7,-1,9,-1,-1,11,-1,-1,13,-1,-1,15,-1,-1],"loss_changes":[1.7811588E4,2.4424248E3,4.925879E1,2.4465625E2,0E0,9.229492E0,0E0,0E0,1.05625E1,0E0,0E0,3.5108643E1,0E0,0E0,4.2036575E1,0E0,0E0],"parents":[2147483647,0,0,1,1,2,2,3,3,5,5,8,8,11,11,14,14],"right_children":[2,4,6,8,-1,10,-1,-1,12,-1,-1,14,-1,-1,16,-1,-1],"split_conditions":[1.9967794E-1,2.5204159E1,5.065192E-1,2.9829535E-1,-6.985005E-2,8.975058E0,6.2274545E-2,-6.83051E-2,4.9927032E-1,4.2968065E-2,-6.998585E-2,1.4885153E-1,7.000201E-2,6.994667E-2,1.5056756E1,6.955972E-2,2.948744E-2],"split_indices":[2,0,8,8,0,0,0,0,8,0,0,2,0,0,0,0,0],"split_type":[0,0,0,0,0,0,0,0,0,0,0,0,0,0,0,0,0],"sum_hessian":[1.0654685E4,5.7335107E3,4.921174E3,5.393109E3,3.4040167E2,4.914841E3,6.333052E0,3.1928827E1,5.36118E3,1.1930972E0,4.913648E3,9.185414E2,4.4426387E3,6.5104614E2,2.674952E2,1.2213476E2,1.4536046E2],"tree_param":{"num_deleted":"0","num_feature":"16","num_nodes":"17","size_leaf_vector":"1"}},{"base_weights":[1.0384193E-4,1.1739231E0,-1.3683027E0,1.3346232E0,-6.849468E-2,-1.3719107E0,6.0912322E-2,-6.693517E-2,1.3508093E0,4.2076018E-2,-6.863175E-2,1.2426431E0,6.864847E-2,6.839853E-2,9.1887444E-1,6.8170585E-2,2.7744716E-2],"categories":[],"categories_nodes":[],"categories_segments":[],"categories_sizes":[],"default_left":[0,0,0,0,0,0,0,0,0,0,0,0,0,0,0,0,0],"id":12,"left_children":[1,3,5,7,-1,9,-1,-1,11,-1,-1,13,-1,-1,15,-1,-1],"loss_changes":[1.6601652E4,2.2760752E3,4.620703E1,2.2825586E2,0E0,8.796875E0,0E0,0E0,1.0763672E1,0E0,0E0,3.5063843E1,0E0,0E0,4.0153687E1,0E0,0E0],"parents":[2147483647,0,0,1,1,2,2,3,3,5,5,8,8,11,11,14,14],"right_children":[2,4,6,8,-1,10,-1,-1,12,-1,-1,14,-1,-1,16,-1,-1],"split_conditions":[1.9967794E-1,2.5204159E1,5.065192E-1,2.9829535E-1,-6.849468E-2,8.975058E0,6.0912322E-2,-6.693517E-2,4.9927032E-1,4.2076018E-2,-6.863175E-2,1.5161183E-1,6.864847E-2,6.839853E-2,1.5056756E1,6.8170585E-2,2.7744716E-2],"split_indices":[2,0,8,8,0,0,0,0,8,0,0,2,0,0,0,0,0],"split_type":[0,0,0,0,0,0,0,0,0,0,0,0,0,0,0,0,0],"sum_hessian":[1.0333582E4,5.562344E3,4.771238E3,5.2322817E3,3.300626E2,4.7650605E3,6.177266E0,3.099728E1,5.201284E3,1.1790289E0,4.7638813E3,8.9410736E2,4.307177E3,6.422672E2,2.5184018E2,1.1213783E2,1.3970235E2],"tree_param":{"num_deleted":"0","num_feature":"16","num_nodes":"17","size_leaf_vector":"1"}},{"base_weights":[1.0970914E-4,1.1519268E0,-1.343559E0,1.3095798E0,-6.725367E-2,-1.3471256E0,5.9637617E-2,-6.5673284E-2,1.3254802E0,4.122033E-2,-6.739262E-2,1.2150818E0,6.7409955E-2,6.7352906E-2,8.985473E-1,6.695553E-2,2.6960446E-2],"categories":[],"categories_nodes":[],"categories_segments":[],"categories_sizes":[],"default_left":[0,0,0,0,0,0,0,0,0,0,0,0,0,0,0,0,0],"id":13,"left_children":[1,3,5,7,-1,9,-1,-1,11,-1,-1,13,-1,-1,15,-1,-1],"loss_changes":[1.5494483E4,2.12383E3,4.3407227E1,2.1323828E2,0E0,8.394531E0,0E0,0E0,1.1005859E1,0E0,0E0,3.5152832E1,0E0,0E0,4.0302353E1,0E0,0E0],"parents":[2147483647,0,0,1,1,2,2,3,3,5,5,8,8,11,11,14,14],"right_children":[2,4,6,8,-1,10,-1,-1,12,-1,-1,14,-1,-1,16,-1,-1],"split_conditions":[1.9967794E-1,2.5204159E1,5.065192E-1,2.9829535E-1,-6.725367E-2,8.975058E0,5.9637617E-2,-6.5673284E-2,4.9927032E-1,4.122033E-2,-6.739262E-2,1.4885153E-1,6.7409955E-2,6.7352906E-2,1.5056756E1,6.695553E-2,2.6960446E-2],"split_indices":[2,0,8,8,0,0,0,0,8,0,0,2,0,0,0,0,0],"split_type":[0,0,0,0,0,0,0,0,0,0,0,0,0,0,0,0,0],"sum_hessian":[1.0009552E4,5.389617E3,4.619934E3,5.069989E3,3.1962848E2,4.613915E3,6.0192237E0,3.005632E1,5.0399326E3,1.1644564E0,4.6127505E3,8.6945135E2,4.170481E3,6.113138E2,2.5813757E2,1.147378E2,1.4339977E2],"tree_param":{"num_deleted":"0","num_feature":"16","num_nodes":"17","size_leaf_vector":"1"}},{"base_weights":[1.1563954E-4,1.1316528E0,-1.3208532E0,1.2864932E0,-6.611433E-2,-1.3243839E0,5.844087E-2,-6.4507306E-2,1.3021314E0,4.039852E-2,-6.625571E-2,1.1892389E0,6.627371E-2,6.621364E-2,8.702555E-1,6.581037E-2,2.5797656E-2],"categories":[],"categories_nodes":[],"categories_segments":[],"categories_sizes":[],"default_left":[0,0,0,0,0,0,0,0,0,0,0,0,0,0,0,0,0],"id":14,"left_children":[1,3,5,7,-1,9,-1,-1,11,-1,-1,13,-1,-1,15,-1,-1],"loss_changes":[1.4478723E4,1.9841382E3,4.0831055E1,1.9945166E2,0E0,8.021973E0,0E0,0E0,1.1280273E1,0E0,0E0,3.5275513E1,0E0,0E0,3.9524384E1,0E0,0E0],"parents":[2147483647,0,0,1,1,2,2,3,3,5,5,8,8,11,11,14,14],"right_children":[2,4,6,8,-1,10,-1,-1,12,-1,-1,14,-1,-1,16,-1,-1],"split_conditions":[1.9967794E-1,2.5204159E1,5.065192E-1,2.9829535E-1,-6.611433E-2,8.975058E0,5.844087E-2,-6.4507306E-2,4.9927032E-1,4.039852E-2,-6.625571E-2,1.4885153E-1,6.627371E-2,6.621364E-2,1.5056756E1,6.581037E-2,2.5797656E-2],"split_indices":[2,0,8,8,0,0,0,0,8,0,0,2,0,0,0,0,0],"split_type":[0,0,0,0,0,0,0,0,0,0,0,0,0,0,0,0,0],"sum_hessian":[9.684543E3,5.2163657E3,4.468177E3,4.9072036E3,3.0916235E2,4.462317E3,5.8598857E0,2.9111654E1,4.878092E3,1.1494598E0,4.4611675E3,8.4471545E2,4.0333762E3,5.9126587E2,2.5344962E2,1.1100959E2,1.4244003E2],"tree_param":{"num_deleted":"0","num_feature":"16","num_nodes":"17","size_leaf_vector":"1"}},{"base_weights":[1.2170903E-4,1.1129118E0,-1.2999667E0,1.2651473E0,-6.506576E-2,-1.3034662E0,5.7313748E-2,-6.342675E-2,1.2805445E0,3.9608296E-2,-6.521007E-2,1.1649047E0,6.522878E-2,6.516558E-2,8.431325E-1,6.4754896E-2,2.4685785E-2],"categories":[],"categories_nodes":[],"categories_segments":[],"categories_sizes":[],"default_left":[0,0,0,0,0,0,0,0,0,0,0,0,0,0,0,0,0],"id":15,"left_children":[1,3,5,7,-1,9,-1,-1,11,-1,-1,13,-1,-1,15,-1,-1],"loss_changes":[1.3544596E4,1.8556538E3,3.845752E1,1.8676514E2,0E0,7.6748047E0,0E0,0E0,1.1589355E1,0E0,0E0,3.5466064E1,0E0,0E0,3.8805588E1,0E0,0E0],"parents":[2147483647,0,0,1,1,2,2,3,3,5,5,8,8,11,11,14,14],"right_children":[2,4,6,8,-1,10,-1,-1,12,-1,-1,14,-1,-1,16,-1,-1],"split_conditions":[1.9967794E-1,2.5204159E1,5.065192E-1,2.9829535E-1,-6.506576E-2,8.975058E0,5.7313748E-2,-6.342675E-2,4.9927032E-1,3.9608296E-2,-6.521007E-2,1.4885153E-1,6.522878E-2,6.516558E-2,1.5056756E1,6.4754896E-2,2.4685785E-2],"split_indices":[2,0,8,8,0,0,0,0,8,0,0,2,0,0,0,0,0],"split_type":[0,0,0,0,0,0,0,0,0,0,0,0,0,0,0,0,0],"sum_hessian":[9.360243E3,5.0434907E3,4.316752E3,4.7447725E3,2.9871835E2,4.311052E3,5.700094E0,2.81682E1,4.716604E3,1.1341124E0,4.309918E3,8.20031E2,3.8965732E3,5.712595E2,2.4877147E2,1.0728869E2,1.4148279E2],"tree_param":{"num_deleted":"0","num_feature":"16","num_nodes":"17","size_leaf_vector":"1"}},{"base_weights":[1.2779771E-4,1.0955397E0,-1.2807107E0,1.245356E0,-6.409849E-2,-1.2841837E0,5.6248974E-2,-6.2422495E-2,1.260531E0,3.8847607E-2,-6.424623E-2,1.1419028E0,6.426573E-2,6.419926E-2,8.1706274E-1,6.377975E-2,2.3621837E-2],"categories":[],"categories_nodes":[],"categories_segments":[],"categories_sizes":[],"default_left":[0,0,0,0,0,0,0,0,0,0,0,0,0,0,0,0,0],"id":16,"left_children":[1,3,5,7,-1,9,-1,-1,11,-1,-1,13,-1,-1,15,-1,-1],"loss_changes":[1.2683656E4,1.7372217E3,3.626367E1,1.7506396E2,0E0,7.352539E0,0E0,0E0,1.1930664E1,0E0,0E0,3.5713013E1,0E0,0E0,3.8132355E1,0E0,0E0],"parents":[2147483647,0,0,1,1,2,2,3,3,5,5,8,8,11,11,14,14],"right_children":[2,4,6,8,-1,10,-1,-1,12,-1,-1,14,-1,-1,16,-1,-1],"split_conditions":[1.9967794E-1,2.5204159E1,5.065192E-1,2.9829535E-1,-6.409849E-2,8.975058E0,5.6248974E-2,-6.2422495E-2,4.9927032E-1,3.8847607E-2,-6.424623E-2,1.4885153E-1,6.426573E-2,6.419926E-2,1.5056756E1,6.377975E-2,2.3621837E-2],"split_indices":[2,0,8,8,0,0,0,0,8,0,0,2,0,0,0,0,0],"split_type":[0,0,0,0,0,0,0,0,0,0,0,0,0,0,0,0,0],"sum_hessian":[9.038087E3,4.8717573E3,4.16633E3,4.5834146E3,2.8834286E2,4.160789E3,5.5405784E0,2.723018E1,4.5561846E3,1.118481E0,4.159671E3,7.9550806E2,3.7606763E3,5.513842E2,2.4412384E2,1.03591606E2,1.4053223E2],"tree_param":{"num_deleted":"0","num_feature":"16","num_nodes":"17","size_leaf_vector":"1"}},{"base_weights":[1.3402621E-4,1.0793941E0,-1.2629215E0,1.2269571E0,-6.3204356E-2,-1.2663721E0,5.5240143E-2,-6.148665E-2,1.2419269E0,3.8114563E-2,-6.335598E-2,1.1200782E0,6.3376315E-2,6.330646E-2,7.9194695E-1,6.287677E-2,2.2603162E-2],"categories":[],"categories_nodes":[],"categories_segments":[],"categories_sizes":[],"default_left":[0,0,0,0,0,0,0,0,0,0,0,0,0,0,0,0,0],"id":17,"left_children":[1,3,5,7,-1,9,-1,-1,11,-1,-1,13,-1,-1,15,-1,-1],"loss_changes":[1.1888572E4,1.6278379E3,3.4230957E1,1.6425195E2,0E0,7.0512695E0,0E0,0E0,1.2299316E1,0E0,0E0,3.600598E1,0E0,0E0,3.7493515E1,0E0,0E0],"parents":[2147483647,0,0,1,1,2,2,3,3,5,5,8,8,11,11,14,14],"right_children":[2,4,6,8,-1,10,-1,-1,12,-1,-1,14,-1,-1,16,-1,-1],"split_conditions":[1.9967794E-1,2.5204159E1,5.065192E-1,2.9829535E-1,-6.3204356E-2,8.975058E0,5.5240143E-2,-6.148665E-2,4.9927032E-1,3.8114563E-2,-6.335598E-2,1.4885153E-1,6.3376315E-2,6.330646E-2,1.5056756E1,6.287677E-2,2.2603162E-2],"split_indices":[2,0,8,8,0,0,0,0,8,0,0,2,0,0,0,0,0],"split_type":[0,0,0,0,0,0,0,0,0,0,0,0,0,0,0,0,0],"sum_hessian":[8.719299E3,4.701818E3,4.017481E3,4.4237427E3,2.7807526E2,4.0120989E3,5.381968E0,2.6301184E1,4.3974414E3,1.1026273E0,4.0109963E3,7.7123914E2,3.6262026E3,5.317147E2,2.395244E2,9.993244E1,1.3959195E2],"tree_param":{"num_deleted":"0","num_feature":"16","num_nodes":"17","size_leaf_vector":"1"}},{"base_weights":[1.4053626E-4,1.0643504E0,-1.2464556E0,1.209809E0,-6.237619E-2,-1.2498877E0,5.4281633E-2,-6.0612243E-2,1.2245888E0,3.7407447E-2,-6.253215E-2,1.0992955E0,6.255338E-2,6.2479984E-2,7.6769924E-1,6.2038828E-2,2.1627348E-2],"categories":[],"categories_nodes":[],"categories_segments":[],"categories_sizes":[],"default_left":[0,0,0,0,0,0,0,0,0,0,0,0,0,0,0,0,0],"id":18,"left_children":[1,3,5,7,-1,9,-1,-1,11,-1,-1,13,-1,-1,15,-1,-1],"loss_changes":[1.1152943E4,1.5266226E3,3.2345703E1,1.542417E2,0E0,6.770508E0,0E0,0E0,1.2697754E1,0E0,0E0,3.6336426E1,0E0,0E0,3.687993E1,0E0,0E0],"parents":[2147483647,0,0,1,1,2,2,3,3,5,5,8,8,11,11,14,14],"right_children":[2,4,6,8,-1,10,-1,-1,12,-1,-1,14,-1,-1,16,-1,-1],"split_conditions":[1.9967794E-1,2.5204159E1,5.065192E-1,2.9829535E-1,-6.237619E-2,8.975058E0,5.4281633E-2,-6.0612243E-2,4.9927032E-1,3.7407447E-2,-6.253215E-2,1.4885153E-1,6.255338E-2,6.2479984E-2,1.5056756E1,6.2038828E-2,2.1627348E-2],"split_indices":[2,0,8,8,0,0,0,0,8,0,0,2,0,0,0,0,0],"split_type":[0,0,0,0,0,0,0,0,0,0,0,0,0,0,0,0,0],"sum_hessian":[8.40491E3,4.534223E3,3.870687E3,4.2662744E3,2.6794876E2,3.8654622E3,5.224805E0,2.5384262E1,4.24089E3,1.0866065E0,3.8643755E3,7.4730365E2,3.4935867E3,5.1231555E2,2.3498808E2,9.632308E1,1.3866501E2],"tree_param":{"num_deleted":"0","num_feature":"16","num_nodes":"17","size_leaf_vector":"1"}},{"base_weights":[1.4691772E-4,1.0502987E0,-1.2311878E0,1.1937865E0,-6.1607707E-2,-1.2346051E0,5.3368468E-2,-5.9793144E-2,1.2083901E0,3.672466E-2,-6.1768442E-2,1.079435E0,6.1790626E-2,6.1713554E-2,7.442453E-1,6.1259665E-2,2.0692216E-2],"categories":[],"categories_nodes":[],"categories_segments":[],"categories_sizes":[],"default_left":[0,0,0,0,0,0,0,0,0,0,0,0,0,0,0,0,0],"id":19,"left_children":[1,3,5,7,-1,9,-1,-1,11,-1,-1,13,-1,-1,15,-1,-1],"loss_changes":[1.0471149E4,1.4328052E3,3.0595215E1,1.4495996E2,0E0,6.5058594E0,0E0,0E0,1.312207E1,0E0,0E0,3.669641E1,0E0,0E0,3.628398E1,0E0,0E0],"parents":[2147483647,0,0,1,1,2,2,3,3,5,5,8,8,11,11,14,14],"right_children":[2,4,6,8,-1,10,-1,-1,12,-1,-1,14,-1,-1,16,-1,-1],"split_conditions":[1.9967794E-1,2.5204159E1,5.065192E-1,2.9829535E-1,-6.1607707E-2,8.975058E0,5.3368468E-2,-5.9793144E-2,4.9927032E-1,3.672466E-2,-6.1768442E-2,1.4885153E-1,6.1790626E-2,6.1713554E-2,1.5056756E1,6.1259665E-2,2.0692216E-2],"split_indices":[2,0,8,8,0,0,0,0,8,0,0,2,0,0,0,0,0],"split_type":[0,0,0,0,0,0,0,0,0,0,0,0,0,0,0,0,0],"sum_hessian":[8.095783E3,4.369432E3,3.7263513E3,4.111441E3,2.5799127E2,3.7212817E3,5.0695505E0,2.4481977E1,4.0869587E3,1.0704691E0,3.7202114E3,7.2376746E2,3.3631914E3,4.9324008E2,2.3052737E2,9.277348E1,1.3775389E2],"tree_param":{"num_deleted":"0","num_feature":"16","num_nodes":"17","size_leaf_vector":"1"}},{"base_weights":[1.5353078E-4,1.037142E0,-1.2170074E0,1.1787796E0,-6.0893387E-2,-1.2204131E0,5.249622E-2,-5.9023928E-2,1.1932197E0,3.6064778E-2,-6.1059322E-2,1.0603906E0,6.108252E-2,6.1001606E-2,7.2152114E-1,6.053375E-2,1.9795809E-2],"categories":[],"categories_nodes":[],"categories_segments":[],"categories_sizes":[],"default_left":[0,0,0,0,0,0,0,0,0,0,0,0,0,0,0,0,0],"id":20,"left_children":[1,3,5,7,-1,9,-1,-1,11,-1,-1,13,-1,-1,15,-1,-1],"loss_changes":[9.83825E3,1.34571E3,2.896582E1,1.3633789E2,0E0,6.258301E0,0E0,0E0,1.3572266E1,0E0,0E0,3.7079224E1,0E0,0E0,3.5699486E1,0E0,0E0],"parents":[2147483647,0,0,1,1,2,2,3,3,5,5,8,8,11,11,14,14],"right_children":[2,4,6,8,-1,10,-1,-1,12,-1,-1,14,-1,-1,16,-1,-1],"split_conditions":[1.9967794E-1,2.5204159E1,5.065192E-1,2.9829535E-1,-6.0893387E-2,8.975058E0,5.249622E-2,-5.9023928E-2,4.9927032E-1,3.6064778E-2,-6.1059322E-2,1.4885153E-1,6.108252E-2,6.1001606E-2,1.5056756E1,6.053375E-2,1.9795809E-2],"split_indices":[2,0,8,8,0,0,0,0,8,0,0,2,0,0,0,0,0],"split_type":[0,0,0,0,0,0,0,0,0,0,0,0,0,0,0,0,0],"sum_hessian":[7.792637E3,4.207828E3,3.584809E3,3.959602E3,2.4822589E2,3.5798923E3,4.9165964E0,2.3596466E1,3.9360056E3,1.0542612E0,3.5788381E3,7.00685E2,3.2353206E3,4.7453232E2,2.2615266E2,8.92919E1,1.3686076E2],"tree_param":{"num_deleted":"0","num_feature":"16","num_nodes":"17","size_leaf_vector":"1"}},{"base_weights":[1.6045426E-4,1.0247947E0,-1.2038167E0,1.1646904E0,-6.0228318E-2,-1.207214E0,5.166098E-2,-5.829979E-2,1.1789782E0,3.5426468E-2,-6.0399886E-2,1.0420679E0,6.0424168E-2,6.033923E-2,6.9947135E-1,5.9856195E-2,1.8936286E-2],"categories":[],"categories_nodes":[],"categories_segments":[],"categories_sizes":[],"default_left":[0,0,0,0,0,0,0,0,0,0,0,0,0,0,0,0,0],"id":21,"left_children":[1,3,5,7,-1,9,-1,-1,11,-1,-1,13,-1,-1,15,-1,-1],"loss_changes":[9.249875E3,1.2647349E3,2.7447266E1,1.2831787E2,0E0,6.023926E0,0E0,0E0,1.4047852E1,0E0,0E0,3.7478516E1,0E0,0E0,3.5121483E1,0E0,0E0],"parents":[2147483647,0,0,1,1,2,2,3,3,5,5,8,8,11,11,14,14],"right_children":[2,4,6,8,-1,10,-1,-1,12,-1,-1,14,-1,-1,16,-1,-1],"split_conditions":[1.9967794E-1,2.5204159E1,5.065192E-1,2.9829535E-1,-6.0228318E-2,8.975058E0,5.166098E-2,-5.829979E-2,4.9927032E-1,3.5426468E-2,-6.0399886E-2,1.4885153E-1,6.0424168E-2,6.033923E-2,1.5056756E1,5.9856195E-2,1.8936286E-2],"split_indices":[2,0,8,8,0,0,0,0,8,0,0,2,0,0,0,0,0],"split_type":[0,0,0,0,0,0,0,0,0,0,0,0,0,0,0,0,0],"sum_hessian":[7.496057E3,4.0497239E3,3.4463333E3,3.8110522E3,2.3867159E2,3.441567E3,4.7662706E0,2.2729477E1,3.7883228E3,1.0380237E0,3.440529E3,6.781014E2,3.1102214E3,4.5622894E2,2.218724E2,8.588513E1,1.3598727E2],"tree_param":{"num_deleted":"0","num_feature":"16","num_nodes":"17","size_leaf_vector":"1"}},{"base_weights":[1.6747824E-4,1.0131797E0,-1.1915292E0,1.1514314E0,-5.9608158E-2,-1.194921E0,5.085925E-2,-5.761644E-2,1.1655775E0,3.4808513E-2,-5.9785802E-2,1.0243833E0,5.9811223E-2,5.9722092E-2,6.7804885E-1,5.9222657E-2,1.8112028E-2],"categories":[],"categories_nodes":[],"categories_segments":[],"categories_sizes":[],"default_left":[0,0,0,0,0,0,0,0,0,0,0,0,0,0,0,0,0],"id":22,"left_children":[1,3,5,7,-1,9,-1,-1,11,-1,-1,13,-1,-1,15,-1,-1],"loss_changes":[8.702141E3,1.1893477E3,2.6028809E1,1.20848145E2,0E0,5.805176E0,0E0,0E0,1.4547852E1,0E0,0E0,3.788861E1,0E0,0E0,3.4545868E1,0E0,0E0],"parents":[2147483647,0,0,1,1,2,2,3,3,5,5,8,8,11,11,14,14],"right_children":[2,4,6,8,-1,10,-1,-1,12,-1,-1,14,-1,-1,16,-1,-1],"split_conditions":[1.9967794E-1,2.5204159E1,5.065192E-1,2.9829535E-1,-5.9608158E-2,8.975058E0,5.085925E-2,-5.761644E-2,4.9927032E-1,3.4808513E-2,-5.9785802E-2,1.4885153E-1,5.9811223E-2,5.9722092E-2,1.5056756E1,5.9222657E-2,1.8112028E-2],"split_indices":[2,0,8,8,0,0,0,0,8,0,0,2,0,0,0,0,0],"split_type":[0,0,0,0,0,0,0,0,0,0,0,0,0,0,0,0,0],"sum_hessian":[7.206514E3,3.8953704E3,3.3111438E3,3.6660269E3,2.2934357E2,3.3065251E3,4.6188464E0,2.1882437E1,3.6441443E3,1.0217941E0,3.3055032E3,6.560525E2,2.9880918E3,4.3835895E2,2.1769356E2,8.255868E1,1.3513487E2],"tree_param":{"num_deleted":"0","num_feature":"16","num_nodes":"17","size_leaf_vector":"1"}},{"base_weights":[1.7487766E-4,1.0022285E0,-1.1800673E0,1.138925E0,-5.902903E-2,-1.1834567E0,5.00879E-2,-5.697001E-2,1.1529385E0,3.420979E-2,-5.9213188E-2,1.0072614E0,5.9239812E-2,5.9146296E-2,6.5721184E-1,5.8629233E-2,1.7321473E-2],"categories":[],"categories_nodes":[],"categories_segments":[],"categories_sizes":[],"default_left":[0,0,0,0,0,0,0,0,0,0,0,0,0,0,0,0,0],"id":23,"left_children":[1,3,5,7,-1,9,-1,-1,11,-1,-1,13,-1,-1,15,-1,-1],"loss_changes":[8.1915977E3,1.1190754E3,2.470459E1,1.1388037E2,0E0,5.5976562E0,0E0,0E0,1.5071289E1,0E0,0E0,3.8304443E1,0E0,0E0,3.3969437E1,0E0,0E0],"parents":[2147483647,0,0,1,1,2,2,3,3,5,5,8,8,11,11,14,14],"right_children":[2,4,6,8,-1,10,-1,-1,12,-1,-1,14,-1,-1,16,-1,-1],"split_conditions":[1.9967794E-1,2.5204159E1,5.065192E-1,2.9829535E-1,-5.902903E-2,8.975058E0,5.00879E-2,-5.697001E-2,4.9927032E-1,3.420979E-2,-5.9213188E-2,1.4885153E-1,5.9239812E-2,5.9146296E-2,1.5056756E1,5.8629233E-2,1.7321473E-2],"split_indices":[2,0,8,8,0,0,0,0,8,0,0,2,0,0,0,0,0],"split_type":[0,0,0,0,0,0,0,0,0,0,0,0,0,0,0,0,0],"sum_hessian":[6.924384E3,3.744968E3,3.1794158E3,3.524714E3,2.2025388E2,3.1749412E3,4.4745436E0,2.1056477E1,3.5036577E3,1.0056053E0,3.1739355E3,6.34567E2,2.8690908E3,4.2094556E2,2.1362141E2,7.931678E1,1.3430464E2],"tree_param":{"num_deleted":"0","num_feature":"16","num_nodes":"17","size_leaf_vector":"1"}},{"base_weights":[1.8247428E-4,9.9187917E-1,-1.1693621E0,1.1271002E0,-5.848747E-2,-1.1727515E0,4.934415E-2,-5.6357052E-2,1.14099E0,-2.592081E-1,-5.8678545E-2,9.9063504E-1,5.8706474E-2,2.8104937E-2,-3.846881E-2,5.8608383E-2,6.369254E-1,5.807246E-2,1.6563201E-2],"categories":[],"categories_nodes":[],"categories_segments":[],"categories_sizes":[],"default_left":[0,0,0,0,0,0,0,0,0,0,0,0,0,0,0,0,0,0,0],"id":24,"left_children":[1,3,5,7,-1,9,-1,-1,11,13,-1,15,-1,-1,-1,-1,17,-1,-1],"loss_changes":[7.7151523E3,1.0534924E3,2.3464844E1,1.0737598E2,0E0,1.9770508E0,0E0,0E0,1.5618652E1,2.114581E0,0E0,3.872101E1,0E0,0E0,0E0,0E0,3.33897E1,0E0,0E0],"parents":[2147483647,0,0,1,1,2,2,3,3,5,5,8,8,9,9,11,11,16,16],"right_children":[2,4,6,8,-1,10,-1,-1,12,14,-1,16,-1,-1,-1,-1,18,-1,-1],"split_conditions":[1.9967794E-1,2.5204159E1,5.065192E-1,2.9829535E-1,-5.848747E-2,1.5056756E1,4.934415E-2,-5.6357052E-2,4.9927032E-1,2.0868059E-1,-5.8678545E-2,1.4885153E-1,5.8706474E-2,2.8104937E-2,-3.846881E-2,5.8608383E-2,1.5056756E1,5.807246E-2,1.6563201E-2],"split_indices":[2,0,8,8,0,0,0,0,8,2,0,2,0,0,0,0,0,0,0],"split_type":[0,0,0,0,0,0,0,0,0,0,0,0,0,0,0,0,0,0,0],"sum_hessian":[6.6499478E3,3.5986672E3,3.0512808E3,3.3872554E3,2.114117E2,3.0469473E3,4.333545E0,2.025247E1,3.367003E3,3.0145524E0,3.0439326E3,6.1366675E2,2.7533362E3,1.1160539E0,1.8984984E0,4.040066E2,2.0966019E2,7.616281E1,1.3349738E2],"tree_param":{"num_deleted":"0","num_feature":"16","num_nodes":"19","size_leaf_vector":"1"}},{"base_weights":[1.837546E-4,9.820767E-1,-1.1593515E0,1.1158944E0,-5.798037E-2,-1.1627437E0,4.862548E-2,-5.5774458E-2,1.1296685E0,-2.529322E-1,-5.8178842E-2,9.744437E-1,5.8208138E-2,2.7508646E-2,-3.7892297E-2,5.810524E-2,6.1715895E-1,5.754921E-2,1.5835868E-2],"categories":[],"categories_nodes":[],"categories_segments":[],"categories_sizes":[],"default_left":[0,0,0,0,0,0,0,0,0,0,0,0,0,0,0,0,0,0,0],"id":25,"left_children":[1,3,5,7,-1,9,-1,-1,11,13,-1,15,-1,-1,-1,-1,17,-1,-1],"loss_changes":[7.27009E3,9.922202E2,2.2304443E1,1.012959E2,0E0,1.9223633E0,0E0,0E0,1.6188477E1,2.0197666E0,0E0,3.9134216E1,0E0,0E0,0E0,0E0,3.280478E1,0E0,0E0],"parents":[2147483647,0,0,1,1,2,2,3,3,5,5,8,8,9,9,11,11,16,16],"right_children":[2,4,6,8,-1,10,-1,-1,12,14,-1,16,-1,-1,-1,-1,18,-1,-1],"split_conditions":[1.9967794E-1,2.5204159E1,5.065192E-1,2.9829535E-1,-5.798037E-2,1.5056756E1,4.862548E-2,-5.5774458E-2,4.9927032E-1,2.0868059E-1,-5.8178842E-2,1.4885153E-1,5.8208138E-2,2.7508646E-2,-3.7892297E-2,5.810524E-2,1.5056756E1,5.754921E-2,1.5835868E-2],"split_indices":[2,0,8,8,0,0,0,0,8,2,0,2,0,0,0,0,0,0,0],"split_type":[0,0,0,0,0,0,0,0,0,0,0,0,0,0,0,0,0,0,0],"sum_hessian":[6.3834526E3,3.456579E3,2.9268738E3,3.2537554E3,2.0282378E2,2.9226777E3,4.195987E0,1.9471067E1,3.2342842E3,2.952713E0,2.9197249E3,5.933675E2,2.6409167E3,1.1051875E0,1.8475255E0,3.8755463E2,2.0581285E2,7.309917E1,1.3271368E2],"tree_param":{"num_deleted":"0","num_feature":"16","num_nodes":"19","size_leaf_vector":"1"}},{"base_weights":[1.8515644E-4,9.727703E-1,-1.1499797E0,1.10525E0,-5.7504922E-2,-1.1533772E0,4.7929674E-2,-5.521939E-2,1.1189154E0,-2.46875E-1,-5.771127E-2,9.5863295E-1,5.774198E-2,2.6927162E-2,-3.732861E-2,5.7634074E-2,5.9788716E-1,5.705666E-2,1.5138256E-2],"categories":[],"categories_nodes":[],"categories_segments":[],"categories_sizes":[],"default_left":[0,0,0,0,0,0,0,0,0,0,0,0,0,0,0,0,0,0,0],"id":26,"left_children":[1,3,5,7,-1,9,-1,-1,11,13,-1,15,-1,-1,-1,-1,17,-1,-1],"loss_changes":[6.853866E3,9.34916E2,2.1215576E1,9.560596E1,0E0,1.8708496E0,0E0,0E0,1.6780518E1,1.9297487E0,0E0,3.9539673E1,0E0,0E0,0E0,0E0,3.2213326E1,0E0,0E0],"parents":[2147483647,0,0,1,1,2,2,3,3,5,5,8,8,9,9,11,11,16,16],"right_children":[2,4,6,8,-1,10,-1,-1,12,14,-1,16,-1,-1,-1,-1,18,-1,-1],"split_conditions":[1.9967794E-1,2.5204159E1,5.065192E-1,2.9829535E-1,-5.7504922E-2,1.5056756E1,4.7929674E-2,-5.521939E-2,4.9927032E-1,2.0868059E-1,-5.771127E-2,1.4885153E-1,5.774198E-2,2.6927162E-2,-3.732861E-2,5.7634074E-2,1.5056756E1,5.705666E-2,1.5138256E-2],"split_indices":[2,0,8,8,0,0,0,0,8,2,0,2,0,0,0,0,0,0,0],"split_type":[0,0,0,0,0,0,0,0,0,0,0,0,0,0,0,0,0,0,0],"sum_hessian":[6.125E3,3.3187788E3,2.8062214E3,3.1242842E3,1.9449469E2,2.8021594E3,4.061979E0,1.8712715E1,3.1055713E3,2.8924823E0,2.7992668E3,5.736802E2,2.531891E3,1.094469E0,1.7980132E0,3.7159863E2,2.0208157E2,7.0127556E1,1.3195401E2],"tree_param":{"num_deleted":"0","num_feature":"16","num_nodes":"19","size_leaf_vector":"1"}},{"base_weights":[1.8662789E-4,9.6391416E-1,-1.1411965E0,1.0951147E0,-5.7058603E-2,-1.1446016E0,4.725473E-2,-5.46893E-2,1.1086782E0,-2.4102825E-1,-5.72733E-2,9.431539E-1,5.7305515E-2,2.6359914E-2,-3.6777098E-2,5.7192355E-2,5.7908714E-1,5.6592263E-2,1.4469156E-2],"categories":[],"categories_nodes":[],"categories_segments":[],"categories_sizes":[],"default_left":[0,0,0,0,0,0,0,0,0,0,0,0,0,0,0,0,0,0,0],"id":27,"left_children":[1,3,5,7,-1,9,-1,-1,11,13,-1,15,-1,-1,-1,-1,17,-1,-1],"loss_changes":[6.4642393E3,8.8127246E2,2.0194336E1,9.0276855E1,0E0,1.8217773E0,0E0,0E0,1.7394531E1,1.8442523E0,0E0,3.9933716E1,0E0,0E0,0E0,0E0,3.1614449E1,0E0,0E0],"parents":[2147483647,0,0,1,1,2,2,3,3,5,5,8,8,9,9,11,11,16,16],"right_children":[2,4,6,8,-1,10,-1,-1,12,14,-1,16,-1,-1,-1,-1,18,-1,-1],"split_conditions":[1.9967794E-1,2.5204159E1,5.065192E-1,2.9829535E-1,-5.7058603E-2,1.5056756E1,4.725473E-2,-5.46893E-2,4.9927032E-1,2.0868059E-1,-5.72733E-2,1.4885153E-1,5.7305515E-2,2.6359914E-2,-3.6777098E-2,5.7192355E-2,1.5056756E1,5.6592263E-2,1.4469156E-2],"split_indices":[2,0,8,8,0,0,0,0,8,2,0,2,0,0,0,0,0,0,0],"split_type":[0,0,0,0,0,0,0,0,0,0,0,0,0,0,0,0,0,0,0],"sum_hessian":[5.874675E3,3.185311E3,2.6893638E3,2.9988838E3,1.8642717E2,2.6854321E3,3.9315958E0,1.7977703E1,2.9809062E3,2.8338554E0,2.6825984E3,5.546113E2,2.426295E3,1.0839092E0,1.7499462E0,3.561438E2,1.9846751E2,6.7248955E1,1.3121855E2],"tree_param":{"num_deleted":"0","num_feature":"16","num_nodes":"19","size_leaf_vector":"1"}},{"base_weights":[1.8858365E-4,9.554669E-1,-1.1329563E0,1.0854414E0,-5.6639124E-2,-1.1363714E0,4.6598803E-2,-5.4181855E-2,1.098909E0,-2.3538424E-1,-5.6862652E-2,9.2796236E-1,5.689646E-2,2.5806358E-2,-3.623718E-2,5.67778E-2,5.6074035E-1,5.6153692E-2,1.3827485E-2],"categories":[],"categories_nodes":[],"categories_segments":[],"categories_sizes":[],"default_left":[0,0,0,0,0,0,0,0,0,0,0,0,0,0,0,0,0,0,0],"id":28,"left_children":[1,3,5,7,-1,9,-1,-1,11,13,-1,15,-1,-1,-1,-1,17,-1,-1],"loss_changes":[6.0991826E3,8.3101E2,1.9233643E1,8.5281494E1,0E0,1.7766113E0,0E0,0E0,1.8029785E1,1.7630205E0,0E0,4.0312805E1,0E0,0E0,0E0,0E0,3.1007545E1,0E0,0E0],"parents":[2147483647,0,0,1,1,2,2,3,3,5,5,8,8,9,9,11,11,16,16],"right_children":[2,4,6,8,-1,10,-1,-1,12,14,-1,16,-1,-1,-1,-1,18,-1,-1],"split_conditions":[1.9967794E-1,2.5204159E1,5.065192E-1,2.9829535E-1,-5.6639124E-2,1.5056756E1,4.6598803E-2,-5.4181855E-2,4.9927032E-1,2.0868059E-1,-5.6862652E-2,1.4885153E-1,5.689646E-2,2.5806358E-2,-3.623718E-2,5.67778E-2,1.5056756E1,5.6153692E-2,1.3827485E-2],"split_indices":[2,0,8,8,0,0,0,0,8,2,0,2,0,0,0,0,0,0,0],"split_type":[0,0,0,0,0,0,0,0,0,0,0,0,0,0,0,0,0,0,0],"sum_hessian":[5.632511E3,3.056195E3,2.576316E3,2.8775728E3,1.786223E2,2.5725112E3,3.8048856E0,1.7266161E1,2.8603066E3,2.7768211E0,2.5697344E3,5.361636E2,2.324143E3,1.0735168E0,1.7033043E0,3.411924E2,1.9497116E2,6.446372E1,1.3050743E2],"tree_param":{"num_deleted":"0","num_feature":"16","num_nodes":"19","size_leaf_vector":"1"}},{"base_weights":[1.9025491E-4,9.4739014E-1,-1.1252182E0,1.0761862E0,-5.624441E-2,-1.1286457E0,4.5960303E-2,-5.3694934E-2,1.0895637E0,-2.2993575E-1,-5.6477286E-2,9.130186E-1,5.6512754E-2,2.5266005E-2,-3.5708334E-2,5.6388337E-2,5.428308E-1,5.5738848E-2,1.3212171E-2],"categories":[],"categories_nodes":[],"categories_segments":[],"categories_sizes":[],"default_left":[0,0,0,0,0,0,0,0,0,0,0,0,0,0,0,0,0,0,0],"id":29,"left_children":[1,3,5,7,-1,9,-1,-1,11,13,-1,15,-1,-1,-1,-1,17,-1,-1],"loss_changes":[5.7568574E3,7.838779E2,1.8331299E1,8.0593994E1,0E0,1.7341309E0,0E0,0E0,1.8686035E1,1.6858139E0,0E0,4.0673553E1,0E0,0E0,0E0,0E0,3.0392525E1,0E0,0E0],"parents":[2147483647,0,0,1,1,2,2,3,3,5,5,8,8,9,9,11,11,16,16],"right_children":[2,4,6,8,-1,10,-1,-1,12,14,-1,16,-1,-1,-1,-1,18,-1,-1],"split_conditions":[1.9967794E-1,2.5204159E1,5.065192E-1,2.9829535E-1,-5.624441E-2,1.5056756E1,4.5960303E-2,-5.3694934E-2,4.9927032E-1,2.0868059E-1,-5.6477286E-2,1.4885153E-1,5.6512754E-2,2.5266005E-2,-3.5708334E-2,5.6388337E-2,1.5056756E1,5.5738848E-2,1.3212171E-2],"split_indices":[2,0,8,8,0,0,0,0,8,2,0,2,0,0,0,0,0,0,0],"split_type":[0,0,0,0,0,0,0,0,0,0,0,0,0,0,0,0,0,0,0],"sum_hessian":[5.398496E3,2.9314229E3,2.4670735E3,2.760343E3,1.7107985E2,2.4633916E3,3.681877E0,1.6578098E1,2.743765E3,2.721365E0,2.4606702E3,5.183362E2,2.2254287E3,1.0632999E0,1.6580652E0,3.267437E2,1.9159245E2,6.1771877E1,1.2982057E2],"tree_param":{"num_deleted":"0","num_feature":"16","num_nodes":"19","size_leaf_vector":"1"}},{"base_weights":[1.9267682E-4,9.3964916E-1,-1.1179445E0,1.0673095E0,-5.5872567E-2,-1.1213865E0,4.5337763E-2,-5.3226586E-2,1.080602E0,-2.2467607E-1,-5.611531E-2,8.982872E-1,5.615255E-2,2.4738377E-2,-3.5190083E-2,5.6022096E-2,5.253451E-1,5.5345815E-2,1.2622227E-2],"categories":[],"categories_nodes":[],"categories_segments":[],"categories_sizes":[],"default_left":[0,0,0,0,0,0,0,0,0,0,0,0,0,0,0,0,0,0,0],"id":30,"left_children":[1,3,5,7,-1,9,-1,-1,11,13,-1,15,-1,-1,-1,-1,17,-1,-1],"loss_changes":[5.4355996E3,7.396455E2,1.7482178E1,7.6193115E1,0E0,1.6933594E0,0E0,0E0,1.936206E1,1.6124079E0,0E0,4.101297E1,0E0,0E0,0E0,0E0,2.9769444E1,0E0,0E0],"parents":[2147483647,0,0,1,1,2,2,3,3,5,5,8,8,9,9,11,11,16,16],"right_children":[2,4,6,8,-1,10,-1,-1,12,14,-1,16,-1,-1,-1,-1,18,-1,-1],"split_conditions":[1.9967794E-1,2.5204159E1,5.065192E-1,2.9829535E-1,-5.5872567E-2,1.5056756E1,4.5337763E-2,-5.3226586E-2,4.9927032E-1,2.0868059E-1,-5.611531E-2,1.4885153E-1,5.615255E-2,2.4738377E-2,-3.5190083E-2,5.6022096E-2,1.5056756E1,5.5345815E-2,1.2622227E-2],"split_indices":[2,0,8,8,0,0,0,0,8,2,0,2,0,0,0,0,0,0,0],"split_type":[0,0,0,0,0,0,0,0,0,0,0,0,0,0,0,0,0,0,0],"sum_hessian":[5.172587E3,2.810973E3,2.3616138E3,2.6471748E3,1.637983E2,2.3580513E3,3.5625741E0,1.5913407E1,2.6312612E3,2.6674669E0,2.3553838E3,5.0112592E2,2.1301355E3,1.0532638E0,1.614203E0,3.127952E2,1.883307E2,5.9172863E1,1.2915785E2],"tree_param":{"num_deleted":"0","num_feature":"16","num_nodes":"19","size_leaf_vector":"1"}},{"base_weights":[1.9520616E-4,9.322116E-1,-1.1111013E0,1.0587746E0,-5.5521872E-2,-1.11456E0,4.4729866E-2,-5.2775025E-2,1.0719869E0,-2.1959881E-1,-5.5775028E-2,8.837356E-1,5.581413E-2,2.4223043E-2,-3.468198E-2,5.567735E-2,5.082718E-1,5.4972827E-2,1.2056699E-2],"categories":[],"categories_nodes":[],"categories_segments":[],"categories_sizes":[],"default_left":[0,0,0,0,0,0,0,0,0,0,0,0,0,0,0,0,0,0,0],"id":31,"left_children":[1,3,5,7,-1,9,-1,-1,11,13,-1,15,-1,-1,-1,-1,17,-1,-1],"loss_changes":[5.1338887E3,6.9810474E2,1.6681885E1,7.205786E1,0E0,1.6550293E0,0E0,0E0,2.0057861E1,1.5425931E0,0E0,4.1328064E1,0E0,0E0,0E0,0E0,2.9138653E1,0E0,0E0],"parents":[2147483647,0,0,1,1,2,2,3,3,5,5,8,8,9,9,11,11,16,16],"right_children":[2,4,6,8,-1,10,-1,-1,12,14,-1,16,-1,-1,-1,-1,18,-1,-1],"split_conditions":[1.9967794E-1,2.5204159E1,5.065192E-1,2.9829535E-1,-5.5521872E-2,1.5056756E1,4.4729866E-2,-5.2775025E-2,4.9927032E-1,2.0868059E-1,-5.5775028E-2,1.4885153E-1,5.581413E-2,2.4223043E-2,-3.468198E-2,5.567735E-2,1.5056756E1,5.4972827E-2,1.2056699E-2],"split_indices":[2,0,8,8,0,0,0,0,8,2,0,2,0,0,0,0,0,0,0],"split_type":[0,0,0,0,0,0,0,0,0,0,0,0,0,0,0,0,0,0,0],"sum_hessian":[4.9547036E3,2.694802E3,2.2599016E3,2.5380269E3,1.5677513E2,2.2564546E3,3.4469686E0,1.5271896E1,2.522755E3,2.6151042E0,2.2538396E3,4.8452658E2,2.0382284E3,1.0434135E0,1.5716907E0,2.9934174E2,1.8518484E2,5.6665836E1,1.2851901E2],"tree_param":{"num_deleted":"0","num_feature":"16","num_nodes":"19","size_leaf_vector":"1"}},{"base_weights":[1.9767402E-4,9.250475E-1,-1.1046574E0,1.0505474E0,-5.5190742E-2,-1.1081352E0,4.413545E-2,-5.233862E-2,1.0636837E0,-2.1469784E-1,-5.545489E-2,8.6933506E-1,5.5495936E-2,2.3719601E-2,-3.4183644E-2,5.535252E-2,4.916009E-1,5.461827E-2,1.1514637E-2],"categories":[],"categories_nodes":[],"categories_segments":[],"categories_sizes":[],"default_left":[0,0,0,0,0,0,0,0,0,0,0,0,0,0,0,0,0,0,0],"id":32,"left_children":[1,3,5,7,-1,9,-1,-1,11,13,-1,15,-1,-1,-1,-1,17,-1,-1],"loss_changes":[4.850338E3,6.590652E2,1.592749E1,6.8168945E1,0E0,1.6188965E0,0E0,0E0,2.0773438E1,1.4761736E0,0E0,4.1616394E1,0E0,0E0,0E0,0E0,2.8500694E1,0E0,0E0],"parents":[2147483647,0,0,1,1,2,2,3,3,5,5,8,8,9,9,11,11,16,16],"right_children":[2,4,6,8,-1,10,-1,-1,12,14,-1,16,-1,-1,-1,-1,18,-1,-1],"split_conditions":[1.9967794E-1,2.5204159E1,5.065192E-1,2.9829535E-1,-5.5190742E-2,1.5056756E1,4.413545E-2,-5.233862E-2,4.9927032E-1,2.0868059E-1,-5.545489E-2,1.4885153E-1,5.5495936E-2,2.3719601E-2,-3.4183644E-2,5.535252E-2,1.5056756E1,5.461827E-2,1.1514637E-2],"split_indices":[2,0,8,8,0,0,0,0,8,2,0,2,0,0,0,0,0,0,0],"split_type":[0,0,0,0,0,0,0,0,0,0,0,0,0,0,0,0,0,0,0],"sum_hessian":[4.74474E3,2.5828533E3,2.1618867E3,2.4328462E3,1.5000703E2,2.1585518E3,3.3350358E0,1.4653277E1,2.4181929E3,2.564252E0,2.1559875E3,4.6853024E2,1.9496627E3,1.033753E0,1.530499E0,2.8637692E2,1.821533E2,5.424959E1,1.2790372E2],"tree_param":{"num_deleted":"0","num_feature":"16","num_nodes":"19","size_leaf_vector":"1"}},{"base_weights":[2.0045765E-4,9.181295E-1,-1.0985842E0,1.0425965E0,-5.4877736E-2,-1.1020833E0,4.3553475E-2,-5.1915854E-2,1.055661E0,-2.0996737E-1,-5.515346E-2,8.550601E-1,5.519656E-2,2.3227675E-2,-3.369471E-2,5.50462E-2,4.753247E-1,5.4280657E-2,1.0995198E-2],"categories":[],"categories_nodes":[],"categories_segments":[],"categories_sizes":[],"default_left":[0,0,0,0,0,0,0,0,0,0,0,0,0,0,0,0,0,0,0],"id":33,"left_children":[1,3,5,7,-1,9,-1,-1,11,13,-1,15,-1,-1,-1,-1,17,-1,-1],"loss_changes":[4.5836826E3,6.223533E2,1.5216064E1,6.450928E1,0E0,1.5847168E0,0E0,0E0,2.1506592E1,1.4129661E0,0E0,4.187549E1,0E0,0E0,0E0,0E0,2.785625E1,0E0,0E0],"parents":[2147483647,0,0,1,1,2,2,3,3,5,5,8,8,9,9,11,11,16,16],"right_children":[2,4,6,8,-1,10,-1,-1,12,14,-1,16,-1,-1,-1,-1,18,-1,-1],"split_conditions":[1.9967794E-1,2.5204159E1,5.065192E-1,2.9829535E-1,-5.4877736E-2,1.5056756E1,4.3553475E-2,-5.1915854E-2,4.9927032E-1,2.0868059E-1,-5.515346E-2,1.4885153E-1,5.519656E-2,2.3227675E-2,-3.369471E-2,5.50462E-2,1.5056756E1,5.4280657E-2,1.0995198E-2],"split_indices":[2,0,8,8,0,0,0,0,8,2,0,2,0,0,0,0,0,0,0],"split_type":[0,0,0,0,0,0,0,0,0,0,0,0,0,0,0,0,0,0,0],"sum_hessian":[4.5425703E3,2.47506E3,2.0675103E3,2.33157E3,1.4348994E2,2.0642837E3,3.2267368E0,1.4057215E1,2.317513E3,2.5148826E0,2.0617688E3,4.5312747E2,1.8643854E3,1.0242848E0,1.4905976E0,2.7389316E2,1.7923431E2,5.1922707E1,1.27311615E2],"tree_param":{"num_deleted":"0","num_feature":"16","num_nodes":"19","size_leaf_vector":"1"}},{"base_weights":[2.0363655E-4,9.114321E-1,-1.0928559E0,1.0348928E0,-5.458153E-2,-1.0963784E0,4.2982973E-2,-5.1505335E-2,1.0478891E0,-2.054023E-1,-5.4869443E-2,8.4088784E-1,5.4914713E-2,2.2746885E-2,-3.321486E-2,5.4757055E-2,4.5943624E-1,5.3958625E-2,1.0497524E-2],"categories":[],"categories_nodes":[],"categories_segments":[],"categories_sizes":[],"default_left":[0,0,0,0,0,0,0,0,0,0,0,0,0,0,0,0,0,0,0],"id":34,"left_children":[1,3,5,7,-1,9,-1,-1,11,13,-1,15,-1,-1,-1,-1,17,-1,-1],"loss_changes":[4.3327666E3,5.878091E2,1.4544434E1,6.106421E1,0E0,1.552002E0,0E0,0E0,2.2256836E1,1.3527968E0,0E0,4.210318E1,0E0,0E0,0E0,0E0,2.720618E1,0E0,0E0],"parents":[2147483647,0,0,1,1,2,2,3,3,5,5,8,8,9,9,11,11,16,16],"right_children":[2,4,6,8,-1,10,-1,-1,12,14,-1,16,-1,-1,-1,-1,18,-1,-1],"split_conditions":[1.9967794E-1,2.5204159E1,5.065192E-1,2.9829535E-1,-5.458153E-2,1.5056756E1,4.2982973E-2,-5.1505335E-2,4.9927032E-1,2.0868059E-1,-5.4869443E-2,1.4885153E-1,5.4914713E-2,2.2746885E-2,-3.321486E-2,5.4757055E-2,1.5056756E1,5.3958625E-2,1.0497524E-2],"split_indices":[2,0,8,8,0,0,0,0,8,2,0,2,0,0,0,0,0,0,0],"split_type":[0,0,0,0,0,0,0,0,0,0,0,0,0,0,0,0,0,0,0],"sum_hessian":[4.348049E3,2.3713447E3,1.976704E3,2.2341257E3,1.3721913E2,1.973582E3,3.1220207E0,1.3483298E1,2.2206423E3,2.4669654E0,1.971115E3,4.3830722E2,1.7823352E3,1.0150104E0,1.4519551E0,2.6188147E2,1.7642578E2,4.9683544E1,1.2674223E2],"tree_param":{"num_deleted":"0","num_feature":"16","num_nodes":"19","size_leaf_vector":"1"}},{"base_weights":[2.073346E-4,9.0493137E-1,-1.0874482E0,1.027409E0,-5.4300886E-2,-1.0909964E0,4.242311E-2,-5.1105767E-2,1.0403404E0,-2.0099702E-1,-5.460163E-2,8.267979E-1,5.464918E-2,2.2276921E-2,-3.27438E-2,5.448388E-2,4.439297E-1,5.3650912E-2,1.0020799E-2],"categories":[],"categories_nodes":[],"categories_segments":[],"categories_sizes":[],"default_left":[0,0,0,0,0,0,0,0,0,0,0,0,0,0,0,0,0,0,0],"id":35,"left_children":[1,3,5,7,-1,9,-1,-1,11,13,-1,15,-1,-1,-1,-1,17,-1,-1],"loss_changes":[4.096524E3,5.5528674E2,1.39104E1,5.7818848E1,0E0,1.5209961E0,0E0,0E0,2.3023926E1,1.2955054E0,0E0,4.2297516E1,0E0,0E0,0E0,0E0,2.6551418E1,0E0,0E0],"parents":[2147483647,0,0,1,1,2,2,3,3,5,5,8,8,9,9,11,11,16,16],"right_children":[2,4,6,8,-1,10,-1,-1,12,14,-1,16,-1,-1,-1,-1,18,-1,-1],"split_conditions":[1.9967794E-1,2.5204159E1,5.065192E-1,2.9829535E-1,-5.4300886E-2,1.5056756E1,4.242311E-2,-5.1105767E-2,4.9927032E-1,2.0868059E-1,-5.460163E-2,1.4885153E-1,5.464918E-2,2.2276921E-2,-3.27438E-2,5.448388E-2,1.5056756E1,5.3650912E-2,1.0020799E-2],"split_indices":[2,0,8,8,0,0,0,0,8,2,0,2,0,0,0,0,0,0,0],"split_type":[0,0,0,0,0,0,0,0,0,0,0,0,0,0,0,0,0,0,0],"sum_hessian":[4.1610146E3,2.271622E3,1.8893925E3,2.1404326E3,1.3118944E2,1.8863717E3,3.0208309E0,1.2931086E1,2.1275015E3,2.4204705E0,1.8839512E3,4.240569E2,1.7034447E3,1.0059313E0,1.4145392E0,2.5033157E2,1.7372533E2,4.753025E1,1.26195076E2],"tree_param":{"num_deleted":"0","num_feature":"16","num_nodes":"19","size_leaf_vector":"1"}},{"base_weights":[2.111633E-4,8.9860487E-1,-1.0823393E0,1.0201195E0,-5.40347E-2,-1.0859152E0,4.1873135E-2,-5.0715964E-2,1.0329893E0,-1.9674686E-1,-5.4348927E-2,8.1277287E-1,5.4398883E-2,1.8407522E-2,-3.1340014E-2,5.4225564E-2,4.2880043E-1,5.335634E-2,9.564245E-3],"categories":[],"categories_nodes":[],"categories_segments":[],"categories_sizes":[],"default_left":[0,0,0,0,0,0,0,0,0,0,0,0,0,0,0,0,0,0,0],"id":36,"left_children":[1,3,5,7,-1,9,-1,-1,11,13,-1,15,-1,-1,-1,-1,17,-1,-1],"loss_changes":[3.8739768E3,5.246521E2,1.3310791E1,5.4759277E1,0E0,1.4914551E0,0E0,0E0,2.3806885E1,1.0507544E0,0E0,4.2456665E1,0E0,0E0,0E0,0E0,2.5893003E1,0E0,0E0],"parents":[2147483647,0,0,1,1,2,2,3,3,5,5,8,8,9,9,11,11,16,16],"right_children":[2,4,6,8,-1,10,-1,-1,12,14,-1,16,-1,-1,-1,-1,18,-1,-1],"split_conditions":[1.9967794E-1,2.5204159E1,5.065192E-1,2.9829535E-1,-5.40347E-2,1.5056756E1,4.1873135E-2,-5.0715964E-2,4.9927032E-1,2.1453649E-1,-5.4348927E-2,1.4885153E-1,5.4398883E-2,1.8407522E-2,-3.1340014E-2,5.4225564E-2,1.5056756E1,5.335634E-2,9.564245E-3],"split_indices":[2,0,8,8,0,0,0,0,8,2,0,2,0,0,0,0,0,0,0],"split_type":[0,0,0,0,0,0,0,0,0,0,0,0,0,0,0,0,0,0,0],"sum_hessian":[3.9812922E3,2.1757976E3,1.8054945E3,2.0504023E3,1.2539529E2,1.8025714E3,2.923101E0,1.2400083E1,2.0380023E3,2.3753643E0,1.800196E3,4.1036374E2,1.6276385E3,1.088935E0,1.2864293E0,2.3923322E2,1.7113054E2,4.5460888E1,1.2566964E2],"tree_param":{"num_deleted":"0","num_feature":"16","num_nodes":"19","size_leaf_vector":"1"}},{"base_weights":[2.1472806E-4,8.9243174E-1,-1.0775063E0,1.0130006E0,-5.3781904E-2,-1.081112E0,4.1332375E-2,-5.0334822E-2,1.0258114E0,-1.9303188E-1,-5.4110315E-2,7.987968E-1,5.41628E-2,1.7980533E-2,-3.0898739E-2,5.3981062E-2,4.140438E-1,5.30738E-2,9.127108E-3],"categories":[],"categories_nodes":[],"categories_segments":[],"categories_sizes":[],"default_left":[0,0,0,0,0,0,0,0,0,0,0,0,0,0,0,0,0,0,0],"id":37,"left_children":[1,3,5,7,-1,9,-1,-1,11,13,-1,15,-1,-1,-1,-1,17,-1,-1],"loss_changes":[3.6642249E3,4.9578125E2,1.27438965E1,5.1874023E1,0E0,1.4654541E0,0E0,0E0,2.460376E1,1.0060387E0,0E0,4.2579132E1,0E0,0E0,0E0,0E0,2.5231955E1,0E0,0E0],"parents":[2147483647,0,0,1,1,2,2,3,3,5,5,8,8,9,9,11,11,16,16],"right_children":[2,4,6,8,-1,10,-1,-1,12,14,-1,16,-1,-1,-1,-1,18,-1,-1],"split_conditions":[1.9967794E-1,2.5204159E1,5.065192E-1,2.9829535E-1,-5.3781904E-2,1.5056756E1,4.1332375E-2,-5.0334822E-2,4.9927032E-1,2.1453649E-1,-5.4110315E-2,1.4885153E-1,5.41628E-2,1.7980533E-2,-3.0898739E-2,5.3981062E-2,1.5056756E1,5.30738E-2,9.127108E-3],"split_indices":[2,0,8,8,0,0,0,0,8,2,0,2,0,0,0,0,0,0,0],"split_type":[0,0,0,0,0,0,0,0,0,0,0,0,0,0,0,0,0,0,0],"sum_hessian":[3.8087046E3,2.0837744E3,1.7249303E3,1.9639436E3,1.1983076E2,1.7221014E3,2.828759E0,1.1889775E1,1.9520538E3,2.337606E0,1.7197639E3,3.972133E2,1.5548406E3,1.0829552E0,1.2546506E0,2.2857463E2,1.6863866E2,4.3473293E1,1.2516536E2],"tree_param":{"num_deleted":"0","num_feature":"16","num_nodes":"19","size_leaf_vector":"1"}},{"base_weights":[2.1778926E-4,8.8639194E-1,-1.0729327E0,1.0060294E0,-5.3541537E-2,-1.0765705E0,4.080024E-2,-4.996131E-2,1.018784E0,-1.8945499E-1,-5.3884864E-2,7.848568E-1,5.3939994E-2,1.7563423E-2,-3.0465418E-2,5.3749442E-2,3.9965585E-1,5.2802306E-2,8.708618E-3],"categories":[],"categories_nodes":[],"categories_segments":[],"categories_sizes":[],"default_left":[0,0,0,0,0,0,0,0,0,0,0,0,0,0,0,0,0,0,0],"id":38,"left_children":[1,3,5,7,-1,9,-1,-1,11,13,-1,15,-1,-1,-1,-1,17,-1,-1],"loss_changes":[3.466438E3,4.685598E2,1.2207031E1,4.9151855E1,0E0,1.4407959E0,0E0,0E0,2.541455E1,9.634424E-1,0E0,4.2663742E1,0E0,0E0,0E0,0E0,2.4569489E1,0E0,0E0],"parents":[2147483647,0,0,1,1,2,2,3,3,5,5,8,8,9,9,11,11,16,16],"right_children":[2,4,6,8,-1,10,-1,-1,12,14,-1,16,-1,-1,-1,-1,18,-1,-1],"split_conditions":[1.9967794E-1,2.5204159E1,5.065192E-1,2.9829535E-1,-5.3541537E-2,1.5056756E1,4.080024E-2,-4.996131E-2,4.9927032E-1,2.1453649E-1,-5.3884864E-2,1.4885153E-1,5.3939994E-2,1.7563423E-2,-3.0465418E-2,5.3749442E-2,1.5056756E1,5.2802306E-2,8.708618E-3],"split_indices":[2,0,8,8,0,0,0,0,8,2,0,2,0,0,0,0,0,0,0],"split_type":[0,0,0,0,0,0,0,0,0,0,0,0,0,0,0,0,0,0,0],"sum_hessian":[3.643052E3,1.9954478E3,1.6476042E3,1.880958E3,1.144897E2,1.6448666E3,2.7377267E0,1.139962E1,1.8695583E3,2.301015E0,1.6425656E3,3.8459134E2,1.484967E3,1.077138E0,1.223877E0,2.1834435E2,1.66247E2,4.156535E1,1.2468164E2],"tree_param":{"num_deleted":"0","num_feature":"16","num_nodes":"19","size_leaf_vector":"1"}},{"base_weights":[2.2157317E-4,8.804674E-1,-1.0686011E0,9.991852E-1,-5.3312708E-2,-1.0722733E0,4.0276192E-2,-4.959447E-2,1.011886E0,-1.8601157E-1,-5.3671706E-2,7.7094173E-1,5.3729624E-2,1.7155955E-2,-3.0039852E-2,5.352981E-2,3.856339E-1,5.2540895E-2,8.308112E-3],"categories":[],"categories_nodes":[],"categories_segments":[],"categories_sizes":[],"default_left":[0,0,0,0,0,0,0,0,0,0,0,0,0,0,0,0,0,0,0],"id":39,"left_children":[1,3,5,7,-1,9,-1,-1,11,13,-1,15,-1,-1,-1,-1,17,-1,-1],"loss_changes":[3.279855E3,4.4288293E2,1.1699097E1,4.658191E1,0E0,1.4173584E0,0E0,0E0,2.6237793E1,9.22856E-1,0E0,4.2709167E1,0E0,0E0,0E0,0E0,2.3906687E1,0E0,0E0],"parents":[2147483647,0,0,1,1,2,2,3,3,5,5,8,8,9,9,11,11,16,16],"right_children":[2,4,6,8,-1,10,-1,-1,12,14,-1,16,-1,-1,-1,-1,18,-1,-1],"split_conditions":[1.9967794E-1,2.5204159E1,5.065192E-1,2.9829535E-1,-5.3312708E-2,1.5056756E1,4.0276192E-2,-4.959447E-2,4.9927032E-1,2.1453649E-1,-5.3671706E-2,1.4885153E-1,5.3729624E-2,1.7155955E-2,-3.0039852E-2,5.352981E-2,1.5056756E1,5.2540895E-2,8.308112E-3],"split_indices":[2,0,8,8,0,0,0,0,8,2,0,2,0,0,0,0,0,0,0],"split_type":[0,0,0,0,0,0,0,0,0,0,0,0,0,0,0,0,0,0,0],"sum_hessian":[3.4841414E3,1.9107167E3,1.5734247E3,1.8013508E3,1.09365814E2,1.5707748E3,2.6499243E0,1.0929058E1,1.7904218E3,2.2655594E0,1.5685092E3,3.7248282E2,1.417939E3,1.0714804E0,1.194079E0,2.0853009E2,1.6395271E2,3.9734818E1,1.242179E2],"tree_param":{"num_deleted":"0","num_feature":"16","num_nodes":"19","size_leaf_vector":"1"}},{"base_weights":[2.2595066E-4,8.746409E-1,-1.0644953E0,9.9244815E-1,-5.3094577E-2,4.101112E-2,-1.0681665E0,-4.923342E-2,1.0050972E0,-6.6242564E-1,-5.354066E-2,7.5704294E-1,5.3530898E-2,4.5674413E-2,-9.069334E-1,5.3321373E-2,3.7197435E-1,-4.8297685E-2,-8.408154E-3,5.228868E-2,7.924886E-3],"categories":[],"categories_nodes":[],"categories_segments":[],"categories_sizes":[],"default_left":[0,0,0,0,0,0,0,0,0,0,0,0,0,0,0,0,0,0,0,0,0],"id":40,"left_children":[1,3,5,7,-1,-1,9,-1,11,13,-1,15,-1,-1,17,-1,19,-1,-1,-1,-1],"loss_changes":[3.1037673E3,4.186537E2,1.1277954E1,4.4154907E1,0E0,0E0,9.0234375E-1,0E0,2.7071655E1,5.586697E0,0E0,4.2714737E1,0E0,0E0,3.255539E-1,0E0,2.3244688E1,0E0,0E0,0E0,0E0],"parents":[2147483647,0,0,1,1,2,2,3,3,6,6,8,8,9,9,11,11,14,14,16,16],"right_children":[2,4,6,8,-1,-1,10,-1,12,14,-1,16,-1,-1,18,-1,20,-1,-1,-1,-1],"split_conditions":[1.9967794E-1,2.5204159E1,1.42835655E1,2.9829535E-1,-5.3094577E-2,4.101112E-2,2.0344138E-1,-4.923342E-2,4.9927032E-1,1.9433683E1,-5.354066E-2,1.4885153E-1,5.3530898E-2,4.5674413E-2,4.8046422E-1,5.3321373E-2,1.5056756E1,-4.8297685E-2,-8.408154E-3,5.228868E-2,7.924886E-3],"split_indices":[2,0,0,8,0,0,2,0,8,0,0,2,0,0,8,0,0,0,0,0,0],"split_type":[0,0,0,0,0,0,0,0,0,0,0,0,0,0,0,0,0,0,0,0,0],"sum_hessian":[3.3317705E3,1.8294728E3,1.5022977E3,1.7250201E3,1.044526E2,2.4882123E0,1.4998094E3,1.0477514E1,1.7145427E3,1.1348656E1,1.4884608E3,3.6087274E2,1.3536699E3,1.1567945E0,1.0191861E1,1.9911986E2,1.6175288E2,9.153105E0,1.0387559E0,3.7979347E1,1.23773544E2],"tree_param":{"num_deleted":"0","num_feature":"16","num_nodes":"21","size_leaf_vector":"1"}},{"base_weights":[2.3056414E-4,8.6889505E-1,-1.0606035E0,9.857987E-1,-5.2886363E-2,4.0443134E-2,-1.0643166E0,-4.887734E-2,9.983979E-1,-6.506103E-1,-5.3352635E-2,7.431523E-1,5.3343046E-2,4.432675E-2,-8.9787686E-1,5.3123344E-2,3.586741E-1,-4.7943223E-2,-8.204524E-3,5.204484E-2,7.55827E-3],"categories":[],"categories_nodes":[],"categories_segments":[],"categories_sizes":[],"default_left":[0,0,0,0,0,0,0,0,0,0,0,0,0,0,0,0,0,0,0,0,0],"id":41,"left_children":[1,3,5,7,-1,-1,9,-1,11,13,-1,15,-1,-1,17,-1,19,-1,-1,-1,-1],"loss_changes":[2.9375215E3,3.95781E2,1.0822754E1,4.186206E1,0E0,0E0,9.2749023E-1,0E0,2.7915283E1,5.3476977E0,0E0,4.2679733E1,0E0,0E0,3.2655525E-1,0E0,2.2584642E1,0E0,0E0,0E0,0E0],"parents":[2147483647,0,0,1,1,2,2,3,3,6,6,8,8,9,9,11,11,14,14,16,16],"right_children":[2,4,6,8,-1,-1,10,-1,12,14,-1,16,-1,-1,18,-1,20,-1,-1,-1,-1],"split_conditions":[1.9967794E-1,2.5204159E1,1.42835655E1,2.9829535E-1,-5.2886363E-2,4.0443134E-2,2.0344138E-1,-4.887734E-2,4.9927032E-1,1.9433683E1,-5.3352635E-2,1.4885153E-1,5.3343046E-2,4.432675E-2,4.8046422E-1,5.3123344E-2,1.5056756E1,-4.7943223E-2,-8.204524E-3,5.204484E-2,7.55827E-3],"split_indices":[2,0,0,8,0,0,2,0,8,0,0,2,0,0,8,0,0,0,0,0,0],"split_type":[0,0,0,0,0,0,0,0,0,0,0,0,0,0,0,0,0,0,0,0,0],"sum_hessian":[3.18573E3,1.7516069E3,1.4341232E3,1.6518634E3,9.974352E1,2.4129581E0,1.4317102E3,1.0044407E1,1.641819E3,1.0975489E1,1.4207347E3,3.4974512E2,1.2920739E3,1.1626253E0,9.812863E0,1.9010054E2,1.5964456E2,8.776668E0,1.0361954E0,3.629663E1,1.2334794E2],"tree_param":{"num_deleted":"0","num_feature":"16","num_nodes":"21","size_leaf_vector":"1"}},{"base_weights":[2.3537302E-4,8.632147E-1,-1.056909E0,9.7921944E-1,-5.2687336E-2,-1.0607299E0,3.8876686E-2,-4.8525464E-2,9.917705E-1,-1.6540511E-1,-5.309847E-2,7.292645E-1,5.3165417E-2,1.6308224E-2,-2.8147629E-2,5.2935015E-2,3.4573084E-1,5.1808577E-2,7.207644E-3],"categories":[],"categories_nodes":[],"categories_segments":[],"categories_sizes":[],"default_left":[0,0,0,0,0,0,0,0,0,0,0,0,0,0,0,0,0,0,0],"id":42,"left_children":[1,3,5,7,-1,9,-1,-1,11,13,-1,15,-1,-1,-1,-1,17,-1,-1],"loss_changes":[2.780509E3,3.7418225E2,1.0426147E1,3.969507E1,0E0,1.3417969E0,0E0,0E0,2.8766968E1,7.8450215E-1,0E0,4.2603546E1,0E0,0E0,0E0,0E0,2.1927666E1,0E0,0E0],"parents":[2147483647,0,0,1,1,2,2,3,3,5,5,8,8,9,9,11,11,16,16],"right_children":[2,4,6,8,-1,10,-1,-1,12,14,-1,16,-1,-1,-1,-1,18,-1,-1],"split_conditions":[1.9967794E-1,2.5204159E1,5.065192E-1,2.9829535E-1,-5.2687336E-2,1.5056756E1,3.8876686E-2,-4.8525464E-2,4.9927032E-1,2.1453649E-1,-5.309847E-2,1.4885153E-1,5.3165417E-2,1.6308224E-2,-2.8147629E-2,5.2935015E-2,1.5056756E1,5.1808577E-2,7.207644E-3],"split_indices":[2,0,8,8,0,0,0,0,8,2,0,2,0,0,0,0,0,0,0],"split_type":[0,0,0,0,0,0,0,0,0,0,0,0,0,0,0,0,0,0,0],"sum_hessian":[3.0458225E3,1.6770107E3,1.3688118E3,1.5817787E3,9.523204E1,1.3663875E3,2.424267E0,9.629151E0,1.5721495E3,2.0748143E0,1.3643126E3,3.390844E2,1.2330651E3,1.0079889E0,1.0668254E0,1.8145955E2,1.5762488E2,3.4684372E1,1.22940506E2],"tree_param":{"num_deleted":"0","num_feature":"16","num_nodes":"19","size_leaf_vector":"1"}},{"base_weights":[2.4064274E-4,8.5758436E-1,-1.053396E0,9.726928E-1,-5.249682E-2,3.947979E-2,-1.0572246E0,6.668315E-1,5.2997362E-2,-6.2332314E-1,-5.300718E-2,5.2755754E-2,2.551921E-1,4.4302147E-2,-8.809518E-1,5.1579166E-2,5.364845E-2,-4.712936E-2,-1.0001183E-2,-4.7313746E-2,7.7926344E-3],"categories":[],"categories_nodes":[],"categories_segments":[],"categories_sizes":[],"default_left":[0,0,0,0,0,0,0,0,0,0,0,0,0,0,0,0,0,0,0,0,0],"id":43,"left_children":[1,3,5,7,-1,-1,9,11,-1,13,-1,-1,15,-1,17,-1,19,-1,-1,-1,-1],"loss_changes":[2.6321577E3,3.5377954E2,1.0059082E1,3.9742798E1,0E0,0E0,9.920654E-1,5.393112E1,0E0,5.1152344E0,0E0,0E0,2.5907574E1,0E0,2.321353E-1,0E0,1.3717294E1,0E0,0E0,0E0,0E0],"parents":[2147483647,0,0,1,1,2,2,3,3,6,6,7,7,9,9,12,12,14,14,16,16],"right_children":[2,4,6,8,-1,-1,10,12,-1,14,-1,-1,16,-1,18,-1,20,-1,-1,-1,-1],"split_conditions":[1.9967794E-1,2.5204159E1,1.42835655E1,4.9927032E-1,-5.249682E-2,3.947979E-2,2.0344138E-1,1.4885153E-1,5.2997362E-2,1.9433683E1,-5.300718E-2,5.2755754E-2,1.5056756E1,4.4302147E-2,4.761323E-1,5.1579166E-2,3.0324513E-1,-4.712936E-2,-1.0001183E-2,-4.7313746E-2,7.7926344E-3],"split_indices":[2,0,0,8,0,0,2,2,0,0,0,0,0,0,8,0,8,0,0,0,0],"split_type":[0,0,0,0,0,0,0,0,0,0,0,0,0,0,0,0,0,0,0,0,0],"sum_hessian":[2.9118428E3,1.6055739E3,1.3062688E3,1.5146624E3,9.091149E1,2.2825437E0,1.3039862E3,3.381068E2,1.1765555E3,1.0147245E1,1.293839E3,1.7318494E2,1.6492189E2,1.1238331E0,9.023412E0,3.3140163E1,1.3178172E2,7.9220643E0,1.1013479E0,1.1454737E1,1.2032699E2],"tree_param":{"num_deleted":"0","num_feature":"16","num_nodes":"21","size_leaf_vector":"1"}},{"base_weights":[2.47255E-4,8.5198647E-1,-1.0500584E0,9.6619785E-1,-5.2314173E-2,-1.0539871E0,3.796027E-2,6.53957E-1,5.2838292E-2,-7.710957E-3,-5.27645E-2,5.2584924E-2,2.4599302E-1,5.1355917E-2,5.0906636E-2,-4.6390995E-2,7.4323155E-3],"categories":[],"categories_nodes":[],"categories_segments":[],"categories_sizes":[],"default_left":[0,0,0,0,0,0,0,0,0,0,0,0,0,0,0,0,0],"id":44,"left_children":[1,3,5,7,-1,9,-1,11,-1,-1,-1,-1,13,-1,15,-1,-1],"loss_changes":[2.4919573E3,3.3449927E2,9.666992E0,4.035388E1,0E0,1.2967529E0,0E0,5.31203E1,0E0,0E0,0E0,0E0,2.489348E1,0E0,1.2768772E1,0E0,0E0],"parents":[2147483647,0,0,1,1,2,2,3,3,5,5,7,7,12,12,14,14],"right_children":[2,4,6,8,-1,10,-1,12,-1,-1,-1,-1,14,-1,16,-1,-1],"split_conditions":[1.9967794E-1,2.5204159E1,5.065192E-1,4.9927032E-1,-5.2314173E-2,1.5056756E1,3.796027E-2,1.4885153E-1,5.2838292E-2,-7.710957E-3,-5.27645E-2,5.2584924E-2,1.5056756E1,5.1355917E-2,3.0324513E-1,-4.6390995E-2,7.4323155E-3],"split_indices":[2,0,8,8,0,0,0,2,0,0,0,0,0,0,8,0,0],"split_type":[0,0,0,0,0,0,0,0,0,0,0,0,0,0,0,0,0],"sum_hessian":[2.783597E3,1.5372014E3,1.2463956E3,1.450426E3,8.677539E1,1.2441115E3,2.2840989E0,3.2796362E2,1.1224624E3,1.9714255E0,1.2421401E3,1.6526341E2,1.6270021E2,3.1661743E1,1.3103847E2,1.1126756E1,1.1991171E2],"tree_param":{"num_deleted":"0","num_feature":"16","num_nodes":"17","size_leaf_vector":"1"}},{"base_weights":[2.5652864E-4,8.464089E-1,-1.0468546E0,9.5972157E-1,-5.2138794E-2,3.86816E-2,-1.050834E0,6.4106894E-1,5.2687656E-2,-5.955438E-1,-5.269779E-2,5.2421935E-2,2.370306E-1,4.429739E-2,-8.639761E-1,5.1138163E-2,4.8281405E-2,-4.6386503E-2,-9.349454E-3,-4.545464E-2,7.087685E-3],"categories":[],"categories_nodes":[],"categories_segments":[],"categories_sizes":[],"default_left":[0,0,0,0,0,0,0,0,0,0,0,0,0,0,0,0,0,0,0,0,0],"id":45,"left_children":[1,3,5,7,-1,-1,9,11,-1,13,-1,-1,15,-1,17,-1,19,-1,-1,-1,-1],"loss_changes":[2.3593699E3,3.1627576E2,9.434814E0,4.097229E1,0E0,0E0,1.060791E0,5.2299515E1,0E0,4.896949E0,0E0,0E0,2.3913628E1,0E0,2.2798872E-1,0E0,1.1881411E1,0E0,0E0,0E0,0E0],"parents":[2147483647,0,0,1,1,2,2,3,3,6,6,7,7,9,9,12,12,14,14,16,16],"right_children":[2,4,6,8,-1,-1,10,12,-1,14,-1,-1,16,-1,18,-1,20,-1,-1,-1,-1],"split_conditions":[1.9967794E-1,2.5204159E1,1.42835655E1,4.9927032E-1,-5.2138794E-2,3.86816E-2,2.0344138E-1,1.4885153E-1,5.2687656E-2,1.9433683E1,-5.269779E-2,5.2421935E-2,1.5056756E1,4.429739E-2,4.761323E-1,5.1138163E-2,3.0324513E-1,-4.6386503E-2,-9.349454E-3,-4.545464E-2,7.087685E-3],"split_indices":[2,0,0,8,0,0,2,2,0,0,0,0,0,0,8,0,8,0,0,0,0],"split_type":[0,0,0,0,0,0,0,0,0,0,0,0,0,0,0,0,0,0,0,0,0],"sum_hessian":[2.6608992E3,1.471775E3,1.1891243E3,1.3889578E3,8.281723E1,2.1717784E0,1.1869524E3,3.182604E2,1.0706974E3,9.389027E0,1.1775634E3,1.5768268E2,1.6057774E2,1.0873635E0,8.301663E0,3.0246746E1,1.30331E2,7.2486553E0,1.0530082E0,1.0816725E1,1.1951427E2],"tree_param":{"num_deleted":"0","num_feature":"16","num_nodes":"21","size_leaf_vector":"1"}},{"base_weights":[2.6410393E-4,8.408385E-1,-1.0438296E0,9.5324886E-1,-5.1970124E-2,3.815207E-2,-1.047863E0,6.2816906E-1,5.254494E-2,-5.838522E-1,-5.2554976E-2,5.2266277E-2,2.2830474E-1,4.296383E-2,-8.549574E-1,5.0925285E-2,4.576888E-2,-4.6038475E-2,-9.1245705E-3,-4.4506345E-2,6.758112E-3],"categories":[],"categories_nodes":[],"categories_segments":[],"categories_sizes":[],"default_left":[0,0,0,0,0,0,0,0,0,0,0,0,0,0,0,0,0,0,0,0,0],"id":46,"left_children":[1,3,5,7,-1,-1,9,11,-1,13,-1,-1,15,-1,17,-1,19,-1,-1,-1,-1],"loss_changes":[2.234026E3,2.9904614E2,9.073853E0,4.1596313E1,0E0,0E0,1.0880127E0,5.1468117E1,0E0,4.6857557E0,0E0,0E0,2.2966963E1,0E0,2.3041105E-1,0E0,1.105151E1,0E0,0E0,0E0,0E0],"parents":[2147483647,0,0,1,1,2,2,3,3,6,6,7,7,9,9,12,12,14,14,16,16],"right_children":[2,4,6,8,-1,-1,10,12,-1,14,-1,-1,16,-1,18,-1,20,-1,-1,-1,-1],"split_conditions":[1.9967794E-1,2.5204159E1,1.42835655E1,4.9927032E-1,-5.1970124E-2,3.815207E-2,2.0344138E-1,1.4885153E-1,5.254494E-2,1.9433683E1,-5.2554976E-2,5.2266277E-2,1.5056756E1,4.296383E-2,4.761323E-1,5.0925285E-2,3.0324513E-1,-4.6038475E-2,-9.1245705E-3,-4.4506345E-2,6.758112E-3],"split_indices":[2,0,0,8,0,0,2,2,0,0,0,0,0,0,8,0,8,0,0,0,0],"split_type":[0,0,0,0,0,0,0,0,0,0,0,0,0,0,0,0,0,0,0,0,0],"sum_hessian":[2.543497E3,1.4091885E3,1.1343087E3,1.330158E3,7.903059E1,2.1073444E0,1.1322013E3,3.0898163E2,1.0211763E3,9.098949E0,1.1231024E3,1.5043103E2,1.5855061E2,1.0958838E0,8.003065E0,2.8892918E1,1.296577E2,6.9533224E0,1.049743E0,1.0523669E1,1.19134026E2],"tree_param":{"num_deleted":"0","num_feature":"16","num_nodes":"21","size_leaf_vector":"1"}},{"base_weights":[2.733321E-4,8.352636E-1,-1.0409449E0,9.467661E-1,-5.1807623E-2,3.7631113E-2,-1.045035E0,6.152589E-1,5.2409675E-2,-5.7218736E-1,-5.241964E-2,5.2117426E-2,2.1981573E-1,3.836001E-2,-8.6336607E-1,5.0716687E-2,4.3366164E-2,-1.3153528E-2,-4.557986E-2,-4.354792E-2,6.443036E-3],"categories":[],"categories_nodes":[],"categories_segments":[],"categories_sizes":[],"default_left":[0,0,0,0,0,0,0,0,0,0,0,0,0,0,0,0,0,0,0,0,0],"id":47,"left_children":[1,3,5,7,-1,-1,9,11,-1,13,-1,-1,15,-1,17,-1,19,-1,-1,-1,-1],"loss_changes":[2.1154653E3,2.8275336E2,8.730347E0,4.2223267E1,0E0,0E0,1.1160889E0,5.0625343E1,0E0,4.493248E0,0E0,0E0,2.2052437E1,0E0,7.4186325E-3,0E0,1.0275633E1,0E0,0E0,0E0,0E0],"parents":[2147483647,0,0,1,1,2,2,3,3,6,6,7,7,9,9,12,12,14,14,16,16],"right_children":[2,4,6,8,-1,-1,10,12,-1,14,-1,-1,16,-1,18,-1,20,-1,-1,-1,-1],"split_conditions":[1.9967794E-1,2.5204159E1,1.42835655E1,4.9927032E-1,-5.1807623E-2,3.7631113E-2,2.0344138E-1,1.4885153E-1,5.2409675E-2,1.9992636E1,-5.241964E-2,5.2117426E-2,1.5056756E1,3.836001E-2,2.566916E1,5.0716687E-2,3.0324513E-1,-1.3153528E-2,-4.557986E-2,-4.354792E-2,6.443036E-3],"split_indices":[2,0,0,8,0,0,2,2,0,0,0,0,0,0,0,0,8,0,0,0,0],"split_type":[0,0,0,0,0,0,0,0,0,0,0,0,0,0,0,0,0,0,0,0,0],"sum_hessian":[2.4312275E3,1.3493407E3,1.0818868E3,1.2739315E3,7.5409134E1,2.0451179E0,1.0798417E3,3.0011053E2,9.73821E2,8.822722E0,1.071019E3,1.4349548E2,1.5661504E2,1.2835833E0,7.539139E0,2.759801E1,1.2901703E2,1.0407025E0,6.4984365E0,1.0246643E1,1.18770386E2],"tree_param":{"num_deleted":"0","num_feature":"16","num_nodes":"21","size_leaf_vector":"1"}},{"base_weights":[2.7859595E-4,8.296713E-1,-1.038194E0,9.4025916E-1,-5.1650792E-2,3.7118405E-2,-1.042343E0,6.0234207E-1,5.2281406E-2,-5.6105703E-1,-5.2291322E-2,5.1974893E-2,2.1156278E-1,4.0453847E-2,-8.375982E-1,5.051182E-2,4.10695E-2,-4.538205E-2,-8.246633E-3,-4.258129E-2,6.141868E-3],"categories":[],"categories_nodes":[],"categories_segments":[],"categories_sizes":[],"default_left":[0,0,0,0,0,0,0,0,0,0,0,0,0,0,0,0,0,0,0,0,0],"id":48,"left_children":[1,3,5,7,-1,-1,9,11,-1,13,-1,-1,15,-1,17,-1,19,-1,-1,-1,-1],"loss_changes":[2.0032977E3,2.6734222E2,8.403687E0,4.285132E1,0E0,0E0,1.1413574E0,4.9770782E1,0E0,4.3015223E0,0E0,0E0,2.11691E1,0E0,2.483921E-1,0E0,9.550551E0,0E0,0E0,0E0,0E0],"parents":[2147483647,0,0,1,1,2,2,3,3,6,6,7,7,9,9,12,12,14,14,16,16],"right_children":[2,4,6,8,-1,-1,10,12,-1,14,-1,-1,16,-1,18,-1,20,-1,-1,-1,-1],"split_conditions":[1.9967794E-1,2.5204159E1,1.42835655E1,4.9927032E-1,-5.1650792E-2,3.7118405E-2,2.0344138E-1,1.4885153E-1,5.2281406E-2,1.9433683E1,-5.2291322E-2,5.1974893E-2,1.5056756E1,4.0453847E-2,4.761323E-1,5.051182E-2,3.0324513E-1,-4.538205E-2,-8.246633E-3,-4.258129E-2,6.141868E-3],"split_indices":[2,0,0,8,0,0,2,2,0,0,0,0,0,0,8,0,8,0,0,0,0],"split_type":[0,0,0,0,0,0,0,0,0,0,0,0,0,0,0,0,0,0,0,0,0],"sum_hessian":[2.3238955E3,1.2921224E3,1.0317732E3,1.2201758E3,7.194666E1,1.9850402E0,1.0297882E3,2.916318E2,9.2854395E2,8.564147E0,1.021224E3,1.3686453E2,1.5476726E2,1.1148549E0,7.449292E0,2.6359789E1,1.2840747E2,6.4303937E0,1.0188985E0,9.984724E0,1.18422745E2],"tree_param":{"num_deleted":"0","num_feature":"16","num_nodes":"21","size_leaf_vector":"1"}},{"base_weights":[2.8789215E-4,8.2405084E-1,-1.0355633E0,9.337154E-1,-5.1499147E-2,-1.039841E0,3.5890464E-2,5.894239E-1,5.2159708E-2,-5.831271E-3,-5.2066036E-2,5.1838245E-2,2.0354554E-1,5.0310135E-2,3.887583E-2,-4.5591287E-2,5.5301283E-3],"categories":[],"categories_nodes":[],"categories_segments":[],"categories_sizes":[],"default_left":[0,0,0,0,0,0,0,0,0,0,0,0,0,0,0,0,0],"id":49,"left_children":[1,3,5,7,-1,9,-1,11,-1,-1,-1,-1,13,-1,15,-1,-1],"loss_changes":[1.8971376E3,2.527627E2,8.133423E0,4.3477966E1,0E0,1.2211914E0,0E0,4.8904358E1,0E0,0E0,0E0,0E0,2.031606E1,0E0,8.885693E0,0E0,0E0],"parents":[2147483647,0,0,1,1,2,2,3,3,5,5,7,7,12,12,14,14],"right_children":[2,4,6,8,-1,10,-1,12,-1,-1,-1,-1,14,-1,16,-1,-1],"split_conditions":[1.9967794E-1,2.5204159E1,5.065192E-1,4.9927032E-1,-5.1499147E-2,1.5056756E1,3.5890464E-2,1.4885153E-1,5.2159708E-2,-5.831271E-3,-5.2066036E-2,5.1838245E-2,1.5056756E1,5.0310135E-2,3.0102512E-1,-4.5591287E-2,5.5301283E-3],"split_indices":[2,0,8,8,0,0,0,2,0,0,0,0,0,0,8,0,0],"split_type":[0,0,0,0,0,0,0,0,0,0,0,0,0,0,0,0,0],"sum_hessian":[2.2213057E3,1.2374363E3,9.8386945E2,1.1687992E3,6.86371E1,9.8188086E2,1.9885691E0,2.8353027E2,8.8526886E2,1.6988012E0,9.8018207E2,1.3052663E2,1.5300365E2,2.5176115E1,1.2782753E2,8.145855E0,1.1968168E2],"tree_param":{"num_deleted":"0","num_feature":"16","num_nodes":"17","size_leaf_vector":"1"}},{"base_weights":[3.0061908E-4,8.1840724E-1,-1.0330174E0,9.271422E-1,-5.1352233E-2,3.636578E-2,-1.037346E0,5.765512E-1,5.204421E-2,-5.3203773E-1,-5.205461E-2,5.170704E-2,1.9576214E-1,3.7487756E-2,-8.380388E-1,5.0111126E-2,3.6743622E-2,-1.2490357E-2,-4.444669E-2,-4.1027676E-2,5.5943117E-3],"categories":[],"categories_nodes":[],"categories_segments":[],"categories_sizes":[],"default_left":[0,0,0,0,0,0,0,0,0,0,0,0,0,0,0,0,0,0,0,0,0],"id":50,"left_children":[1,3,5,7,-1,-1,9,11,-1,13,-1,-1,15,-1,17,-1,19,-1,-1,-1,-1],"loss_changes":[1.7966243E3,2.3897223E2,7.9103394E0,4.408905E1,0E0,0E0,1.2201538E0,4.8021767E1,0E0,4.1357064E0,0E0,0E0,1.9493216E1,0E0,8.192539E-3,0E0,8.353329E0,0E0,0E0,0E0,0E0],"parents":[2147483647,0,0,1,1,2,2,3,3,6,6,7,7,9,9,12,12,14,14,16,16],"right_children":[2,4,6,8,-1,-1,10,12,-1,14,-1,-1,16,-1,18,-1,20,-1,-1,-1,-1],"split_conditions":[1.9967794E-1,2.5204159E1,1.42835655E1,4.9927032E-1,-5.1352233E-2,3.636578E-2,2.0344138E-1,1.4885153E-1,5.204421E-2,1.9992636E1,-5.205461E-2,5.170704E-2,1.5056756E1,3.7487756E-2,2.6119368E1,5.0111126E-2,3.0324513E-1,-1.2490357E-2,-4.444669E-2,-4.1027676E-2,5.5943117E-3],"split_indices":[2,0,0,8,0,0,2,2,0,0,0,0,0,0,0,0,8,0,0,0,0],"split_type":[0,0,0,0,0,0,0,0,0,0,0,0,0,0,0,0,0,0,0,0,0],"sum_hessian":[2.1232664E3,1.1851545E3,9.381119E2,1.1196799E3,6.547451E1,1.8914416E0,9.362204E2,2.7576077E2,8.439192E2,7.9421587E0,9.2827826E2,1.2447039E2,1.5129037E2,1.2511418E0,6.691017E0,2.4044825E1,1.2724556E2,1.0033085E0,5.6877084E0,9.454929E0,1.1779063E2],"tree_param":{"num_deleted":"0","num_feature":"16","num_nodes":"21","size_leaf_vector":"1"}}]},"name":"gbtree"},"learner_model_param":{"base_score":"[5E-1]","boost_from_average":"1","num_class":"0","num_feature":"16","num_target":"1"},"objective":{"name":"binary:logistic","reg_loss_param":{"scale_pos_weight":"1.02722108"}}},"version":[3,1,2]}